=== Run information ===

Scheme:       weka.classifiers.trees.RandomTree -K 0 -M 1.0 -V 0.001 -S 1
Relation:     train-80-weka.filters.unsupervised.attribute.Remove-R43
Instances:    118798
Attributes:   42
              duration
              protocol_type
              service
              flag
              src_bytes
              dst_bytes
              land
              wrong_fragment
              urgent
              hot
              num_failed_logins
              logged_in
              num_compromised
              root_shell
              su_attempted
              num_root
              num_file_creations
              num_shells
              num_access_files
              num_outbound_cmds
              is_host_login
              is_guest_login
              count
              srv_count
              serror_rate
              srv_serror_rate
              rerror_rate
              srv_rerror_rate
              same_srv_rate
              diff_srv_rate
              srv_diff_host_rate
              dst_host_count
              dst_host_srv_count
              dst_host_same_srv_rate
              dst_host_diff_srv_rate
              dst_host_same_src_port_rate
              dst_host_srv_diff_host_rate
              dst_host_serror_rate
              dst_host_srv_serror_rate
              dst_host_rerror_rate
              dst_host_srv_rerror_rate
              outcome
Test mode:    user supplied test set:  size unknown (reading incrementally)

=== Classifier model (full training set) ===


RandomTree
==========

dst_host_srv_count < 69.5
|   diff_srv_rate < 0.04
|   |   src_bytes < 8.5
|   |   |   dst_host_srv_rerror_rate < 0.33
|   |   |   |   dst_host_srv_diff_host_rate < 0.46
|   |   |   |   |   protocol_type = tcp
|   |   |   |   |   |   dst_host_serror_rate < 0.28
|   |   |   |   |   |   |   srv_serror_rate < 0.75
|   |   |   |   |   |   |   |   dst_host_diff_srv_rate < 0.63
|   |   |   |   |   |   |   |   |   service = http
|   |   |   |   |   |   |   |   |   |   dst_host_srv_count < 19.5
|   |   |   |   |   |   |   |   |   |   |   dst_host_count < 10.5 : normal (4/0)
|   |   |   |   |   |   |   |   |   |   |   dst_host_count >= 10.5 : phf (1/0)
|   |   |   |   |   |   |   |   |   |   dst_host_srv_count >= 19.5 : normal (12/0)
|   |   |   |   |   |   |   |   |   service = domain_u : normal (0/0)
|   |   |   |   |   |   |   |   |   service = ftp_data
|   |   |   |   |   |   |   |   |   |   dst_host_count < 19.5
|   |   |   |   |   |   |   |   |   |   |   dst_host_srv_count < 23.5
|   |   |   |   |   |   |   |   |   |   |   |   duration < 1.5
|   |   |   |   |   |   |   |   |   |   |   |   |   dst_host_count < 1.5
|   |   |   |   |   |   |   |   |   |   |   |   |   |   dst_host_rerror_rate < 0.5
|   |   |   |   |   |   |   |   |   |   |   |   |   |   |   dst_bytes < 4469.5 : ps (2/0)
|   |   |   |   |   |   |   |   |   |   |   |   |   |   |   dst_bytes >= 4469.5
|   |   |   |   |   |   |   |   |   |   |   |   |   |   |   |   dst_bytes < 6435.5 : buffer_overflow (1/0)
|   |   |   |   |   |   |   |   |   |   |   |   |   |   |   |   dst_bytes >= 6435.5 : warezmaster (1/0)
|   |   |   |   |   |   |   |   |   |   |   |   |   |   dst_host_rerror_rate >= 0.5 : ipsweep (1/0)
|   |   |   |   |   |   |   |   |   |   |   |   |   dst_host_count >= 1.5
|   |   |   |   |   |   |   |   |   |   |   |   |   |   dst_host_srv_diff_host_rate < 0.33
|   |   |   |   |   |   |   |   |   |   |   |   |   |   |   root_shell < 0.5
|   |   |   |   |   |   |   |   |   |   |   |   |   |   |   |   dst_host_srv_count < 5.5
|   |   |   |   |   |   |   |   |   |   |   |   |   |   |   |   |   count < 1.5 : multihop (2/0)
|   |   |   |   |   |   |   |   |   |   |   |   |   |   |   |   |   count >= 1.5
|   |   |   |   |   |   |   |   |   |   |   |   |   |   |   |   |   |   logged_in < 0.5 : warezmaster (1/0)
|   |   |   |   |   |   |   |   |   |   |   |   |   |   |   |   |   |   logged_in >= 0.5 : buffer_overflow (2/0)
|   |   |   |   |   |   |   |   |   |   |   |   |   |   |   |   dst_host_srv_count >= 5.5 : buffer_overflow (2/0)
|   |   |   |   |   |   |   |   |   |   |   |   |   |   |   root_shell >= 0.5 : buffer_overflow (1/0)
|   |   |   |   |   |   |   |   |   |   |   |   |   |   dst_host_srv_diff_host_rate >= 0.33 : ftp_write (1/0)
|   |   |   |   |   |   |   |   |   |   |   |   duration >= 1.5 : warezmaster (17/0)
|   |   |   |   |   |   |   |   |   |   |   dst_host_srv_count >= 23.5
|   |   |   |   |   |   |   |   |   |   |   |   srv_rerror_rate < 0.5 : normal (4/0)
|   |   |   |   |   |   |   |   |   |   |   |   srv_rerror_rate >= 0.5 : ipsweep (3/0)
|   |   |   |   |   |   |   |   |   |   dst_host_count >= 19.5
|   |   |   |   |   |   |   |   |   |   |   dst_host_diff_srv_rate < 0.05
|   |   |   |   |   |   |   |   |   |   |   |   dst_host_srv_rerror_rate < 0.01
|   |   |   |   |   |   |   |   |   |   |   |   |   dst_host_srv_diff_host_rate < 0.07 : normal (2/0)
|   |   |   |   |   |   |   |   |   |   |   |   |   dst_host_srv_diff_host_rate >= 0.07 : ps (1/0)
|   |   |   |   |   |   |   |   |   |   |   |   dst_host_srv_rerror_rate >= 0.01 : portsweep (1/0)
|   |   |   |   |   |   |   |   |   |   |   dst_host_diff_srv_rate >= 0.05
|   |   |   |   |   |   |   |   |   |   |   |   dst_host_diff_srv_rate < 0.27 : normal (7/0)
|   |   |   |   |   |   |   |   |   |   |   |   dst_host_diff_srv_rate >= 0.27
|   |   |   |   |   |   |   |   |   |   |   |   |   flag = REJ : normal (0/0)
|   |   |   |   |   |   |   |   |   |   |   |   |   flag = SF : normal (1/0)
|   |   |   |   |   |   |   |   |   |   |   |   |   flag = RSTO : normal (0/0)
|   |   |   |   |   |   |   |   |   |   |   |   |   flag = S0 : normal (0/0)
|   |   |   |   |   |   |   |   |   |   |   |   |   flag = S3 : normal (0/0)
|   |   |   |   |   |   |   |   |   |   |   |   |   flag = RSTR : portsweep (1/0)
|   |   |   |   |   |   |   |   |   |   |   |   |   flag = S1 : normal (0/0)
|   |   |   |   |   |   |   |   |   |   |   |   |   flag = S2 : normal (0/0)
|   |   |   |   |   |   |   |   |   |   |   |   |   flag = OTH : normal (0/0)
|   |   |   |   |   |   |   |   |   |   |   |   |   flag = RSTOS0 : normal (0/0)
|   |   |   |   |   |   |   |   |   |   |   |   |   flag = SH : normal (0/0)
|   |   |   |   |   |   |   |   |   service = private
|   |   |   |   |   |   |   |   |   |   dst_host_count < 50 : normal (1/0)
|   |   |   |   |   |   |   |   |   |   dst_host_count >= 50 : portsweep (3/0)
|   |   |   |   |   |   |   |   |   service = other : named (1/0)
|   |   |   |   |   |   |   |   |   service = smtp
|   |   |   |   |   |   |   |   |   |   flag = REJ : normal (2/0)
|   |   |   |   |   |   |   |   |   |   flag = SF
|   |   |   |   |   |   |   |   |   |   |   dst_host_same_srv_rate < 0.13 : satan (1/0)
|   |   |   |   |   |   |   |   |   |   |   dst_host_same_srv_rate >= 0.13 : normal (6/0)
|   |   |   |   |   |   |   |   |   |   flag = RSTO : normal (1/0)
|   |   |   |   |   |   |   |   |   |   flag = S0 : normal (9/0)
|   |   |   |   |   |   |   |   |   |   flag = S3 : normal (0/0)
|   |   |   |   |   |   |   |   |   |   flag = RSTR : portsweep (1/0)
|   |   |   |   |   |   |   |   |   |   flag = S1 : normal (0/0)
|   |   |   |   |   |   |   |   |   |   flag = S2 : normal (0/0)
|   |   |   |   |   |   |   |   |   |   flag = OTH : normal (0/0)
|   |   |   |   |   |   |   |   |   |   flag = RSTOS0 : normal (0/0)
|   |   |   |   |   |   |   |   |   |   flag = SH : normal (0/0)
|   |   |   |   |   |   |   |   |   service = telnet
|   |   |   |   |   |   |   |   |   |   dst_host_same_srv_rate < 0.11
|   |   |   |   |   |   |   |   |   |   |   dst_host_diff_srv_rate < 0.21 : normal (6/0)
|   |   |   |   |   |   |   |   |   |   |   dst_host_diff_srv_rate >= 0.21 : portsweep (2/0)
|   |   |   |   |   |   |   |   |   |   dst_host_same_srv_rate >= 0.11
|   |   |   |   |   |   |   |   |   |   |   srv_rerror_rate < 0.74 : processtable (30/0)
|   |   |   |   |   |   |   |   |   |   |   srv_rerror_rate >= 0.74 : mscan (1/0)
|   |   |   |   |   |   |   |   |   service = eco_i : normal (0/0)
|   |   |   |   |   |   |   |   |   service = X11 : normal (0/0)
|   |   |   |   |   |   |   |   |   service = ntp_u : normal (0/0)
|   |   |   |   |   |   |   |   |   service = ftp : normal (10/0)
|   |   |   |   |   |   |   |   |   service = IRC : normal (0/0)
|   |   |   |   |   |   |   |   |   service = time : normal (56/0)
|   |   |   |   |   |   |   |   |   service = finger
|   |   |   |   |   |   |   |   |   |   dst_host_rerror_rate < 0.08 : normal (229/0)
|   |   |   |   |   |   |   |   |   |   dst_host_rerror_rate >= 0.08
|   |   |   |   |   |   |   |   |   |   |   dst_host_count < 139.5
|   |   |   |   |   |   |   |   |   |   |   |   src_bytes < 2.5 : portsweep (2/0)
|   |   |   |   |   |   |   |   |   |   |   |   src_bytes >= 2.5 : saint (2/0)
|   |   |   |   |   |   |   |   |   |   |   dst_host_count >= 139.5 : normal (7/0)
|   |   |   |   |   |   |   |   |   service = urp_i : normal (0/0)
|   |   |   |   |   |   |   |   |   service = auth : normal (1/0)
|   |   |   |   |   |   |   |   |   service = ecr_i : normal (0/0)
|   |   |   |   |   |   |   |   |   service = domain : normal (0/0)
|   |   |   |   |   |   |   |   |   service = pop_3 : mscan (1/0)
|   |   |   |   |   |   |   |   |   service = urh_i : normal (0/0)
|   |   |   |   |   |   |   |   |   service = red_i : normal (0/0)
|   |   |   |   |   |   |   |   |   service = remote_job : normal (0/0)
|   |   |   |   |   |   |   |   |   service = tftp_u : normal (0/0)
|   |   |   |   |   |   |   |   |   service = ssh : normal (0/0)
|   |   |   |   |   |   |   |   |   service = shell : normal (0/0)
|   |   |   |   |   |   |   |   |   service = imap4 : normal (0/0)
|   |   |   |   |   |   |   |   |   service = tim_i : normal (0/0)
|   |   |   |   |   |   |   |   |   service = link : normal (0/0)
|   |   |   |   |   |   |   |   |   service = uucp : normal (0/0)
|   |   |   |   |   |   |   |   |   service = whois : normal (0/0)
|   |   |   |   |   |   |   |   |   service = mtp : normal (0/0)
|   |   |   |   |   |   |   |   |   service = Z39_50 : normal (0/0)
|   |   |   |   |   |   |   |   |   service = supdup : normal (0/0)
|   |   |   |   |   |   |   |   |   service = login : normal (0/0)
|   |   |   |   |   |   |   |   |   service = http_443 : normal (0/0)
|   |   |   |   |   |   |   |   |   service = bgp : normal (0/0)
|   |   |   |   |   |   |   |   |   service = uucp_path : normal (0/0)
|   |   |   |   |   |   |   |   |   service = sql_net : normal (0/0)
|   |   |   |   |   |   |   |   |   service = hostnames : normal (0/0)
|   |   |   |   |   |   |   |   |   service = iso_tsap : normal (0/0)
|   |   |   |   |   |   |   |   |   service = nnsp : normal (0/0)
|   |   |   |   |   |   |   |   |   service = csnet_ns : normal (0/0)
|   |   |   |   |   |   |   |   |   service = vmnet : normal (0/0)
|   |   |   |   |   |   |   |   |   service = kshell : normal (0/0)
|   |   |   |   |   |   |   |   |   service = sunrpc : normal (0/0)
|   |   |   |   |   |   |   |   |   service = efs : normal (0/0)
|   |   |   |   |   |   |   |   |   service = klogin : normal (0/0)
|   |   |   |   |   |   |   |   |   service = ldap : normal (0/0)
|   |   |   |   |   |   |   |   |   service = pop_2 : satan (1/0)
|   |   |   |   |   |   |   |   |   service = netstat : normal (0/0)
|   |   |   |   |   |   |   |   |   service = daytime : normal (0/0)
|   |   |   |   |   |   |   |   |   service = exec : normal (0/0)
|   |   |   |   |   |   |   |   |   service = discard : normal (0/0)
|   |   |   |   |   |   |   |   |   service = netbios_dgm : normal (0/0)
|   |   |   |   |   |   |   |   |   service = systat : normal (0/0)
|   |   |   |   |   |   |   |   |   service = name : normal (0/0)
|   |   |   |   |   |   |   |   |   service = ctf : normal (0/0)
|   |   |   |   |   |   |   |   |   service = rje : normal (0/0)
|   |   |   |   |   |   |   |   |   service = netbios_ns : normal (0/0)
|   |   |   |   |   |   |   |   |   service = courier : normal (0/0)
|   |   |   |   |   |   |   |   |   service = echo : normal (0/0)
|   |   |   |   |   |   |   |   |   service = gopher : normal (0/0)
|   |   |   |   |   |   |   |   |   service = netbios_ssn : normal (0/0)
|   |   |   |   |   |   |   |   |   service = printer : normal (0/0)
|   |   |   |   |   |   |   |   |   service = nntp : normal (0/0)
|   |   |   |   |   |   |   |   |   service = http_2784 : normal (0/0)
|   |   |   |   |   |   |   |   |   service = aol : normal (0/0)
|   |   |   |   |   |   |   |   |   service = pm_dump : normal (0/0)
|   |   |   |   |   |   |   |   |   service = http_8001 : normal (0/0)
|   |   |   |   |   |   |   |   |   service = harvest : normal (0/0)
|   |   |   |   |   |   |   |   dst_host_diff_srv_rate >= 0.63
|   |   |   |   |   |   |   |   |   dst_host_same_srv_rate < 0.01
|   |   |   |   |   |   |   |   |   |   dst_host_count < 232 : portsweep (26/0)
|   |   |   |   |   |   |   |   |   |   dst_host_count >= 232
|   |   |   |   |   |   |   |   |   |   |   duration < 4116.5 : portsweep (5/0)
|   |   |   |   |   |   |   |   |   |   |   duration >= 4116.5 : processtable (1/0)
|   |   |   |   |   |   |   |   |   dst_host_same_srv_rate >= 0.01
|   |   |   |   |   |   |   |   |   |   dst_host_count < 157.5
|   |   |   |   |   |   |   |   |   |   |   duration < 1.5
|   |   |   |   |   |   |   |   |   |   |   |   dst_host_rerror_rate < 0.54
|   |   |   |   |   |   |   |   |   |   |   |   |   dst_host_diff_srv_rate < 0.88 : saint (1/0)
|   |   |   |   |   |   |   |   |   |   |   |   |   dst_host_diff_srv_rate >= 0.88 : normal (1/0)
|   |   |   |   |   |   |   |   |   |   |   |   dst_host_rerror_rate >= 0.54 : ipsweep (8/0)
|   |   |   |   |   |   |   |   |   |   |   duration >= 1.5 : ipsweep (12/0)
|   |   |   |   |   |   |   |   |   |   dst_host_count >= 157.5
|   |   |   |   |   |   |   |   |   |   |   service = http : normal (0/0)
|   |   |   |   |   |   |   |   |   |   |   service = domain_u : normal (0/0)
|   |   |   |   |   |   |   |   |   |   |   service = ftp_data : normal (0/0)
|   |   |   |   |   |   |   |   |   |   |   service = private : normal (0/0)
|   |   |   |   |   |   |   |   |   |   |   service = other : normal (0/0)
|   |   |   |   |   |   |   |   |   |   |   service = smtp : portsweep (2/0)
|   |   |   |   |   |   |   |   |   |   |   service = telnet : processtable (16/0)
|   |   |   |   |   |   |   |   |   |   |   service = eco_i : normal (0/0)
|   |   |   |   |   |   |   |   |   |   |   service = X11 : normal (0/0)
|   |   |   |   |   |   |   |   |   |   |   service = ntp_u : normal (0/0)
|   |   |   |   |   |   |   |   |   |   |   service = ftp : normal (0/0)
|   |   |   |   |   |   |   |   |   |   |   service = IRC : normal (0/0)
|   |   |   |   |   |   |   |   |   |   |   service = time : normal (0/0)
|   |   |   |   |   |   |   |   |   |   |   service = finger : normal (0/0)
|   |   |   |   |   |   |   |   |   |   |   service = urp_i : normal (0/0)
|   |   |   |   |   |   |   |   |   |   |   service = auth : normal (0/0)
|   |   |   |   |   |   |   |   |   |   |   service = ecr_i : normal (0/0)
|   |   |   |   |   |   |   |   |   |   |   service = domain : normal (0/0)
|   |   |   |   |   |   |   |   |   |   |   service = pop_3 : normal (0/0)
|   |   |   |   |   |   |   |   |   |   |   service = urh_i : normal (0/0)
|   |   |   |   |   |   |   |   |   |   |   service = red_i : normal (0/0)
|   |   |   |   |   |   |   |   |   |   |   service = remote_job : normal (0/0)
|   |   |   |   |   |   |   |   |   |   |   service = tftp_u : normal (0/0)
|   |   |   |   |   |   |   |   |   |   |   service = ssh : normal (0/0)
|   |   |   |   |   |   |   |   |   |   |   service = shell : normal (0/0)
|   |   |   |   |   |   |   |   |   |   |   service = imap4 : normal (0/0)
|   |   |   |   |   |   |   |   |   |   |   service = tim_i : normal (0/0)
|   |   |   |   |   |   |   |   |   |   |   service = link : normal (0/0)
|   |   |   |   |   |   |   |   |   |   |   service = uucp : normal (0/0)
|   |   |   |   |   |   |   |   |   |   |   service = whois : normal (0/0)
|   |   |   |   |   |   |   |   |   |   |   service = mtp : normal (0/0)
|   |   |   |   |   |   |   |   |   |   |   service = Z39_50 : normal (0/0)
|   |   |   |   |   |   |   |   |   |   |   service = supdup : normal (0/0)
|   |   |   |   |   |   |   |   |   |   |   service = login : normal (0/0)
|   |   |   |   |   |   |   |   |   |   |   service = http_443 : normal (0/0)
|   |   |   |   |   |   |   |   |   |   |   service = bgp : normal (0/0)
|   |   |   |   |   |   |   |   |   |   |   service = uucp_path : normal (0/0)
|   |   |   |   |   |   |   |   |   |   |   service = sql_net : normal (0/0)
|   |   |   |   |   |   |   |   |   |   |   service = hostnames : normal (0/0)
|   |   |   |   |   |   |   |   |   |   |   service = iso_tsap : normal (0/0)
|   |   |   |   |   |   |   |   |   |   |   service = nnsp : normal (0/0)
|   |   |   |   |   |   |   |   |   |   |   service = csnet_ns : normal (0/0)
|   |   |   |   |   |   |   |   |   |   |   service = vmnet : normal (0/0)
|   |   |   |   |   |   |   |   |   |   |   service = kshell : normal (0/0)
|   |   |   |   |   |   |   |   |   |   |   service = sunrpc : normal (0/0)
|   |   |   |   |   |   |   |   |   |   |   service = efs : normal (0/0)
|   |   |   |   |   |   |   |   |   |   |   service = klogin : normal (0/0)
|   |   |   |   |   |   |   |   |   |   |   service = ldap : normal (0/0)
|   |   |   |   |   |   |   |   |   |   |   service = pop_2 : normal (0/0)
|   |   |   |   |   |   |   |   |   |   |   service = netstat : normal (0/0)
|   |   |   |   |   |   |   |   |   |   |   service = daytime : normal (0/0)
|   |   |   |   |   |   |   |   |   |   |   service = exec : normal (0/0)
|   |   |   |   |   |   |   |   |   |   |   service = discard : normal (0/0)
|   |   |   |   |   |   |   |   |   |   |   service = netbios_dgm : normal (0/0)
|   |   |   |   |   |   |   |   |   |   |   service = systat : normal (0/0)
|   |   |   |   |   |   |   |   |   |   |   service = name : normal (0/0)
|   |   |   |   |   |   |   |   |   |   |   service = ctf : normal (0/0)
|   |   |   |   |   |   |   |   |   |   |   service = rje : normal (0/0)
|   |   |   |   |   |   |   |   |   |   |   service = netbios_ns : normal (0/0)
|   |   |   |   |   |   |   |   |   |   |   service = courier : normal (0/0)
|   |   |   |   |   |   |   |   |   |   |   service = echo : normal (0/0)
|   |   |   |   |   |   |   |   |   |   |   service = gopher : normal (0/0)
|   |   |   |   |   |   |   |   |   |   |   service = netbios_ssn : normal (0/0)
|   |   |   |   |   |   |   |   |   |   |   service = printer : normal (0/0)
|   |   |   |   |   |   |   |   |   |   |   service = nntp : normal (0/0)
|   |   |   |   |   |   |   |   |   |   |   service = http_2784 : normal (0/0)
|   |   |   |   |   |   |   |   |   |   |   service = aol : normal (0/0)
|   |   |   |   |   |   |   |   |   |   |   service = pm_dump : normal (0/0)
|   |   |   |   |   |   |   |   |   |   |   service = http_8001 : normal (0/0)
|   |   |   |   |   |   |   |   |   |   |   service = harvest : normal (0/0)
|   |   |   |   |   |   |   srv_serror_rate >= 0.75
|   |   |   |   |   |   |   |   flag = REJ : normal (0/0)
|   |   |   |   |   |   |   |   flag = SF : normal (0/0)
|   |   |   |   |   |   |   |   flag = RSTO : normal (0/0)
|   |   |   |   |   |   |   |   flag = S0
|   |   |   |   |   |   |   |   |   service = http : normal (0/0)
|   |   |   |   |   |   |   |   |   service = domain_u : normal (0/0)
|   |   |   |   |   |   |   |   |   service = ftp_data : normal (0/0)
|   |   |   |   |   |   |   |   |   service = private : portsweep (4/0)
|   |   |   |   |   |   |   |   |   service = other : normal (0/0)
|   |   |   |   |   |   |   |   |   service = smtp : normal (0/0)
|   |   |   |   |   |   |   |   |   service = telnet
|   |   |   |   |   |   |   |   |   |   dst_host_diff_srv_rate < 0.22
|   |   |   |   |   |   |   |   |   |   |   dst_host_count < 61 : normal (4/0)
|   |   |   |   |   |   |   |   |   |   |   dst_host_count >= 61 : neptune (1/0)
|   |   |   |   |   |   |   |   |   |   dst_host_diff_srv_rate >= 0.22 : neptune (1/0)
|   |   |   |   |   |   |   |   |   service = eco_i : normal (0/0)
|   |   |   |   |   |   |   |   |   service = X11 : normal (0/0)
|   |   |   |   |   |   |   |   |   service = ntp_u : normal (0/0)
|   |   |   |   |   |   |   |   |   service = ftp : normal (0/0)
|   |   |   |   |   |   |   |   |   service = IRC : normal (0/0)
|   |   |   |   |   |   |   |   |   service = time : normal (0/0)
|   |   |   |   |   |   |   |   |   service = finger : land (2/0)
|   |   |   |   |   |   |   |   |   service = urp_i : normal (0/0)
|   |   |   |   |   |   |   |   |   service = auth : normal (0/0)
|   |   |   |   |   |   |   |   |   service = ecr_i : normal (0/0)
|   |   |   |   |   |   |   |   |   service = domain : normal (1/0)
|   |   |   |   |   |   |   |   |   service = pop_3 : portsweep (1/0)
|   |   |   |   |   |   |   |   |   service = urh_i : normal (0/0)
|   |   |   |   |   |   |   |   |   service = red_i : normal (0/0)
|   |   |   |   |   |   |   |   |   service = remote_job : normal (0/0)
|   |   |   |   |   |   |   |   |   service = tftp_u : normal (0/0)
|   |   |   |   |   |   |   |   |   service = ssh : normal (0/0)
|   |   |   |   |   |   |   |   |   service = shell : normal (0/0)
|   |   |   |   |   |   |   |   |   service = imap4 : normal (0/0)
|   |   |   |   |   |   |   |   |   service = tim_i : normal (0/0)
|   |   |   |   |   |   |   |   |   service = link : normal (0/0)
|   |   |   |   |   |   |   |   |   service = uucp : normal (0/0)
|   |   |   |   |   |   |   |   |   service = whois : normal (0/0)
|   |   |   |   |   |   |   |   |   service = mtp : normal (0/0)
|   |   |   |   |   |   |   |   |   service = Z39_50 : normal (0/0)
|   |   |   |   |   |   |   |   |   service = supdup : normal (0/0)
|   |   |   |   |   |   |   |   |   service = login : normal (0/0)
|   |   |   |   |   |   |   |   |   service = http_443 : normal (0/0)
|   |   |   |   |   |   |   |   |   service = bgp : normal (0/0)
|   |   |   |   |   |   |   |   |   service = uucp_path : normal (0/0)
|   |   |   |   |   |   |   |   |   service = sql_net : normal (0/0)
|   |   |   |   |   |   |   |   |   service = hostnames : normal (0/0)
|   |   |   |   |   |   |   |   |   service = iso_tsap : normal (0/0)
|   |   |   |   |   |   |   |   |   service = nnsp : normal (0/0)
|   |   |   |   |   |   |   |   |   service = csnet_ns : normal (0/0)
|   |   |   |   |   |   |   |   |   service = vmnet : normal (0/0)
|   |   |   |   |   |   |   |   |   service = kshell : normal (0/0)
|   |   |   |   |   |   |   |   |   service = sunrpc : normal (0/0)
|   |   |   |   |   |   |   |   |   service = efs : normal (0/0)
|   |   |   |   |   |   |   |   |   service = klogin : normal (0/0)
|   |   |   |   |   |   |   |   |   service = ldap : normal (0/0)
|   |   |   |   |   |   |   |   |   service = pop_2 : normal (0/0)
|   |   |   |   |   |   |   |   |   service = netstat : normal (0/0)
|   |   |   |   |   |   |   |   |   service = daytime : normal (0/0)
|   |   |   |   |   |   |   |   |   service = exec : normal (0/0)
|   |   |   |   |   |   |   |   |   service = discard : normal (0/0)
|   |   |   |   |   |   |   |   |   service = netbios_dgm : normal (0/0)
|   |   |   |   |   |   |   |   |   service = systat : normal (0/0)
|   |   |   |   |   |   |   |   |   service = name : normal (0/0)
|   |   |   |   |   |   |   |   |   service = ctf : normal (0/0)
|   |   |   |   |   |   |   |   |   service = rje : normal (0/0)
|   |   |   |   |   |   |   |   |   service = netbios_ns : normal (0/0)
|   |   |   |   |   |   |   |   |   service = courier : normal (0/0)
|   |   |   |   |   |   |   |   |   service = echo : normal (0/0)
|   |   |   |   |   |   |   |   |   service = gopher : normal (0/0)
|   |   |   |   |   |   |   |   |   service = netbios_ssn : normal (0/0)
|   |   |   |   |   |   |   |   |   service = printer : normal (0/0)
|   |   |   |   |   |   |   |   |   service = nntp : normal (0/0)
|   |   |   |   |   |   |   |   |   service = http_2784 : normal (0/0)
|   |   |   |   |   |   |   |   |   service = aol : normal (0/0)
|   |   |   |   |   |   |   |   |   service = pm_dump : normal (0/0)
|   |   |   |   |   |   |   |   |   service = http_8001 : normal (0/0)
|   |   |   |   |   |   |   |   |   service = harvest : normal (0/0)
|   |   |   |   |   |   |   |   flag = S3
|   |   |   |   |   |   |   |   |   dst_host_rerror_rate < 0.32 : normal (1/0)
|   |   |   |   |   |   |   |   |   dst_host_rerror_rate >= 0.32 : processtable (29/0)
|   |   |   |   |   |   |   |   flag = RSTR : normal (0/0)
|   |   |   |   |   |   |   |   flag = S1 : normal (10/0)
|   |   |   |   |   |   |   |   flag = S2
|   |   |   |   |   |   |   |   |   duration < 4116 : normal (2/0)
|   |   |   |   |   |   |   |   |   duration >= 4116 : processtable (1/0)
|   |   |   |   |   |   |   |   flag = OTH : normal (0/0)
|   |   |   |   |   |   |   |   flag = RSTOS0 : normal (0/0)
|   |   |   |   |   |   |   |   flag = SH : normal (1/0)
|   |   |   |   |   |   dst_host_serror_rate >= 0.28
|   |   |   |   |   |   |   srv_diff_host_rate < 0.24
|   |   |   |   |   |   |   |   srv_serror_rate < 0.61
|   |   |   |   |   |   |   |   |   duration < 6622.5 : normal (25/0)
|   |   |   |   |   |   |   |   |   duration >= 6622.5 : processtable (6/0)
|   |   |   |   |   |   |   |   srv_serror_rate >= 0.61
|   |   |   |   |   |   |   |   |   dst_host_same_srv_rate < 0.04
|   |   |   |   |   |   |   |   |   |   dst_host_diff_srv_rate < 0.39
|   |   |   |   |   |   |   |   |   |   |   dst_host_count < 158.5 : neptune (2/0)
|   |   |   |   |   |   |   |   |   |   |   dst_host_count >= 158.5
|   |   |   |   |   |   |   |   |   |   |   |   dst_host_rerror_rate < 0.01 : neptune (35/0)
|   |   |   |   |   |   |   |   |   |   |   |   dst_host_rerror_rate >= 0.01
|   |   |   |   |   |   |   |   |   |   |   |   |   srv_count < 4 : normal (1/0)
|   |   |   |   |   |   |   |   |   |   |   |   |   srv_count >= 4 : neptune (1/0)
|   |   |   |   |   |   |   |   |   |   dst_host_diff_srv_rate >= 0.39 : nmap (243/0)
|   |   |   |   |   |   |   |   |   dst_host_same_srv_rate >= 0.04
|   |   |   |   |   |   |   |   |   |   dst_host_diff_srv_rate < 0.68
|   |   |   |   |   |   |   |   |   |   |   count < 1.5
|   |   |   |   |   |   |   |   |   |   |   |   service = http : neptune (9/0)
|   |   |   |   |   |   |   |   |   |   |   |   service = domain_u : normal (0/0)
|   |   |   |   |   |   |   |   |   |   |   |   service = ftp_data : neptune (6/0)
|   |   |   |   |   |   |   |   |   |   |   |   service = private
|   |   |   |   |   |   |   |   |   |   |   |   |   dst_host_same_srv_rate < 0.53 : neptune (6/0)
|   |   |   |   |   |   |   |   |   |   |   |   |   dst_host_same_srv_rate >= 0.53 : normal (1/0)
|   |   |   |   |   |   |   |   |   |   |   |   service = other : normal (0/0)
|   |   |   |   |   |   |   |   |   |   |   |   service = smtp : normal (0/0)
|   |   |   |   |   |   |   |   |   |   |   |   service = telnet
|   |   |   |   |   |   |   |   |   |   |   |   |   duration < 4114
|   |   |   |   |   |   |   |   |   |   |   |   |   |   dst_host_count < 62 : land (1/0)
|   |   |   |   |   |   |   |   |   |   |   |   |   |   dst_host_count >= 62 : neptune (5/0)
|   |   |   |   |   |   |   |   |   |   |   |   |   duration >= 4114 : processtable (1/0)
|   |   |   |   |   |   |   |   |   |   |   |   service = eco_i : normal (0/0)
|   |   |   |   |   |   |   |   |   |   |   |   service = X11 : normal (0/0)
|   |   |   |   |   |   |   |   |   |   |   |   service = ntp_u : normal (0/0)
|   |   |   |   |   |   |   |   |   |   |   |   service = ftp : normal (0/0)
|   |   |   |   |   |   |   |   |   |   |   |   service = IRC : normal (0/0)
|   |   |   |   |   |   |   |   |   |   |   |   service = time : normal (0/0)
|   |   |   |   |   |   |   |   |   |   |   |   service = finger
|   |   |   |   |   |   |   |   |   |   |   |   |   dst_host_count < 122 : land (1/0)
|   |   |   |   |   |   |   |   |   |   |   |   |   dst_host_count >= 122 : neptune (6/0)
|   |   |   |   |   |   |   |   |   |   |   |   service = urp_i : normal (0/0)
|   |   |   |   |   |   |   |   |   |   |   |   service = auth : normal (0/0)
|   |   |   |   |   |   |   |   |   |   |   |   service = ecr_i : normal (0/0)
|   |   |   |   |   |   |   |   |   |   |   |   service = domain : normal (0/0)
|   |   |   |   |   |   |   |   |   |   |   |   service = pop_3 : mscan (2/0)
|   |   |   |   |   |   |   |   |   |   |   |   service = urh_i : normal (0/0)
|   |   |   |   |   |   |   |   |   |   |   |   service = red_i : normal (0/0)
|   |   |   |   |   |   |   |   |   |   |   |   service = remote_job : normal (0/0)
|   |   |   |   |   |   |   |   |   |   |   |   service = tftp_u : normal (0/0)
|   |   |   |   |   |   |   |   |   |   |   |   service = ssh : normal (0/0)
|   |   |   |   |   |   |   |   |   |   |   |   service = shell : normal (0/0)
|   |   |   |   |   |   |   |   |   |   |   |   service = imap4 : mscan (1/0)
|   |   |   |   |   |   |   |   |   |   |   |   service = tim_i : normal (0/0)
|   |   |   |   |   |   |   |   |   |   |   |   service = link : normal (0/0)
|   |   |   |   |   |   |   |   |   |   |   |   service = uucp : normal (0/0)
|   |   |   |   |   |   |   |   |   |   |   |   service = whois : neptune (1/0)
|   |   |   |   |   |   |   |   |   |   |   |   service = mtp : normal (0/0)
|   |   |   |   |   |   |   |   |   |   |   |   service = Z39_50 : normal (0/0)
|   |   |   |   |   |   |   |   |   |   |   |   service = supdup : normal (0/0)
|   |   |   |   |   |   |   |   |   |   |   |   service = login : normal (0/0)
|   |   |   |   |   |   |   |   |   |   |   |   service = http_443 : normal (0/0)
|   |   |   |   |   |   |   |   |   |   |   |   service = bgp : normal (0/0)
|   |   |   |   |   |   |   |   |   |   |   |   service = uucp_path : normal (0/0)
|   |   |   |   |   |   |   |   |   |   |   |   service = sql_net : normal (0/0)
|   |   |   |   |   |   |   |   |   |   |   |   service = hostnames : normal (0/0)
|   |   |   |   |   |   |   |   |   |   |   |   service = iso_tsap : normal (0/0)
|   |   |   |   |   |   |   |   |   |   |   |   service = nnsp : normal (0/0)
|   |   |   |   |   |   |   |   |   |   |   |   service = csnet_ns : normal (0/0)
|   |   |   |   |   |   |   |   |   |   |   |   service = vmnet : normal (0/0)
|   |   |   |   |   |   |   |   |   |   |   |   service = kshell : normal (0/0)
|   |   |   |   |   |   |   |   |   |   |   |   service = sunrpc : normal (0/0)
|   |   |   |   |   |   |   |   |   |   |   |   service = efs : normal (0/0)
|   |   |   |   |   |   |   |   |   |   |   |   service = klogin : normal (0/0)
|   |   |   |   |   |   |   |   |   |   |   |   service = ldap : normal (0/0)
|   |   |   |   |   |   |   |   |   |   |   |   service = pop_2 : normal (0/0)
|   |   |   |   |   |   |   |   |   |   |   |   service = netstat : neptune (1/0)
|   |   |   |   |   |   |   |   |   |   |   |   service = daytime : normal (0/0)
|   |   |   |   |   |   |   |   |   |   |   |   service = exec : normal (0/0)
|   |   |   |   |   |   |   |   |   |   |   |   service = discard : normal (0/0)
|   |   |   |   |   |   |   |   |   |   |   |   service = netbios_dgm : normal (0/0)
|   |   |   |   |   |   |   |   |   |   |   |   service = systat : normal (0/0)
|   |   |   |   |   |   |   |   |   |   |   |   service = name : normal (0/0)
|   |   |   |   |   |   |   |   |   |   |   |   service = ctf : normal (0/0)
|   |   |   |   |   |   |   |   |   |   |   |   service = rje : normal (0/0)
|   |   |   |   |   |   |   |   |   |   |   |   service = netbios_ns : normal (0/0)
|   |   |   |   |   |   |   |   |   |   |   |   service = courier : normal (0/0)
|   |   |   |   |   |   |   |   |   |   |   |   service = echo : normal (0/0)
|   |   |   |   |   |   |   |   |   |   |   |   service = gopher : normal (0/0)
|   |   |   |   |   |   |   |   |   |   |   |   service = netbios_ssn : normal (0/0)
|   |   |   |   |   |   |   |   |   |   |   |   service = printer : normal (0/0)
|   |   |   |   |   |   |   |   |   |   |   |   service = nntp : normal (0/0)
|   |   |   |   |   |   |   |   |   |   |   |   service = http_2784 : normal (0/0)
|   |   |   |   |   |   |   |   |   |   |   |   service = aol : normal (0/0)
|   |   |   |   |   |   |   |   |   |   |   |   service = pm_dump : normal (0/0)
|   |   |   |   |   |   |   |   |   |   |   |   service = http_8001 : normal (0/0)
|   |   |   |   |   |   |   |   |   |   |   |   service = harvest : normal (0/0)
|   |   |   |   |   |   |   |   |   |   |   count >= 1.5 : neptune (178/0)
|   |   |   |   |   |   |   |   |   |   dst_host_diff_srv_rate >= 0.68 : nmap (11/0)
|   |   |   |   |   |   |   srv_diff_host_rate >= 0.24
|   |   |   |   |   |   |   |   flag = REJ : normal (0/0)
|   |   |   |   |   |   |   |   flag = SF : imap (2/0)
|   |   |   |   |   |   |   |   flag = RSTO : normal (0/0)
|   |   |   |   |   |   |   |   flag = S0
|   |   |   |   |   |   |   |   |   land < 0.5
|   |   |   |   |   |   |   |   |   |   dst_host_same_srv_rate < 0.29 : neptune (1/0)
|   |   |   |   |   |   |   |   |   |   dst_host_same_srv_rate >= 0.29 : mscan (9/0)
|   |   |   |   |   |   |   |   |   land >= 0.5
|   |   |   |   |   |   |   |   |   |   dst_host_serror_rate < 0.79 : land (2/0)
|   |   |   |   |   |   |   |   |   |   dst_host_serror_rate >= 0.79
|   |   |   |   |   |   |   |   |   |   |   dst_host_srv_diff_host_rate < 0.3
|   |   |   |   |   |   |   |   |   |   |   |   dst_host_srv_count < 6 : normal (2/1)
|   |   |   |   |   |   |   |   |   |   |   |   dst_host_srv_count >= 6 : normal (1/0)
|   |   |   |   |   |   |   |   |   |   |   dst_host_srv_diff_host_rate >= 0.3 : land (1/0)
|   |   |   |   |   |   |   |   flag = S3 : normal (0/0)
|   |   |   |   |   |   |   |   flag = RSTR : normal (0/0)
|   |   |   |   |   |   |   |   flag = S1 : normal (0/0)
|   |   |   |   |   |   |   |   flag = S2 : normal (0/0)
|   |   |   |   |   |   |   |   flag = OTH : normal (0/0)
|   |   |   |   |   |   |   |   flag = RSTOS0 : normal (0/0)
|   |   |   |   |   |   |   |   flag = SH : imap (4/0)
|   |   |   |   |   protocol_type = udp
|   |   |   |   |   |   service = http : normal (0/0)
|   |   |   |   |   |   service = domain_u : normal (1/0)
|   |   |   |   |   |   service = ftp_data : normal (0/0)
|   |   |   |   |   |   service = private
|   |   |   |   |   |   |   dst_host_diff_srv_rate < 0.47 : satan (82/0)
|   |   |   |   |   |   |   dst_host_diff_srv_rate >= 0.47
|   |   |   |   |   |   |   |   src_bytes < 0.5 : udpstorm (1/0)
|   |   |   |   |   |   |   |   src_bytes >= 0.5 : satan (36/0)
|   |   |   |   |   |   service = other
|   |   |   |   |   |   |   dst_host_same_srv_rate < 0.06 : satan (34/0)
|   |   |   |   |   |   |   dst_host_same_srv_rate >= 0.06
|   |   |   |   |   |   |   |   dst_host_count < 5 : rootkit (1/0)
|   |   |   |   |   |   |   |   dst_host_count >= 5
|   |   |   |   |   |   |   |   |   diff_srv_rate < 0.01 : saint (1/0)
|   |   |   |   |   |   |   |   |   diff_srv_rate >= 0.01 : satan (1/0)
|   |   |   |   |   |   service = smtp : normal (0/0)
|   |   |   |   |   |   service = telnet : normal (0/0)
|   |   |   |   |   |   service = eco_i : normal (0/0)
|   |   |   |   |   |   service = X11 : normal (0/0)
|   |   |   |   |   |   service = ntp_u : normal (0/0)
|   |   |   |   |   |   service = ftp : normal (0/0)
|   |   |   |   |   |   service = IRC : normal (0/0)
|   |   |   |   |   |   service = time : normal (0/0)
|   |   |   |   |   |   service = finger : normal (0/0)
|   |   |   |   |   |   service = urp_i : normal (0/0)
|   |   |   |   |   |   service = auth : normal (0/0)
|   |   |   |   |   |   service = ecr_i : normal (0/0)
|   |   |   |   |   |   service = domain : normal (0/0)
|   |   |   |   |   |   service = pop_3 : normal (0/0)
|   |   |   |   |   |   service = urh_i : normal (0/0)
|   |   |   |   |   |   service = red_i : normal (0/0)
|   |   |   |   |   |   service = remote_job : normal (0/0)
|   |   |   |   |   |   service = tftp_u : normal (0/0)
|   |   |   |   |   |   service = ssh : normal (0/0)
|   |   |   |   |   |   service = shell : normal (0/0)
|   |   |   |   |   |   service = imap4 : normal (0/0)
|   |   |   |   |   |   service = tim_i : normal (0/0)
|   |   |   |   |   |   service = link : normal (0/0)
|   |   |   |   |   |   service = uucp : normal (0/0)
|   |   |   |   |   |   service = whois : normal (0/0)
|   |   |   |   |   |   service = mtp : normal (0/0)
|   |   |   |   |   |   service = Z39_50 : normal (0/0)
|   |   |   |   |   |   service = supdup : normal (0/0)
|   |   |   |   |   |   service = login : normal (0/0)
|   |   |   |   |   |   service = http_443 : normal (0/0)
|   |   |   |   |   |   service = bgp : normal (0/0)
|   |   |   |   |   |   service = uucp_path : normal (0/0)
|   |   |   |   |   |   service = sql_net : normal (0/0)
|   |   |   |   |   |   service = hostnames : normal (0/0)
|   |   |   |   |   |   service = iso_tsap : normal (0/0)
|   |   |   |   |   |   service = nnsp : normal (0/0)
|   |   |   |   |   |   service = csnet_ns : normal (0/0)
|   |   |   |   |   |   service = vmnet : normal (0/0)
|   |   |   |   |   |   service = kshell : normal (0/0)
|   |   |   |   |   |   service = sunrpc : normal (0/0)
|   |   |   |   |   |   service = efs : normal (0/0)
|   |   |   |   |   |   service = klogin : normal (0/0)
|   |   |   |   |   |   service = ldap : normal (0/0)
|   |   |   |   |   |   service = pop_2 : normal (0/0)
|   |   |   |   |   |   service = netstat : normal (0/0)
|   |   |   |   |   |   service = daytime : normal (0/0)
|   |   |   |   |   |   service = exec : normal (0/0)
|   |   |   |   |   |   service = discard : normal (0/0)
|   |   |   |   |   |   service = netbios_dgm : normal (0/0)
|   |   |   |   |   |   service = systat : normal (0/0)
|   |   |   |   |   |   service = name : normal (0/0)
|   |   |   |   |   |   service = ctf : normal (0/0)
|   |   |   |   |   |   service = rje : normal (0/0)
|   |   |   |   |   |   service = netbios_ns : normal (0/0)
|   |   |   |   |   |   service = courier : normal (0/0)
|   |   |   |   |   |   service = echo : normal (0/0)
|   |   |   |   |   |   service = gopher : normal (0/0)
|   |   |   |   |   |   service = netbios_ssn : normal (0/0)
|   |   |   |   |   |   service = printer : normal (0/0)
|   |   |   |   |   |   service = nntp : normal (0/0)
|   |   |   |   |   |   service = http_2784 : normal (0/0)
|   |   |   |   |   |   service = aol : normal (0/0)
|   |   |   |   |   |   service = pm_dump : normal (0/0)
|   |   |   |   |   |   service = http_8001 : normal (0/0)
|   |   |   |   |   |   service = harvest : normal (0/0)
|   |   |   |   |   protocol_type = icmp
|   |   |   |   |   |   service = http : normal (0/0)
|   |   |   |   |   |   service = domain_u : normal (0/0)
|   |   |   |   |   |   service = ftp_data : normal (0/0)
|   |   |   |   |   |   service = private : normal (0/0)
|   |   |   |   |   |   service = other : normal (0/0)
|   |   |   |   |   |   service = smtp : normal (0/0)
|   |   |   |   |   |   service = telnet : normal (0/0)
|   |   |   |   |   |   service = eco_i
|   |   |   |   |   |   |   dst_host_rerror_rate < 0.01
|   |   |   |   |   |   |   |   dst_host_srv_diff_host_rate < 0.13
|   |   |   |   |   |   |   |   |   dst_host_same_srv_rate < 0.85 : nmap (5/0)
|   |   |   |   |   |   |   |   |   dst_host_same_srv_rate >= 0.85
|   |   |   |   |   |   |   |   |   |   dst_host_srv_count < 2.5
|   |   |   |   |   |   |   |   |   |   |   dst_host_srv_count < 1.5
|   |   |   |   |   |   |   |   |   |   |   |   srv_diff_host_rate < 0.5 : ipsweep (2/1)
|   |   |   |   |   |   |   |   |   |   |   |   srv_diff_host_rate >= 0.5
|   |   |   |   |   |   |   |   |   |   |   |   |   srv_count < 36.5 : ipsweep (4/0)
|   |   |   |   |   |   |   |   |   |   |   |   |   srv_count >= 36.5
|   |   |   |   |   |   |   |   |   |   |   |   |   |   srv_count < 42.5 : nmap (1/0)
|   |   |   |   |   |   |   |   |   |   |   |   |   |   srv_count >= 42.5
|   |   |   |   |   |   |   |   |   |   |   |   |   |   |   srv_count < 47 : ipsweep (2/1)
|   |   |   |   |   |   |   |   |   |   |   |   |   |   |   srv_count >= 47 : ipsweep (1/0)
|   |   |   |   |   |   |   |   |   |   |   dst_host_srv_count >= 1.5
|   |   |   |   |   |   |   |   |   |   |   |   srv_diff_host_rate < 0.5 : ipsweep (1/0)
|   |   |   |   |   |   |   |   |   |   |   |   srv_diff_host_rate >= 0.5
|   |   |   |   |   |   |   |   |   |   |   |   |   srv_count < 13.5
|   |   |   |   |   |   |   |   |   |   |   |   |   |   srv_count < 3 : nmap (1/0)
|   |   |   |   |   |   |   |   |   |   |   |   |   |   srv_count >= 3
|   |   |   |   |   |   |   |   |   |   |   |   |   |   |   srv_count < 9.5 : ipsweep (2/0)
|   |   |   |   |   |   |   |   |   |   |   |   |   |   |   srv_count >= 9.5 : nmap (1/0)
|   |   |   |   |   |   |   |   |   |   |   |   |   srv_count >= 13.5 : ipsweep (8/0)
|   |   |   |   |   |   |   |   |   |   dst_host_srv_count >= 2.5 : nmap (5/0)
|   |   |   |   |   |   |   |   dst_host_srv_diff_host_rate >= 0.13 : nmap (219/0)
|   |   |   |   |   |   |   dst_host_rerror_rate >= 0.01 : portsweep (2/0)
|   |   |   |   |   |   service = X11 : normal (0/0)
|   |   |   |   |   |   service = ntp_u : normal (0/0)
|   |   |   |   |   |   service = ftp : normal (0/0)
|   |   |   |   |   |   service = IRC : normal (0/0)
|   |   |   |   |   |   service = time : normal (0/0)
|   |   |   |   |   |   service = finger : normal (0/0)
|   |   |   |   |   |   service = urp_i : normal (0/0)
|   |   |   |   |   |   service = auth : normal (0/0)
|   |   |   |   |   |   service = ecr_i
|   |   |   |   |   |   |   count < 1.5
|   |   |   |   |   |   |   |   dst_host_count < 1.5 : portsweep (2/1)
|   |   |   |   |   |   |   |   dst_host_count >= 1.5
|   |   |   |   |   |   |   |   |   dst_host_count < 2.5 : ipsweep (1/0)
|   |   |   |   |   |   |   |   |   dst_host_count >= 2.5
|   |   |   |   |   |   |   |   |   |   dst_host_srv_count < 5.5
|   |   |   |   |   |   |   |   |   |   |   dst_host_count < 3.5 : ipsweep (2/1)
|   |   |   |   |   |   |   |   |   |   |   dst_host_count >= 3.5
|   |   |   |   |   |   |   |   |   |   |   |   dst_host_srv_count < 4.5 : nmap (1/0)
|   |   |   |   |   |   |   |   |   |   |   |   dst_host_srv_count >= 4.5 : ipsweep (2/1)
|   |   |   |   |   |   |   |   |   |   dst_host_srv_count >= 5.5 : nmap (1/0)
|   |   |   |   |   |   |   count >= 1.5
|   |   |   |   |   |   |   |   dst_host_count < 2.5 : ipsweep (2/1)
|   |   |   |   |   |   |   |   dst_host_count >= 2.5 : ipsweep (5/0)
|   |   |   |   |   |   service = domain : normal (0/0)
|   |   |   |   |   |   service = pop_3 : normal (0/0)
|   |   |   |   |   |   service = urh_i : normal (0/0)
|   |   |   |   |   |   service = red_i : normal (0/0)
|   |   |   |   |   |   service = remote_job : normal (0/0)
|   |   |   |   |   |   service = tftp_u : normal (0/0)
|   |   |   |   |   |   service = ssh : normal (0/0)
|   |   |   |   |   |   service = shell : normal (0/0)
|   |   |   |   |   |   service = imap4 : normal (0/0)
|   |   |   |   |   |   service = tim_i : normal (0/0)
|   |   |   |   |   |   service = link : normal (0/0)
|   |   |   |   |   |   service = uucp : normal (0/0)
|   |   |   |   |   |   service = whois : normal (0/0)
|   |   |   |   |   |   service = mtp : normal (0/0)
|   |   |   |   |   |   service = Z39_50 : normal (0/0)
|   |   |   |   |   |   service = supdup : normal (0/0)
|   |   |   |   |   |   service = login : normal (0/0)
|   |   |   |   |   |   service = http_443 : normal (0/0)
|   |   |   |   |   |   service = bgp : normal (0/0)
|   |   |   |   |   |   service = uucp_path : normal (0/0)
|   |   |   |   |   |   service = sql_net : normal (0/0)
|   |   |   |   |   |   service = hostnames : normal (0/0)
|   |   |   |   |   |   service = iso_tsap : normal (0/0)
|   |   |   |   |   |   service = nnsp : normal (0/0)
|   |   |   |   |   |   service = csnet_ns : normal (0/0)
|   |   |   |   |   |   service = vmnet : normal (0/0)
|   |   |   |   |   |   service = kshell : normal (0/0)
|   |   |   |   |   |   service = sunrpc : normal (0/0)
|   |   |   |   |   |   service = efs : normal (0/0)
|   |   |   |   |   |   service = klogin : normal (0/0)
|   |   |   |   |   |   service = ldap : normal (0/0)
|   |   |   |   |   |   service = pop_2 : normal (0/0)
|   |   |   |   |   |   service = netstat : normal (0/0)
|   |   |   |   |   |   service = daytime : normal (0/0)
|   |   |   |   |   |   service = exec : normal (0/0)
|   |   |   |   |   |   service = discard : normal (0/0)
|   |   |   |   |   |   service = netbios_dgm : normal (0/0)
|   |   |   |   |   |   service = systat : normal (0/0)
|   |   |   |   |   |   service = name : normal (0/0)
|   |   |   |   |   |   service = ctf : normal (0/0)
|   |   |   |   |   |   service = rje : normal (0/0)
|   |   |   |   |   |   service = netbios_ns : normal (0/0)
|   |   |   |   |   |   service = courier : normal (0/0)
|   |   |   |   |   |   service = echo : normal (0/0)
|   |   |   |   |   |   service = gopher : normal (0/0)
|   |   |   |   |   |   service = netbios_ssn : normal (0/0)
|   |   |   |   |   |   service = printer : normal (0/0)
|   |   |   |   |   |   service = nntp : normal (0/0)
|   |   |   |   |   |   service = http_2784 : normal (0/0)
|   |   |   |   |   |   service = aol : normal (0/0)
|   |   |   |   |   |   service = pm_dump : normal (0/0)
|   |   |   |   |   |   service = http_8001 : normal (0/0)
|   |   |   |   |   |   service = harvest : normal (0/0)
|   |   |   |   dst_host_srv_diff_host_rate >= 0.46
|   |   |   |   |   dst_host_srv_count < 6.5
|   |   |   |   |   |   serror_rate < 0.5
|   |   |   |   |   |   |   duration < 0.5
|   |   |   |   |   |   |   |   dst_host_count < 13
|   |   |   |   |   |   |   |   |   rerror_rate < 0.5
|   |   |   |   |   |   |   |   |   |   dst_host_count < 1.5
|   |   |   |   |   |   |   |   |   |   |   dst_host_srv_diff_host_rate < 0.64 : ipsweep (12/0)
|   |   |   |   |   |   |   |   |   |   |   dst_host_srv_diff_host_rate >= 0.64
|   |   |   |   |   |   |   |   |   |   |   |   protocol_type = tcp : normal (1/0)
|   |   |   |   |   |   |   |   |   |   |   |   protocol_type = udp : normal (0/0)
|   |   |   |   |   |   |   |   |   |   |   |   protocol_type = icmp : ipsweep (16/0)
|   |   |   |   |   |   |   |   |   |   dst_host_count >= 1.5 : ipsweep (22/0)
|   |   |   |   |   |   |   |   |   rerror_rate >= 0.5 : normal (1/0)
|   |   |   |   |   |   |   |   dst_host_count >= 13
|   |   |   |   |   |   |   |   |   service = http : normal (0/0)
|   |   |   |   |   |   |   |   |   service = domain_u : normal (0/0)
|   |   |   |   |   |   |   |   |   service = ftp_data : normal (0/0)
|   |   |   |   |   |   |   |   |   service = private : normal (0/0)
|   |   |   |   |   |   |   |   |   service = other : normal (0/0)
|   |   |   |   |   |   |   |   |   service = smtp : normal (0/0)
|   |   |   |   |   |   |   |   |   service = telnet : normal (0/0)
|   |   |   |   |   |   |   |   |   service = eco_i : normal (0/0)
|   |   |   |   |   |   |   |   |   service = X11 : normal (0/0)
|   |   |   |   |   |   |   |   |   service = ntp_u : normal (0/0)
|   |   |   |   |   |   |   |   |   service = ftp : normal (0/0)
|   |   |   |   |   |   |   |   |   service = IRC : normal (0/0)
|   |   |   |   |   |   |   |   |   service = time : normal (0/0)
|   |   |   |   |   |   |   |   |   service = finger : normal (19/0)
|   |   |   |   |   |   |   |   |   service = urp_i : normal (0/0)
|   |   |   |   |   |   |   |   |   service = auth : normal (0/0)
|   |   |   |   |   |   |   |   |   service = ecr_i : normal (0/0)
|   |   |   |   |   |   |   |   |   service = domain : ipsweep (1/0)
|   |   |   |   |   |   |   |   |   service = pop_3 : normal (0/0)
|   |   |   |   |   |   |   |   |   service = urh_i : normal (0/0)
|   |   |   |   |   |   |   |   |   service = red_i : normal (0/0)
|   |   |   |   |   |   |   |   |   service = remote_job : normal (0/0)
|   |   |   |   |   |   |   |   |   service = tftp_u : normal (0/0)
|   |   |   |   |   |   |   |   |   service = ssh : normal (0/0)
|   |   |   |   |   |   |   |   |   service = shell : normal (0/0)
|   |   |   |   |   |   |   |   |   service = imap4 : normal (0/0)
|   |   |   |   |   |   |   |   |   service = tim_i : normal (0/0)
|   |   |   |   |   |   |   |   |   service = link : normal (0/0)
|   |   |   |   |   |   |   |   |   service = uucp : normal (0/0)
|   |   |   |   |   |   |   |   |   service = whois : normal (0/0)
|   |   |   |   |   |   |   |   |   service = mtp : normal (0/0)
|   |   |   |   |   |   |   |   |   service = Z39_50 : normal (0/0)
|   |   |   |   |   |   |   |   |   service = supdup : normal (0/0)
|   |   |   |   |   |   |   |   |   service = login : normal (0/0)
|   |   |   |   |   |   |   |   |   service = http_443 : normal (0/0)
|   |   |   |   |   |   |   |   |   service = bgp : normal (0/0)
|   |   |   |   |   |   |   |   |   service = uucp_path : normal (0/0)
|   |   |   |   |   |   |   |   |   service = sql_net : normal (0/0)
|   |   |   |   |   |   |   |   |   service = hostnames : normal (0/0)
|   |   |   |   |   |   |   |   |   service = iso_tsap : normal (0/0)
|   |   |   |   |   |   |   |   |   service = nnsp : normal (0/0)
|   |   |   |   |   |   |   |   |   service = csnet_ns : normal (0/0)
|   |   |   |   |   |   |   |   |   service = vmnet : normal (0/0)
|   |   |   |   |   |   |   |   |   service = kshell : normal (0/0)
|   |   |   |   |   |   |   |   |   service = sunrpc : normal (0/0)
|   |   |   |   |   |   |   |   |   service = efs : normal (0/0)
|   |   |   |   |   |   |   |   |   service = klogin : normal (0/0)
|   |   |   |   |   |   |   |   |   service = ldap : normal (0/0)
|   |   |   |   |   |   |   |   |   service = pop_2 : normal (0/0)
|   |   |   |   |   |   |   |   |   service = netstat : normal (0/0)
|   |   |   |   |   |   |   |   |   service = daytime : normal (0/0)
|   |   |   |   |   |   |   |   |   service = exec : normal (0/0)
|   |   |   |   |   |   |   |   |   service = discard : normal (0/0)
|   |   |   |   |   |   |   |   |   service = netbios_dgm : normal (0/0)
|   |   |   |   |   |   |   |   |   service = systat : normal (0/0)
|   |   |   |   |   |   |   |   |   service = name : normal (0/0)
|   |   |   |   |   |   |   |   |   service = ctf : normal (0/0)
|   |   |   |   |   |   |   |   |   service = rje : normal (0/0)
|   |   |   |   |   |   |   |   |   service = netbios_ns : normal (0/0)
|   |   |   |   |   |   |   |   |   service = courier : normal (0/0)
|   |   |   |   |   |   |   |   |   service = echo : normal (0/0)
|   |   |   |   |   |   |   |   |   service = gopher : normal (0/0)
|   |   |   |   |   |   |   |   |   service = netbios_ssn : normal (0/0)
|   |   |   |   |   |   |   |   |   service = printer : normal (0/0)
|   |   |   |   |   |   |   |   |   service = nntp : normal (0/0)
|   |   |   |   |   |   |   |   |   service = http_2784 : normal (0/0)
|   |   |   |   |   |   |   |   |   service = aol : normal (0/0)
|   |   |   |   |   |   |   |   |   service = pm_dump : normal (0/0)
|   |   |   |   |   |   |   |   |   service = http_8001 : normal (0/0)
|   |   |   |   |   |   |   |   |   service = harvest : normal (0/0)
|   |   |   |   |   |   |   duration >= 0.5 : ipsweep (10/0)
|   |   |   |   |   |   serror_rate >= 0.5
|   |   |   |   |   |   |   dst_host_same_srv_rate < 0.75
|   |   |   |   |   |   |   |   dst_host_srv_count < 4 : normal (2/0)
|   |   |   |   |   |   |   |   dst_host_srv_count >= 4 : mscan (2/0)
|   |   |   |   |   |   |   dst_host_same_srv_rate >= 0.75
|   |   |   |   |   |   |   |   srv_count < 1.5 : normal (1/0)
|   |   |   |   |   |   |   |   srv_count >= 1.5
|   |   |   |   |   |   |   |   |   dst_host_srv_count < 5.5
|   |   |   |   |   |   |   |   |   |   dst_host_srv_serror_rate < 0.9 : land (4/0)
|   |   |   |   |   |   |   |   |   |   dst_host_srv_serror_rate >= 0.9
|   |   |   |   |   |   |   |   |   |   |   dst_host_srv_count < 2.5
|   |   |   |   |   |   |   |   |   |   |   |   srv_count < 2.5 : normal (1/0)
|   |   |   |   |   |   |   |   |   |   |   |   srv_count >= 2.5 : land (1/0)
|   |   |   |   |   |   |   |   |   |   |   dst_host_srv_count >= 2.5 : land (6/2)
|   |   |   |   |   |   |   |   |   dst_host_srv_count >= 5.5 : land (1/0)
|   |   |   |   |   dst_host_srv_count >= 6.5
|   |   |   |   |   |   dst_host_diff_srv_rate < 0.01 : ipsweep (939/0)
|   |   |   |   |   |   dst_host_diff_srv_rate >= 0.01 : portsweep (2/0)
|   |   |   dst_host_srv_rerror_rate >= 0.33
|   |   |   |   dst_host_same_srv_rate < 0.01
|   |   |   |   |   dst_host_rerror_rate < 0.04
|   |   |   |   |   |   dst_host_srv_count < 1.5
|   |   |   |   |   |   |   dst_host_serror_rate < 0.35
|   |   |   |   |   |   |   |   dst_bytes < 7.5
|   |   |   |   |   |   |   |   |   dst_host_count < 90.5
|   |   |   |   |   |   |   |   |   |   dst_host_same_src_port_rate < 0.03
|   |   |   |   |   |   |   |   |   |   |   flag = REJ : httptunnel (1/0)
|   |   |   |   |   |   |   |   |   |   |   flag = SF : normal (0/0)
|   |   |   |   |   |   |   |   |   |   |   flag = RSTO : normal (1/0)
|   |   |   |   |   |   |   |   |   |   |   flag = S0 : normal (0/0)
|   |   |   |   |   |   |   |   |   |   |   flag = S3 : normal (0/0)
|   |   |   |   |   |   |   |   |   |   |   flag = RSTR : normal (0/0)
|   |   |   |   |   |   |   |   |   |   |   flag = S1 : normal (0/0)
|   |   |   |   |   |   |   |   |   |   |   flag = S2 : normal (0/0)
|   |   |   |   |   |   |   |   |   |   |   flag = OTH : normal (0/0)
|   |   |   |   |   |   |   |   |   |   |   flag = RSTOS0 : portsweep (1/0)
|   |   |   |   |   |   |   |   |   |   |   flag = SH : normal (0/0)
|   |   |   |   |   |   |   |   |   |   dst_host_same_src_port_rate >= 0.03 : portsweep (1/0)
|   |   |   |   |   |   |   |   |   dst_host_count >= 90.5
|   |   |   |   |   |   |   |   |   |   srv_count < 4.5
|   |   |   |   |   |   |   |   |   |   |   dst_host_diff_srv_rate < 0.01 : httptunnel (1/0)
|   |   |   |   |   |   |   |   |   |   |   dst_host_diff_srv_rate >= 0.01 : portsweep (17/0)
|   |   |   |   |   |   |   |   |   |   srv_count >= 4.5 : mscan (1/0)
|   |   |   |   |   |   |   |   dst_bytes >= 7.5 : normal (4/0)
|   |   |   |   |   |   |   dst_host_serror_rate >= 0.35 : normal (1/0)
|   |   |   |   |   |   dst_host_srv_count >= 1.5
|   |   |   |   |   |   |   dst_bytes < 7.5
|   |   |   |   |   |   |   |   count < 1.5
|   |   |   |   |   |   |   |   |   service = http : normal (0/0)
|   |   |   |   |   |   |   |   |   service = domain_u : normal (0/0)
|   |   |   |   |   |   |   |   |   service = ftp_data : normal (0/0)
|   |   |   |   |   |   |   |   |   service = private : normal (0/0)
|   |   |   |   |   |   |   |   |   service = other : httptunnel (2/0)
|   |   |   |   |   |   |   |   |   service = smtp : normal (1/0)
|   |   |   |   |   |   |   |   |   service = telnet : mscan (1/0)
|   |   |   |   |   |   |   |   |   service = eco_i : normal (0/0)
|   |   |   |   |   |   |   |   |   service = X11 : normal (0/0)
|   |   |   |   |   |   |   |   |   service = ntp_u : normal (0/0)
|   |   |   |   |   |   |   |   |   service = ftp : normal (0/0)
|   |   |   |   |   |   |   |   |   service = IRC : normal (0/0)
|   |   |   |   |   |   |   |   |   service = time : normal (0/0)
|   |   |   |   |   |   |   |   |   service = finger : normal (0/0)
|   |   |   |   |   |   |   |   |   service = urp_i : normal (0/0)
|   |   |   |   |   |   |   |   |   service = auth : normal (2/0)
|   |   |   |   |   |   |   |   |   service = ecr_i : normal (0/0)
|   |   |   |   |   |   |   |   |   service = domain : normal (0/0)
|   |   |   |   |   |   |   |   |   service = pop_3 : mscan (1/0)
|   |   |   |   |   |   |   |   |   service = urh_i : normal (0/0)
|   |   |   |   |   |   |   |   |   service = red_i : normal (0/0)
|   |   |   |   |   |   |   |   |   service = remote_job : normal (0/0)
|   |   |   |   |   |   |   |   |   service = tftp_u : normal (0/0)
|   |   |   |   |   |   |   |   |   service = ssh : normal (0/0)
|   |   |   |   |   |   |   |   |   service = shell : normal (0/0)
|   |   |   |   |   |   |   |   |   service = imap4 : normal (0/0)
|   |   |   |   |   |   |   |   |   service = tim_i : normal (0/0)
|   |   |   |   |   |   |   |   |   service = link : normal (0/0)
|   |   |   |   |   |   |   |   |   service = uucp : normal (0/0)
|   |   |   |   |   |   |   |   |   service = whois : normal (0/0)
|   |   |   |   |   |   |   |   |   service = mtp : normal (0/0)
|   |   |   |   |   |   |   |   |   service = Z39_50 : normal (0/0)
|   |   |   |   |   |   |   |   |   service = supdup : normal (0/0)
|   |   |   |   |   |   |   |   |   service = login : normal (0/0)
|   |   |   |   |   |   |   |   |   service = http_443 : normal (0/0)
|   |   |   |   |   |   |   |   |   service = bgp : normal (0/0)
|   |   |   |   |   |   |   |   |   service = uucp_path : normal (0/0)
|   |   |   |   |   |   |   |   |   service = sql_net : normal (0/0)
|   |   |   |   |   |   |   |   |   service = hostnames : normal (0/0)
|   |   |   |   |   |   |   |   |   service = iso_tsap : normal (0/0)
|   |   |   |   |   |   |   |   |   service = nnsp : normal (0/0)
|   |   |   |   |   |   |   |   |   service = csnet_ns : normal (0/0)
|   |   |   |   |   |   |   |   |   service = vmnet : normal (0/0)
|   |   |   |   |   |   |   |   |   service = kshell : normal (0/0)
|   |   |   |   |   |   |   |   |   service = sunrpc : mscan (1/0)
|   |   |   |   |   |   |   |   |   service = efs : normal (0/0)
|   |   |   |   |   |   |   |   |   service = klogin : normal (0/0)
|   |   |   |   |   |   |   |   |   service = ldap : normal (0/0)
|   |   |   |   |   |   |   |   |   service = pop_2 : normal (0/0)
|   |   |   |   |   |   |   |   |   service = netstat : normal (0/0)
|   |   |   |   |   |   |   |   |   service = daytime : normal (0/0)
|   |   |   |   |   |   |   |   |   service = exec : normal (0/0)
|   |   |   |   |   |   |   |   |   service = discard : normal (0/0)
|   |   |   |   |   |   |   |   |   service = netbios_dgm : normal (0/0)
|   |   |   |   |   |   |   |   |   service = systat : normal (0/0)
|   |   |   |   |   |   |   |   |   service = name : normal (0/0)
|   |   |   |   |   |   |   |   |   service = ctf : normal (0/0)
|   |   |   |   |   |   |   |   |   service = rje : normal (0/0)
|   |   |   |   |   |   |   |   |   service = netbios_ns : normal (0/0)
|   |   |   |   |   |   |   |   |   service = courier : normal (0/0)
|   |   |   |   |   |   |   |   |   service = echo : normal (0/0)
|   |   |   |   |   |   |   |   |   service = gopher : normal (0/0)
|   |   |   |   |   |   |   |   |   service = netbios_ssn : normal (0/0)
|   |   |   |   |   |   |   |   |   service = printer : normal (0/0)
|   |   |   |   |   |   |   |   |   service = nntp : normal (0/0)
|   |   |   |   |   |   |   |   |   service = http_2784 : normal (0/0)
|   |   |   |   |   |   |   |   |   service = aol : normal (0/0)
|   |   |   |   |   |   |   |   |   service = pm_dump : normal (0/0)
|   |   |   |   |   |   |   |   |   service = http_8001 : normal (0/0)
|   |   |   |   |   |   |   |   |   service = harvest : normal (0/0)
|   |   |   |   |   |   |   |   count >= 1.5 : portsweep (1/0)
|   |   |   |   |   |   |   dst_bytes >= 7.5
|   |   |   |   |   |   |   |   dst_host_srv_count < 2.5 : normal (7/0)
|   |   |   |   |   |   |   |   dst_host_srv_count >= 2.5
|   |   |   |   |   |   |   |   |   dst_bytes < 25.5 : normal (1/0)
|   |   |   |   |   |   |   |   |   dst_bytes >= 25.5 : mscan (1/0)
|   |   |   |   |   dst_host_rerror_rate >= 0.04
|   |   |   |   |   |   flag = REJ
|   |   |   |   |   |   |   dst_host_count < 154 : ipsweep (29/0)
|   |   |   |   |   |   |   dst_host_count >= 154
|   |   |   |   |   |   |   |   dst_host_srv_count < 1.5
|   |   |   |   |   |   |   |   |   srv_rerror_rate < 0.75 : normal (1/0)
|   |   |   |   |   |   |   |   |   srv_rerror_rate >= 0.75
|   |   |   |   |   |   |   |   |   |   dst_host_count < 251 : portsweep (4/0)
|   |   |   |   |   |   |   |   |   |   dst_host_count >= 251
|   |   |   |   |   |   |   |   |   |   |   dst_host_serror_rate < 0.01
|   |   |   |   |   |   |   |   |   |   |   |   dst_host_same_src_port_rate < 0.03
|   |   |   |   |   |   |   |   |   |   |   |   |   dst_host_rerror_rate < 0.42 : satan (2/0)
|   |   |   |   |   |   |   |   |   |   |   |   |   dst_host_rerror_rate >= 0.42
|   |   |   |   |   |   |   |   |   |   |   |   |   |   dst_host_diff_srv_rate < 0.04 : portsweep (1/0)
|   |   |   |   |   |   |   |   |   |   |   |   |   |   dst_host_diff_srv_rate >= 0.04 : neptune (2/0)
|   |   |   |   |   |   |   |   |   |   |   |   dst_host_same_src_port_rate >= 0.03 : portsweep (36/0)
|   |   |   |   |   |   |   |   |   |   |   dst_host_serror_rate >= 0.01 : portsweep (12/0)
|   |   |   |   |   |   |   |   dst_host_srv_count >= 1.5
|   |   |   |   |   |   |   |   |   dst_host_rerror_rate < 0.91 : normal (1/0)
|   |   |   |   |   |   |   |   |   dst_host_rerror_rate >= 0.91 : neptune (3/0)
|   |   |   |   |   |   flag = SF : normal (0/0)
|   |   |   |   |   |   flag = RSTO
|   |   |   |   |   |   |   dst_host_srv_rerror_rate < 0.75 : normal (1/0)
|   |   |   |   |   |   |   dst_host_srv_rerror_rate >= 0.75 : portsweep (2/0)
|   |   |   |   |   |   flag = S0 : normal (0/0)
|   |   |   |   |   |   flag = S3 : normal (0/0)
|   |   |   |   |   |   flag = RSTR
|   |   |   |   |   |   |   src_bytes < 0.5
|   |   |   |   |   |   |   |   duration < 0.5
|   |   |   |   |   |   |   |   |   rerror_rate < 0.5 : portsweep (2/0)
|   |   |   |   |   |   |   |   |   rerror_rate >= 0.5
|   |   |   |   |   |   |   |   |   |   srv_count < 1.5
|   |   |   |   |   |   |   |   |   |   |   dst_host_same_src_port_rate < 0.94
|   |   |   |   |   |   |   |   |   |   |   |   service = http : portsweep (2/0)
|   |   |   |   |   |   |   |   |   |   |   |   service = domain_u : normal (0/0)
|   |   |   |   |   |   |   |   |   |   |   |   service = ftp_data : portsweep (1/0)
|   |   |   |   |   |   |   |   |   |   |   |   service = private : portsweep (485/0)
|   |   |   |   |   |   |   |   |   |   |   |   service = other
|   |   |   |   |   |   |   |   |   |   |   |   |   dst_host_same_src_port_rate < 0.17 : portsweep (3/0)
|   |   |   |   |   |   |   |   |   |   |   |   |   dst_host_same_src_port_rate >= 0.17 : normal (19/0)
|   |   |   |   |   |   |   |   |   |   |   |   service = smtp : normal (0/0)
|   |   |   |   |   |   |   |   |   |   |   |   service = telnet : portsweep (1/0)
|   |   |   |   |   |   |   |   |   |   |   |   service = eco_i : normal (0/0)
|   |   |   |   |   |   |   |   |   |   |   |   service = X11 : normal (0/0)
|   |   |   |   |   |   |   |   |   |   |   |   service = ntp_u : normal (0/0)
|   |   |   |   |   |   |   |   |   |   |   |   service = ftp : portsweep (3/0)
|   |   |   |   |   |   |   |   |   |   |   |   service = IRC : normal (0/0)
|   |   |   |   |   |   |   |   |   |   |   |   service = time : portsweep (5/0)
|   |   |   |   |   |   |   |   |   |   |   |   service = finger : portsweep (2/0)
|   |   |   |   |   |   |   |   |   |   |   |   service = urp_i : normal (0/0)
|   |   |   |   |   |   |   |   |   |   |   |   service = auth : portsweep (3/0)
|   |   |   |   |   |   |   |   |   |   |   |   service = ecr_i : normal (0/0)
|   |   |   |   |   |   |   |   |   |   |   |   service = domain : portsweep (4/0)
|   |   |   |   |   |   |   |   |   |   |   |   service = pop_3 : portsweep (2/0)
|   |   |   |   |   |   |   |   |   |   |   |   service = urh_i : normal (0/0)
|   |   |   |   |   |   |   |   |   |   |   |   service = red_i : normal (0/0)
|   |   |   |   |   |   |   |   |   |   |   |   service = remote_job : portsweep (3/0)
|   |   |   |   |   |   |   |   |   |   |   |   service = tftp_u : normal (0/0)
|   |   |   |   |   |   |   |   |   |   |   |   service = ssh : portsweep (3/0)
|   |   |   |   |   |   |   |   |   |   |   |   service = shell : normal (0/0)
|   |   |   |   |   |   |   |   |   |   |   |   service = imap4 : portsweep (2/0)
|   |   |   |   |   |   |   |   |   |   |   |   service = tim_i : normal (0/0)
|   |   |   |   |   |   |   |   |   |   |   |   service = link : portsweep (4/0)
|   |   |   |   |   |   |   |   |   |   |   |   service = uucp : normal (0/0)
|   |   |   |   |   |   |   |   |   |   |   |   service = whois : portsweep (2/0)
|   |   |   |   |   |   |   |   |   |   |   |   service = mtp : portsweep (3/0)
|   |   |   |   |   |   |   |   |   |   |   |   service = Z39_50 : portsweep (1/0)
|   |   |   |   |   |   |   |   |   |   |   |   service = supdup : portsweep (3/0)
|   |   |   |   |   |   |   |   |   |   |   |   service = login : normal (0/0)
|   |   |   |   |   |   |   |   |   |   |   |   service = http_443 : portsweep (1/0)
|   |   |   |   |   |   |   |   |   |   |   |   service = bgp : normal (0/0)
|   |   |   |   |   |   |   |   |   |   |   |   service = uucp_path : portsweep (2/0)
|   |   |   |   |   |   |   |   |   |   |   |   service = sql_net : normal (0/0)
|   |   |   |   |   |   |   |   |   |   |   |   service = hostnames : portsweep (2/0)
|   |   |   |   |   |   |   |   |   |   |   |   service = iso_tsap : portsweep (5/0)
|   |   |   |   |   |   |   |   |   |   |   |   service = nnsp : portsweep (1/0)
|   |   |   |   |   |   |   |   |   |   |   |   service = csnet_ns : portsweep (2/0)
|   |   |   |   |   |   |   |   |   |   |   |   service = vmnet : portsweep (1/0)
|   |   |   |   |   |   |   |   |   |   |   |   service = kshell : normal (0/0)
|   |   |   |   |   |   |   |   |   |   |   |   service = sunrpc : portsweep (2/0)
|   |   |   |   |   |   |   |   |   |   |   |   service = efs : normal (0/0)
|   |   |   |   |   |   |   |   |   |   |   |   service = klogin : normal (0/0)
|   |   |   |   |   |   |   |   |   |   |   |   service = ldap : portsweep (1/0)
|   |   |   |   |   |   |   |   |   |   |   |   service = pop_2 : portsweep (1/0)
|   |   |   |   |   |   |   |   |   |   |   |   service = netstat : portsweep (3/0)
|   |   |   |   |   |   |   |   |   |   |   |   service = daytime : portsweep (2/0)
|   |   |   |   |   |   |   |   |   |   |   |   service = exec : normal (0/0)
|   |   |   |   |   |   |   |   |   |   |   |   service = discard : normal (0/0)
|   |   |   |   |   |   |   |   |   |   |   |   service = netbios_dgm : portsweep (2/0)
|   |   |   |   |   |   |   |   |   |   |   |   service = systat : portsweep (2/0)
|   |   |   |   |   |   |   |   |   |   |   |   service = name : portsweep (4/0)
|   |   |   |   |   |   |   |   |   |   |   |   service = ctf : portsweep (2/0)
|   |   |   |   |   |   |   |   |   |   |   |   service = rje : portsweep (3/0)
|   |   |   |   |   |   |   |   |   |   |   |   service = netbios_ns : portsweep (1/0)
|   |   |   |   |   |   |   |   |   |   |   |   service = courier : normal (0/0)
|   |   |   |   |   |   |   |   |   |   |   |   service = echo : portsweep (1/0)
|   |   |   |   |   |   |   |   |   |   |   |   service = gopher : portsweep (4/0)
|   |   |   |   |   |   |   |   |   |   |   |   service = netbios_ssn : portsweep (2/0)
|   |   |   |   |   |   |   |   |   |   |   |   service = printer : normal (0/0)
|   |   |   |   |   |   |   |   |   |   |   |   service = nntp : portsweep (2/0)
|   |   |   |   |   |   |   |   |   |   |   |   service = http_2784 : normal (0/0)
|   |   |   |   |   |   |   |   |   |   |   |   service = aol : normal (0/0)
|   |   |   |   |   |   |   |   |   |   |   |   service = pm_dump : normal (0/0)
|   |   |   |   |   |   |   |   |   |   |   |   service = http_8001 : normal (0/0)
|   |   |   |   |   |   |   |   |   |   |   |   service = harvest : normal (0/0)
|   |   |   |   |   |   |   |   |   |   |   dst_host_same_src_port_rate >= 0.94 : portsweep (110/0)
|   |   |   |   |   |   |   |   |   |   srv_count >= 1.5 : portsweep (2/0)
|   |   |   |   |   |   |   |   duration >= 0.5 : portsweep (109/0)
|   |   |   |   |   |   |   src_bytes >= 0.5 : portsweep (806/0)
|   |   |   |   |   |   flag = S1 : normal (0/0)
|   |   |   |   |   |   flag = S2 : normal (0/0)
|   |   |   |   |   |   flag = OTH : normal (0/0)
|   |   |   |   |   |   flag = RSTOS0 : portsweep (2/0)
|   |   |   |   |   |   flag = SH : normal (0/0)
|   |   |   |   dst_host_same_srv_rate >= 0.01
|   |   |   |   |   dst_host_diff_srv_rate < 0.99
|   |   |   |   |   |   dst_host_count < 44.5
|   |   |   |   |   |   |   dst_host_same_srv_rate < 0.34
|   |   |   |   |   |   |   |   srv_count < 2.5
|   |   |   |   |   |   |   |   |   dst_host_rerror_rate < 0.57
|   |   |   |   |   |   |   |   |   |   dst_host_same_src_port_rate < 0.11 : normal (11/0)
|   |   |   |   |   |   |   |   |   |   dst_host_same_src_port_rate >= 0.11
|   |   |   |   |   |   |   |   |   |   |   flag = REJ : normal (7/0)
|   |   |   |   |   |   |   |   |   |   |   flag = SF : normal (0/0)
|   |   |   |   |   |   |   |   |   |   |   flag = RSTO : normal (0/0)
|   |   |   |   |   |   |   |   |   |   |   flag = S0 : mscan (1/0)
|   |   |   |   |   |   |   |   |   |   |   flag = S3 : normal (0/0)
|   |   |   |   |   |   |   |   |   |   |   flag = RSTR : normal (0/0)
|   |   |   |   |   |   |   |   |   |   |   flag = S1 : normal (0/0)
|   |   |   |   |   |   |   |   |   |   |   flag = S2 : normal (0/0)
|   |   |   |   |   |   |   |   |   |   |   flag = OTH : normal (0/0)
|   |   |   |   |   |   |   |   |   |   |   flag = RSTOS0 : normal (0/0)
|   |   |   |   |   |   |   |   |   |   |   flag = SH : normal (0/0)
|   |   |   |   |   |   |   |   |   dst_host_rerror_rate >= 0.57
|   |   |   |   |   |   |   |   |   |   service = http : normal (0/0)
|   |   |   |   |   |   |   |   |   |   service = domain_u : normal (0/0)
|   |   |   |   |   |   |   |   |   |   service = ftp_data : normal (0/0)
|   |   |   |   |   |   |   |   |   |   service = private : portsweep (1/0)
|   |   |   |   |   |   |   |   |   |   service = other : normal (0/0)
|   |   |   |   |   |   |   |   |   |   service = smtp : normal (0/0)
|   |   |   |   |   |   |   |   |   |   service = telnet : normal (0/0)
|   |   |   |   |   |   |   |   |   |   service = eco_i : normal (0/0)
|   |   |   |   |   |   |   |   |   |   service = X11 : normal (0/0)
|   |   |   |   |   |   |   |   |   |   service = ntp_u : normal (0/0)
|   |   |   |   |   |   |   |   |   |   service = ftp : normal (0/0)
|   |   |   |   |   |   |   |   |   |   service = IRC : normal (0/0)
|   |   |   |   |   |   |   |   |   |   service = time : normal (0/0)
|   |   |   |   |   |   |   |   |   |   service = finger : normal (0/0)
|   |   |   |   |   |   |   |   |   |   service = urp_i : normal (0/0)
|   |   |   |   |   |   |   |   |   |   service = auth : normal (0/0)
|   |   |   |   |   |   |   |   |   |   service = ecr_i : normal (0/0)
|   |   |   |   |   |   |   |   |   |   service = domain : normal (0/0)
|   |   |   |   |   |   |   |   |   |   service = pop_3 : normal (0/0)
|   |   |   |   |   |   |   |   |   |   service = urh_i : normal (0/0)
|   |   |   |   |   |   |   |   |   |   service = red_i : normal (0/0)
|   |   |   |   |   |   |   |   |   |   service = remote_job : normal (0/0)
|   |   |   |   |   |   |   |   |   |   service = tftp_u : normal (0/0)
|   |   |   |   |   |   |   |   |   |   service = ssh : normal (0/0)
|   |   |   |   |   |   |   |   |   |   service = shell : normal (0/0)
|   |   |   |   |   |   |   |   |   |   service = imap4 : normal (0/0)
|   |   |   |   |   |   |   |   |   |   service = tim_i : normal (0/0)
|   |   |   |   |   |   |   |   |   |   service = link : normal (0/0)
|   |   |   |   |   |   |   |   |   |   service = uucp : normal (0/0)
|   |   |   |   |   |   |   |   |   |   service = whois : normal (0/0)
|   |   |   |   |   |   |   |   |   |   service = mtp : normal (0/0)
|   |   |   |   |   |   |   |   |   |   service = Z39_50 : normal (0/0)
|   |   |   |   |   |   |   |   |   |   service = supdup : normal (0/0)
|   |   |   |   |   |   |   |   |   |   service = login : normal (0/0)
|   |   |   |   |   |   |   |   |   |   service = http_443 : normal (0/0)
|   |   |   |   |   |   |   |   |   |   service = bgp : normal (0/0)
|   |   |   |   |   |   |   |   |   |   service = uucp_path : normal (0/0)
|   |   |   |   |   |   |   |   |   |   service = sql_net : normal (0/0)
|   |   |   |   |   |   |   |   |   |   service = hostnames : normal (0/0)
|   |   |   |   |   |   |   |   |   |   service = iso_tsap : normal (0/0)
|   |   |   |   |   |   |   |   |   |   service = nnsp : normal (0/0)
|   |   |   |   |   |   |   |   |   |   service = csnet_ns : normal (0/0)
|   |   |   |   |   |   |   |   |   |   service = vmnet : normal (0/0)
|   |   |   |   |   |   |   |   |   |   service = kshell : normal (0/0)
|   |   |   |   |   |   |   |   |   |   service = sunrpc : mscan (1/0)
|   |   |   |   |   |   |   |   |   |   service = efs : normal (0/0)
|   |   |   |   |   |   |   |   |   |   service = klogin : normal (0/0)
|   |   |   |   |   |   |   |   |   |   service = ldap : normal (0/0)
|   |   |   |   |   |   |   |   |   |   service = pop_2 : normal (0/0)
|   |   |   |   |   |   |   |   |   |   service = netstat : normal (0/0)
|   |   |   |   |   |   |   |   |   |   service = daytime : portsweep (1/0)
|   |   |   |   |   |   |   |   |   |   service = exec : normal (0/0)
|   |   |   |   |   |   |   |   |   |   service = discard : normal (0/0)
|   |   |   |   |   |   |   |   |   |   service = netbios_dgm : normal (0/0)
|   |   |   |   |   |   |   |   |   |   service = systat : normal (0/0)
|   |   |   |   |   |   |   |   |   |   service = name : normal (0/0)
|   |   |   |   |   |   |   |   |   |   service = ctf : normal (0/0)
|   |   |   |   |   |   |   |   |   |   service = rje : normal (0/0)
|   |   |   |   |   |   |   |   |   |   service = netbios_ns : normal (0/0)
|   |   |   |   |   |   |   |   |   |   service = courier : normal (0/0)
|   |   |   |   |   |   |   |   |   |   service = echo : normal (0/0)
|   |   |   |   |   |   |   |   |   |   service = gopher : normal (0/0)
|   |   |   |   |   |   |   |   |   |   service = netbios_ssn : normal (0/0)
|   |   |   |   |   |   |   |   |   |   service = printer : normal (0/0)
|   |   |   |   |   |   |   |   |   |   service = nntp : normal (0/0)
|   |   |   |   |   |   |   |   |   |   service = http_2784 : normal (0/0)
|   |   |   |   |   |   |   |   |   |   service = aol : normal (0/0)
|   |   |   |   |   |   |   |   |   |   service = pm_dump : normal (0/0)
|   |   |   |   |   |   |   |   |   |   service = http_8001 : normal (0/0)
|   |   |   |   |   |   |   |   |   |   service = harvest : normal (0/0)
|   |   |   |   |   |   |   |   srv_count >= 2.5
|   |   |   |   |   |   |   |   |   dst_host_same_src_port_rate < 0.06 : mscan (6/0)
|   |   |   |   |   |   |   |   |   dst_host_same_src_port_rate >= 0.06
|   |   |   |   |   |   |   |   |   |   dst_host_srv_diff_host_rate < 0.01 : normal (1/0)
|   |   |   |   |   |   |   |   |   |   dst_host_srv_diff_host_rate >= 0.01 : mscan (5/0)
|   |   |   |   |   |   |   dst_host_same_srv_rate >= 0.34
|   |   |   |   |   |   |   |   dst_host_rerror_rate < 0.98 : normal (30/0)
|   |   |   |   |   |   |   |   dst_host_rerror_rate >= 0.98
|   |   |   |   |   |   |   |   |   dst_host_same_src_port_rate < 0.75 : normal (188/0)
|   |   |   |   |   |   |   |   |   dst_host_same_src_port_rate >= 0.75
|   |   |   |   |   |   |   |   |   |   service = http : normal (36/0)
|   |   |   |   |   |   |   |   |   |   service = domain_u : normal (0/0)
|   |   |   |   |   |   |   |   |   |   service = ftp_data : normal (0/0)
|   |   |   |   |   |   |   |   |   |   service = private : normal (0/0)
|   |   |   |   |   |   |   |   |   |   service = other : normal (1/0)
|   |   |   |   |   |   |   |   |   |   service = smtp : normal (0/0)
|   |   |   |   |   |   |   |   |   |   service = telnet : normal (1/0)
|   |   |   |   |   |   |   |   |   |   service = eco_i : normal (0/0)
|   |   |   |   |   |   |   |   |   |   service = X11 : normal (0/0)
|   |   |   |   |   |   |   |   |   |   service = ntp_u : normal (0/0)
|   |   |   |   |   |   |   |   |   |   service = ftp : normal (0/0)
|   |   |   |   |   |   |   |   |   |   service = IRC : normal (0/0)
|   |   |   |   |   |   |   |   |   |   service = time : normal (1/0)
|   |   |   |   |   |   |   |   |   |   service = finger : normal (0/0)
|   |   |   |   |   |   |   |   |   |   service = urp_i : normal (0/0)
|   |   |   |   |   |   |   |   |   |   service = auth : normal (0/0)
|   |   |   |   |   |   |   |   |   |   service = ecr_i : normal (0/0)
|   |   |   |   |   |   |   |   |   |   service = domain : named (1/0)
|   |   |   |   |   |   |   |   |   |   service = pop_3 : normal (0/0)
|   |   |   |   |   |   |   |   |   |   service = urh_i : normal (0/0)
|   |   |   |   |   |   |   |   |   |   service = red_i : normal (0/0)
|   |   |   |   |   |   |   |   |   |   service = remote_job : normal (0/0)
|   |   |   |   |   |   |   |   |   |   service = tftp_u : normal (0/0)
|   |   |   |   |   |   |   |   |   |   service = ssh : normal (0/0)
|   |   |   |   |   |   |   |   |   |   service = shell : normal (0/0)
|   |   |   |   |   |   |   |   |   |   service = imap4 : normal (0/0)
|   |   |   |   |   |   |   |   |   |   service = tim_i : normal (0/0)
|   |   |   |   |   |   |   |   |   |   service = link : normal (0/0)
|   |   |   |   |   |   |   |   |   |   service = uucp : normal (0/0)
|   |   |   |   |   |   |   |   |   |   service = whois : normal (0/0)
|   |   |   |   |   |   |   |   |   |   service = mtp : normal (0/0)
|   |   |   |   |   |   |   |   |   |   service = Z39_50 : normal (0/0)
|   |   |   |   |   |   |   |   |   |   service = supdup : normal (0/0)
|   |   |   |   |   |   |   |   |   |   service = login : normal (0/0)
|   |   |   |   |   |   |   |   |   |   service = http_443 : normal (0/0)
|   |   |   |   |   |   |   |   |   |   service = bgp : normal (0/0)
|   |   |   |   |   |   |   |   |   |   service = uucp_path : normal (0/0)
|   |   |   |   |   |   |   |   |   |   service = sql_net : normal (0/0)
|   |   |   |   |   |   |   |   |   |   service = hostnames : normal (0/0)
|   |   |   |   |   |   |   |   |   |   service = iso_tsap : normal (0/0)
|   |   |   |   |   |   |   |   |   |   service = nnsp : normal (0/0)
|   |   |   |   |   |   |   |   |   |   service = csnet_ns : normal (0/0)
|   |   |   |   |   |   |   |   |   |   service = vmnet : normal (0/0)
|   |   |   |   |   |   |   |   |   |   service = kshell : normal (0/0)
|   |   |   |   |   |   |   |   |   |   service = sunrpc : normal (0/0)
|   |   |   |   |   |   |   |   |   |   service = efs : normal (0/0)
|   |   |   |   |   |   |   |   |   |   service = klogin : normal (0/0)
|   |   |   |   |   |   |   |   |   |   service = ldap : normal (0/0)
|   |   |   |   |   |   |   |   |   |   service = pop_2 : normal (0/0)
|   |   |   |   |   |   |   |   |   |   service = netstat : normal (0/0)
|   |   |   |   |   |   |   |   |   |   service = daytime : normal (0/0)
|   |   |   |   |   |   |   |   |   |   service = exec : normal (0/0)
|   |   |   |   |   |   |   |   |   |   service = discard : normal (0/0)
|   |   |   |   |   |   |   |   |   |   service = netbios_dgm : normal (0/0)
|   |   |   |   |   |   |   |   |   |   service = systat : normal (0/0)
|   |   |   |   |   |   |   |   |   |   service = name : normal (0/0)
|   |   |   |   |   |   |   |   |   |   service = ctf : normal (0/0)
|   |   |   |   |   |   |   |   |   |   service = rje : normal (0/0)
|   |   |   |   |   |   |   |   |   |   service = netbios_ns : normal (0/0)
|   |   |   |   |   |   |   |   |   |   service = courier : normal (0/0)
|   |   |   |   |   |   |   |   |   |   service = echo : normal (0/0)
|   |   |   |   |   |   |   |   |   |   service = gopher : normal (0/0)
|   |   |   |   |   |   |   |   |   |   service = netbios_ssn : normal (0/0)
|   |   |   |   |   |   |   |   |   |   service = printer : normal (0/0)
|   |   |   |   |   |   |   |   |   |   service = nntp : normal (0/0)
|   |   |   |   |   |   |   |   |   |   service = http_2784 : normal (0/0)
|   |   |   |   |   |   |   |   |   |   service = aol : normal (0/0)
|   |   |   |   |   |   |   |   |   |   service = pm_dump : normal (0/0)
|   |   |   |   |   |   |   |   |   |   service = http_8001 : normal (0/0)
|   |   |   |   |   |   |   |   |   |   service = harvest : normal (0/0)
|   |   |   |   |   |   dst_host_count >= 44.5
|   |   |   |   |   |   |   dst_host_diff_srv_rate < 0.03
|   |   |   |   |   |   |   |   dst_host_same_src_port_rate < 0.01
|   |   |   |   |   |   |   |   |   flag = REJ
|   |   |   |   |   |   |   |   |   |   dst_host_srv_diff_host_rate < 0.02
|   |   |   |   |   |   |   |   |   |   |   service = http : normal (0/0)
|   |   |   |   |   |   |   |   |   |   |   service = domain_u : normal (0/0)
|   |   |   |   |   |   |   |   |   |   |   service = ftp_data : normal (0/0)
|   |   |   |   |   |   |   |   |   |   |   service = private : normal (0/0)
|   |   |   |   |   |   |   |   |   |   |   service = other : httptunnel (52/0)
|   |   |   |   |   |   |   |   |   |   |   service = smtp : normal (0/0)
|   |   |   |   |   |   |   |   |   |   |   service = telnet : mscan (1/0)
|   |   |   |   |   |   |   |   |   |   |   service = eco_i : normal (0/0)
|   |   |   |   |   |   |   |   |   |   |   service = X11 : normal (0/0)
|   |   |   |   |   |   |   |   |   |   |   service = ntp_u : normal (0/0)
|   |   |   |   |   |   |   |   |   |   |   service = ftp : normal (0/0)
|   |   |   |   |   |   |   |   |   |   |   service = IRC : normal (0/0)
|   |   |   |   |   |   |   |   |   |   |   service = time : normal (0/0)
|   |   |   |   |   |   |   |   |   |   |   service = finger : normal (0/0)
|   |   |   |   |   |   |   |   |   |   |   service = urp_i : normal (0/0)
|   |   |   |   |   |   |   |   |   |   |   service = auth : normal (0/0)
|   |   |   |   |   |   |   |   |   |   |   service = ecr_i : normal (0/0)
|   |   |   |   |   |   |   |   |   |   |   service = domain : normal (0/0)
|   |   |   |   |   |   |   |   |   |   |   service = pop_3 : mscan (1/0)
|   |   |   |   |   |   |   |   |   |   |   service = urh_i : normal (0/0)
|   |   |   |   |   |   |   |   |   |   |   service = red_i : normal (0/0)
|   |   |   |   |   |   |   |   |   |   |   service = remote_job : normal (0/0)
|   |   |   |   |   |   |   |   |   |   |   service = tftp_u : normal (0/0)
|   |   |   |   |   |   |   |   |   |   |   service = ssh : normal (0/0)
|   |   |   |   |   |   |   |   |   |   |   service = shell : normal (0/0)
|   |   |   |   |   |   |   |   |   |   |   service = imap4 : mscan (1/0)
|   |   |   |   |   |   |   |   |   |   |   service = tim_i : normal (0/0)
|   |   |   |   |   |   |   |   |   |   |   service = link : normal (0/0)
|   |   |   |   |   |   |   |   |   |   |   service = uucp : normal (0/0)
|   |   |   |   |   |   |   |   |   |   |   service = whois : normal (0/0)
|   |   |   |   |   |   |   |   |   |   |   service = mtp : normal (0/0)
|   |   |   |   |   |   |   |   |   |   |   service = Z39_50 : normal (0/0)
|   |   |   |   |   |   |   |   |   |   |   service = supdup : normal (0/0)
|   |   |   |   |   |   |   |   |   |   |   service = login : normal (0/0)
|   |   |   |   |   |   |   |   |   |   |   service = http_443 : normal (0/0)
|   |   |   |   |   |   |   |   |   |   |   service = bgp : normal (0/0)
|   |   |   |   |   |   |   |   |   |   |   service = uucp_path : normal (0/0)
|   |   |   |   |   |   |   |   |   |   |   service = sql_net : normal (0/0)
|   |   |   |   |   |   |   |   |   |   |   service = hostnames : normal (0/0)
|   |   |   |   |   |   |   |   |   |   |   service = iso_tsap : normal (0/0)
|   |   |   |   |   |   |   |   |   |   |   service = nnsp : normal (0/0)
|   |   |   |   |   |   |   |   |   |   |   service = csnet_ns : normal (0/0)
|   |   |   |   |   |   |   |   |   |   |   service = vmnet : normal (0/0)
|   |   |   |   |   |   |   |   |   |   |   service = kshell : normal (0/0)
|   |   |   |   |   |   |   |   |   |   |   service = sunrpc : normal (0/0)
|   |   |   |   |   |   |   |   |   |   |   service = efs : normal (0/0)
|   |   |   |   |   |   |   |   |   |   |   service = klogin : normal (0/0)
|   |   |   |   |   |   |   |   |   |   |   service = ldap : normal (0/0)
|   |   |   |   |   |   |   |   |   |   |   service = pop_2 : normal (0/0)
|   |   |   |   |   |   |   |   |   |   |   service = netstat : normal (0/0)
|   |   |   |   |   |   |   |   |   |   |   service = daytime : normal (0/0)
|   |   |   |   |   |   |   |   |   |   |   service = exec : normal (0/0)
|   |   |   |   |   |   |   |   |   |   |   service = discard : normal (0/0)
|   |   |   |   |   |   |   |   |   |   |   service = netbios_dgm : normal (0/0)
|   |   |   |   |   |   |   |   |   |   |   service = systat : normal (0/0)
|   |   |   |   |   |   |   |   |   |   |   service = name : normal (0/0)
|   |   |   |   |   |   |   |   |   |   |   service = ctf : normal (0/0)
|   |   |   |   |   |   |   |   |   |   |   service = rje : normal (0/0)
|   |   |   |   |   |   |   |   |   |   |   service = netbios_ns : normal (0/0)
|   |   |   |   |   |   |   |   |   |   |   service = courier : normal (0/0)
|   |   |   |   |   |   |   |   |   |   |   service = echo : normal (0/0)
|   |   |   |   |   |   |   |   |   |   |   service = gopher : normal (0/0)
|   |   |   |   |   |   |   |   |   |   |   service = netbios_ssn : normal (0/0)
|   |   |   |   |   |   |   |   |   |   |   service = printer : normal (0/0)
|   |   |   |   |   |   |   |   |   |   |   service = nntp : normal (0/0)
|   |   |   |   |   |   |   |   |   |   |   service = http_2784 : normal (0/0)
|   |   |   |   |   |   |   |   |   |   |   service = aol : normal (0/0)
|   |   |   |   |   |   |   |   |   |   |   service = pm_dump : normal (0/0)
|   |   |   |   |   |   |   |   |   |   |   service = http_8001 : normal (0/0)
|   |   |   |   |   |   |   |   |   |   |   service = harvest : normal (0/0)
|   |   |   |   |   |   |   |   |   |   dst_host_srv_diff_host_rate >= 0.02 : mscan (2/0)
|   |   |   |   |   |   |   |   |   flag = SF : normal (0/0)
|   |   |   |   |   |   |   |   |   flag = RSTO : mscan (6/0)
|   |   |   |   |   |   |   |   |   flag = S0 : normal (0/0)
|   |   |   |   |   |   |   |   |   flag = S3 : normal (0/0)
|   |   |   |   |   |   |   |   |   flag = RSTR : normal (0/0)
|   |   |   |   |   |   |   |   |   flag = S1 : normal (0/0)
|   |   |   |   |   |   |   |   |   flag = S2 : normal (0/0)
|   |   |   |   |   |   |   |   |   flag = OTH : normal (0/0)
|   |   |   |   |   |   |   |   |   flag = RSTOS0 : normal (0/0)
|   |   |   |   |   |   |   |   |   flag = SH : normal (0/0)
|   |   |   |   |   |   |   |   dst_host_same_src_port_rate >= 0.01
|   |   |   |   |   |   |   |   |   dst_host_srv_diff_host_rate < 0.01 : normal (11/0)
|   |   |   |   |   |   |   |   |   dst_host_srv_diff_host_rate >= 0.01 : mscan (1/0)
|   |   |   |   |   |   |   dst_host_diff_srv_rate >= 0.03
|   |   |   |   |   |   |   |   dst_host_count < 141.5
|   |   |   |   |   |   |   |   |   dst_host_same_srv_rate < 0.03
|   |   |   |   |   |   |   |   |   |   dst_host_same_src_port_rate < 0.03
|   |   |   |   |   |   |   |   |   |   |   src_bytes < 0.5 : normal (4/0)
|   |   |   |   |   |   |   |   |   |   |   src_bytes >= 0.5 : portsweep (1/0)
|   |   |   |   |   |   |   |   |   |   dst_host_same_src_port_rate >= 0.03 : portsweep (20/0)
|   |   |   |   |   |   |   |   |   dst_host_same_srv_rate >= 0.03
|   |   |   |   |   |   |   |   |   |   srv_rerror_rate < 0.97
|   |   |   |   |   |   |   |   |   |   |   dst_host_srv_rerror_rate < 0.99 : mscan (10/0)
|   |   |   |   |   |   |   |   |   |   |   dst_host_srv_rerror_rate >= 0.99 : normal (1/0)
|   |   |   |   |   |   |   |   |   |   srv_rerror_rate >= 0.97
|   |   |   |   |   |   |   |   |   |   |   service = http : normal (12/0)
|   |   |   |   |   |   |   |   |   |   |   service = domain_u : normal (0/0)
|   |   |   |   |   |   |   |   |   |   |   service = ftp_data : normal (0/0)
|   |   |   |   |   |   |   |   |   |   |   service = private : normal (0/0)
|   |   |   |   |   |   |   |   |   |   |   service = other : httptunnel (15/0)
|   |   |   |   |   |   |   |   |   |   |   service = smtp : normal (0/0)
|   |   |   |   |   |   |   |   |   |   |   service = telnet : normal (0/0)
|   |   |   |   |   |   |   |   |   |   |   service = eco_i : normal (0/0)
|   |   |   |   |   |   |   |   |   |   |   service = X11 : normal (1/0)
|   |   |   |   |   |   |   |   |   |   |   service = ntp_u : normal (0/0)
|   |   |   |   |   |   |   |   |   |   |   service = ftp : normal (0/0)
|   |   |   |   |   |   |   |   |   |   |   service = IRC : normal (0/0)
|   |   |   |   |   |   |   |   |   |   |   service = time : normal (0/0)
|   |   |   |   |   |   |   |   |   |   |   service = finger : normal (1/0)
|   |   |   |   |   |   |   |   |   |   |   service = urp_i : normal (0/0)
|   |   |   |   |   |   |   |   |   |   |   service = auth : normal (1/0)
|   |   |   |   |   |   |   |   |   |   |   service = ecr_i : normal (0/0)
|   |   |   |   |   |   |   |   |   |   |   service = domain : normal (0/0)
|   |   |   |   |   |   |   |   |   |   |   service = pop_3 : mscan (2/0)
|   |   |   |   |   |   |   |   |   |   |   service = urh_i : normal (0/0)
|   |   |   |   |   |   |   |   |   |   |   service = red_i : normal (0/0)
|   |   |   |   |   |   |   |   |   |   |   service = remote_job : normal (0/0)
|   |   |   |   |   |   |   |   |   |   |   service = tftp_u : normal (0/0)
|   |   |   |   |   |   |   |   |   |   |   service = ssh : normal (0/0)
|   |   |   |   |   |   |   |   |   |   |   service = shell : normal (0/0)
|   |   |   |   |   |   |   |   |   |   |   service = imap4 : mscan (2/0)
|   |   |   |   |   |   |   |   |   |   |   service = tim_i : normal (0/0)
|   |   |   |   |   |   |   |   |   |   |   service = link : normal (0/0)
|   |   |   |   |   |   |   |   |   |   |   service = uucp : normal (0/0)
|   |   |   |   |   |   |   |   |   |   |   service = whois : normal (0/0)
|   |   |   |   |   |   |   |   |   |   |   service = mtp : normal (0/0)
|   |   |   |   |   |   |   |   |   |   |   service = Z39_50 : normal (0/0)
|   |   |   |   |   |   |   |   |   |   |   service = supdup : normal (0/0)
|   |   |   |   |   |   |   |   |   |   |   service = login : normal (0/0)
|   |   |   |   |   |   |   |   |   |   |   service = http_443 : normal (0/0)
|   |   |   |   |   |   |   |   |   |   |   service = bgp : normal (0/0)
|   |   |   |   |   |   |   |   |   |   |   service = uucp_path : normal (0/0)
|   |   |   |   |   |   |   |   |   |   |   service = sql_net : normal (0/0)
|   |   |   |   |   |   |   |   |   |   |   service = hostnames : normal (0/0)
|   |   |   |   |   |   |   |   |   |   |   service = iso_tsap : normal (0/0)
|   |   |   |   |   |   |   |   |   |   |   service = nnsp : normal (0/0)
|   |   |   |   |   |   |   |   |   |   |   service = csnet_ns : normal (0/0)
|   |   |   |   |   |   |   |   |   |   |   service = vmnet : normal (0/0)
|   |   |   |   |   |   |   |   |   |   |   service = kshell : normal (0/0)
|   |   |   |   |   |   |   |   |   |   |   service = sunrpc : mscan (11/0)
|   |   |   |   |   |   |   |   |   |   |   service = efs : normal (0/0)
|   |   |   |   |   |   |   |   |   |   |   service = klogin : normal (0/0)
|   |   |   |   |   |   |   |   |   |   |   service = ldap : normal (0/0)
|   |   |   |   |   |   |   |   |   |   |   service = pop_2 : normal (0/0)
|   |   |   |   |   |   |   |   |   |   |   service = netstat : normal (0/0)
|   |   |   |   |   |   |   |   |   |   |   service = daytime : normal (0/0)
|   |   |   |   |   |   |   |   |   |   |   service = exec : normal (0/0)
|   |   |   |   |   |   |   |   |   |   |   service = discard : normal (0/0)
|   |   |   |   |   |   |   |   |   |   |   service = netbios_dgm : normal (0/0)
|   |   |   |   |   |   |   |   |   |   |   service = systat : normal (0/0)
|   |   |   |   |   |   |   |   |   |   |   service = name : normal (0/0)
|   |   |   |   |   |   |   |   |   |   |   service = ctf : normal (0/0)
|   |   |   |   |   |   |   |   |   |   |   service = rje : normal (0/0)
|   |   |   |   |   |   |   |   |   |   |   service = netbios_ns : normal (0/0)
|   |   |   |   |   |   |   |   |   |   |   service = courier : normal (0/0)
|   |   |   |   |   |   |   |   |   |   |   service = echo : normal (0/0)
|   |   |   |   |   |   |   |   |   |   |   service = gopher : normal (0/0)
|   |   |   |   |   |   |   |   |   |   |   service = netbios_ssn : normal (0/0)
|   |   |   |   |   |   |   |   |   |   |   service = printer : normal (0/0)
|   |   |   |   |   |   |   |   |   |   |   service = nntp : normal (0/0)
|   |   |   |   |   |   |   |   |   |   |   service = http_2784 : normal (0/0)
|   |   |   |   |   |   |   |   |   |   |   service = aol : normal (0/0)
|   |   |   |   |   |   |   |   |   |   |   service = pm_dump : normal (0/0)
|   |   |   |   |   |   |   |   |   |   |   service = http_8001 : normal (0/0)
|   |   |   |   |   |   |   |   |   |   |   service = harvest : normal (0/0)
|   |   |   |   |   |   |   |   dst_host_count >= 141.5
|   |   |   |   |   |   |   |   |   srv_count < 1.5
|   |   |   |   |   |   |   |   |   |   dst_host_count < 220
|   |   |   |   |   |   |   |   |   |   |   dst_host_rerror_rate < 0.12
|   |   |   |   |   |   |   |   |   |   |   |   dst_host_srv_diff_host_rate < 0.06 : normal (5/0)
|   |   |   |   |   |   |   |   |   |   |   |   dst_host_srv_diff_host_rate >= 0.06 : mscan (1/0)
|   |   |   |   |   |   |   |   |   |   |   dst_host_rerror_rate >= 0.12 : mscan (2/0)
|   |   |   |   |   |   |   |   |   |   dst_host_count >= 220
|   |   |   |   |   |   |   |   |   |   |   dst_host_same_srv_rate < 0.17
|   |   |   |   |   |   |   |   |   |   |   |   service = http : normal (10/0)
|   |   |   |   |   |   |   |   |   |   |   |   service = domain_u : normal (0/0)
|   |   |   |   |   |   |   |   |   |   |   |   service = ftp_data : normal (0/0)
|   |   |   |   |   |   |   |   |   |   |   |   service = private : normal (0/0)
|   |   |   |   |   |   |   |   |   |   |   |   service = other : normal (0/0)
|   |   |   |   |   |   |   |   |   |   |   |   service = smtp : normal (1/0)
|   |   |   |   |   |   |   |   |   |   |   |   service = telnet : normal (0/0)
|   |   |   |   |   |   |   |   |   |   |   |   service = eco_i : normal (0/0)
|   |   |   |   |   |   |   |   |   |   |   |   service = X11 : normal (0/0)
|   |   |   |   |   |   |   |   |   |   |   |   service = ntp_u : normal (0/0)
|   |   |   |   |   |   |   |   |   |   |   |   service = ftp : normal (0/0)
|   |   |   |   |   |   |   |   |   |   |   |   service = IRC : normal (0/0)
|   |   |   |   |   |   |   |   |   |   |   |   service = time : normal (0/0)
|   |   |   |   |   |   |   |   |   |   |   |   service = finger : normal (0/0)
|   |   |   |   |   |   |   |   |   |   |   |   service = urp_i : normal (0/0)
|   |   |   |   |   |   |   |   |   |   |   |   service = auth : normal (2/0)
|   |   |   |   |   |   |   |   |   |   |   |   service = ecr_i : normal (0/0)
|   |   |   |   |   |   |   |   |   |   |   |   service = domain : normal (0/0)
|   |   |   |   |   |   |   |   |   |   |   |   service = pop_3 : normal (0/0)
|   |   |   |   |   |   |   |   |   |   |   |   service = urh_i : normal (0/0)
|   |   |   |   |   |   |   |   |   |   |   |   service = red_i : normal (0/0)
|   |   |   |   |   |   |   |   |   |   |   |   service = remote_job : normal (0/0)
|   |   |   |   |   |   |   |   |   |   |   |   service = tftp_u : normal (0/0)
|   |   |   |   |   |   |   |   |   |   |   |   service = ssh : normal (0/0)
|   |   |   |   |   |   |   |   |   |   |   |   service = shell : normal (0/0)
|   |   |   |   |   |   |   |   |   |   |   |   service = imap4 : mscan (1/0)
|   |   |   |   |   |   |   |   |   |   |   |   service = tim_i : normal (0/0)
|   |   |   |   |   |   |   |   |   |   |   |   service = link : normal (0/0)
|   |   |   |   |   |   |   |   |   |   |   |   service = uucp : normal (0/0)
|   |   |   |   |   |   |   |   |   |   |   |   service = whois : normal (0/0)
|   |   |   |   |   |   |   |   |   |   |   |   service = mtp : normal (0/0)
|   |   |   |   |   |   |   |   |   |   |   |   service = Z39_50 : normal (0/0)
|   |   |   |   |   |   |   |   |   |   |   |   service = supdup : normal (0/0)
|   |   |   |   |   |   |   |   |   |   |   |   service = login : normal (0/0)
|   |   |   |   |   |   |   |   |   |   |   |   service = http_443 : normal (0/0)
|   |   |   |   |   |   |   |   |   |   |   |   service = bgp : normal (0/0)
|   |   |   |   |   |   |   |   |   |   |   |   service = uucp_path : normal (0/0)
|   |   |   |   |   |   |   |   |   |   |   |   service = sql_net : normal (0/0)
|   |   |   |   |   |   |   |   |   |   |   |   service = hostnames : normal (0/0)
|   |   |   |   |   |   |   |   |   |   |   |   service = iso_tsap : normal (0/0)
|   |   |   |   |   |   |   |   |   |   |   |   service = nnsp : normal (0/0)
|   |   |   |   |   |   |   |   |   |   |   |   service = csnet_ns : normal (0/0)
|   |   |   |   |   |   |   |   |   |   |   |   service = vmnet : normal (0/0)
|   |   |   |   |   |   |   |   |   |   |   |   service = kshell : normal (0/0)
|   |   |   |   |   |   |   |   |   |   |   |   service = sunrpc : normal (0/0)
|   |   |   |   |   |   |   |   |   |   |   |   service = efs : normal (0/0)
|   |   |   |   |   |   |   |   |   |   |   |   service = klogin : normal (0/0)
|   |   |   |   |   |   |   |   |   |   |   |   service = ldap : normal (0/0)
|   |   |   |   |   |   |   |   |   |   |   |   service = pop_2 : normal (0/0)
|   |   |   |   |   |   |   |   |   |   |   |   service = netstat : normal (0/0)
|   |   |   |   |   |   |   |   |   |   |   |   service = daytime : normal (0/0)
|   |   |   |   |   |   |   |   |   |   |   |   service = exec : normal (0/0)
|   |   |   |   |   |   |   |   |   |   |   |   service = discard : normal (0/0)
|   |   |   |   |   |   |   |   |   |   |   |   service = netbios_dgm : normal (0/0)
|   |   |   |   |   |   |   |   |   |   |   |   service = systat : normal (0/0)
|   |   |   |   |   |   |   |   |   |   |   |   service = name : normal (0/0)
|   |   |   |   |   |   |   |   |   |   |   |   service = ctf : normal (0/0)
|   |   |   |   |   |   |   |   |   |   |   |   service = rje : normal (0/0)
|   |   |   |   |   |   |   |   |   |   |   |   service = netbios_ns : normal (0/0)
|   |   |   |   |   |   |   |   |   |   |   |   service = courier : normal (0/0)
|   |   |   |   |   |   |   |   |   |   |   |   service = echo : normal (0/0)
|   |   |   |   |   |   |   |   |   |   |   |   service = gopher : normal (0/0)
|   |   |   |   |   |   |   |   |   |   |   |   service = netbios_ssn : normal (0/0)
|   |   |   |   |   |   |   |   |   |   |   |   service = printer : normal (0/0)
|   |   |   |   |   |   |   |   |   |   |   |   service = nntp : normal (0/0)
|   |   |   |   |   |   |   |   |   |   |   |   service = http_2784 : normal (0/0)
|   |   |   |   |   |   |   |   |   |   |   |   service = aol : normal (0/0)
|   |   |   |   |   |   |   |   |   |   |   |   service = pm_dump : normal (0/0)
|   |   |   |   |   |   |   |   |   |   |   |   service = http_8001 : normal (0/0)
|   |   |   |   |   |   |   |   |   |   |   |   service = harvest : normal (0/0)
|   |   |   |   |   |   |   |   |   |   |   dst_host_same_srv_rate >= 0.17
|   |   |   |   |   |   |   |   |   |   |   |   dst_host_same_srv_rate < 0.21 : mscan (1/0)
|   |   |   |   |   |   |   |   |   |   |   |   dst_host_same_srv_rate >= 0.21 : neptune (1/0)
|   |   |   |   |   |   |   |   |   srv_count >= 1.5
|   |   |   |   |   |   |   |   |   |   dst_host_diff_srv_rate < 0.04
|   |   |   |   |   |   |   |   |   |   |   srv_serror_rate < 0.04
