=== Run information ===

Scheme:       weka.classifiers.meta.RandomCommittee -S 1 -num-slots 1 -I 10 -W weka.classifiers.trees.RandomTree -- -K 0 -M 1.0 -V 0.001 -S 1
Relation:     train-80-weka.filters.unsupervised.attribute.Remove-R43
Instances:    118798
Attributes:   42
              duration
              protocol_type
              service
              flag
              src_bytes
              dst_bytes
              land
              wrong_fragment
              urgent
              hot
              num_failed_logins
              logged_in
              num_compromised
              root_shell
              su_attempted
              num_root
              num_file_creations
              num_shells
              num_access_files
              num_outbound_cmds
              is_host_login
              is_guest_login
              count
              srv_count
              serror_rate
              srv_serror_rate
              rerror_rate
              srv_rerror_rate
              same_srv_rate
              diff_srv_rate
              srv_diff_host_rate
              dst_host_count
              dst_host_srv_count
              dst_host_same_srv_rate
              dst_host_diff_srv_rate
              dst_host_same_src_port_rate
              dst_host_srv_diff_host_rate
              dst_host_serror_rate
              dst_host_srv_serror_rate
              dst_host_rerror_rate
              dst_host_srv_rerror_rate
              outcome
Test mode:    user supplied test set:  size unknown (reading incrementally)

=== Classifier model (full training set) ===

All the base classifiers: 


RandomTree
==========

flag = REJ
|   service = http
|   |   dst_host_diff_srv_rate < 0.06
|   |   |   dst_host_count < 16.5 : normal (1142/0)
|   |   |   dst_host_count >= 16.5
|   |   |   |   dst_host_rerror_rate < 0.07
|   |   |   |   |   dst_host_srv_diff_host_rate < 0.01
|   |   |   |   |   |   srv_count < 1.5
|   |   |   |   |   |   |   dst_host_srv_count < 136 : phf (1/0)
|   |   |   |   |   |   |   dst_host_srv_count >= 136 : normal (2/0)
|   |   |   |   |   |   srv_count >= 1.5 : normal (3/0)
|   |   |   |   |   dst_host_srv_diff_host_rate >= 0.01 : normal (6/0)
|   |   |   |   dst_host_rerror_rate >= 0.07 : normal (893/0)
|   |   dst_host_diff_srv_rate >= 0.06
|   |   |   dst_host_diff_srv_rate < 0.12
|   |   |   |   dst_host_srv_count < 19.5
|   |   |   |   |   dst_host_count < 206.5 : satan (2/0)
|   |   |   |   |   dst_host_count >= 206.5 : neptune (154/0)
|   |   |   |   dst_host_srv_count >= 19.5
|   |   |   |   |   dst_host_rerror_rate < 0.94 : normal (8/0)
|   |   |   |   |   dst_host_rerror_rate >= 0.94 : neptune (22/0)
|   |   |   dst_host_diff_srv_rate >= 0.12
|   |   |   |   dst_host_rerror_rate < 0.9
|   |   |   |   |   dst_host_count < 40 : normal (28/0)
|   |   |   |   |   dst_host_count >= 40
|   |   |   |   |   |   dst_host_diff_srv_rate < 0.4
|   |   |   |   |   |   |   dst_host_diff_srv_rate < 0.25 : saint (1/0)
|   |   |   |   |   |   |   dst_host_diff_srv_rate >= 0.25 : satan (2/0)
|   |   |   |   |   |   dst_host_diff_srv_rate >= 0.4
|   |   |   |   |   |   |   dst_host_same_srv_rate < 0.01 : neptune (1/0)
|   |   |   |   |   |   |   dst_host_same_srv_rate >= 0.01
|   |   |   |   |   |   |   |   diff_srv_rate < 0.05 : normal (15/0)
|   |   |   |   |   |   |   |   diff_srv_rate >= 0.05 : neptune (1/0)
|   |   |   |   dst_host_rerror_rate >= 0.9
|   |   |   |   |   dst_host_diff_srv_rate < 0.79
|   |   |   |   |   |   same_srv_rate < 0.21 : portsweep (1/0)
|   |   |   |   |   |   same_srv_rate >= 0.21 : neptune (1/0)
|   |   |   |   |   dst_host_diff_srv_rate >= 0.79
|   |   |   |   |   |   dst_host_same_srv_rate < 0.01 : portsweep (1/0)
|   |   |   |   |   |   dst_host_same_srv_rate >= 0.01 : ipsweep (5/0)
|   service = domain_u : normal (0/0)
|   service = ftp_data
|   |   same_srv_rate < 0.49
|   |   |   dst_host_srv_serror_rate < 0.04
|   |   |   |   dst_host_diff_srv_rate < 0.84
|   |   |   |   |   dst_host_same_src_port_rate < 0.04 : neptune (89/0)
|   |   |   |   |   dst_host_same_src_port_rate >= 0.04 : portsweep (1/0)
|   |   |   |   dst_host_diff_srv_rate >= 0.84 : satan (11/0)
|   |   |   dst_host_srv_serror_rate >= 0.04 : satan (1/0)
|   |   same_srv_rate >= 0.49
|   |   |   dst_host_diff_srv_rate < 0.01 : ipsweep (9/0)
|   |   |   dst_host_diff_srv_rate >= 0.01
|   |   |   |   dst_host_srv_count < 15 : portsweep (2/0)
|   |   |   |   dst_host_srv_count >= 15
|   |   |   |   |   srv_count < 10.5 : portsweep (1/0)
|   |   |   |   |   srv_count >= 10.5 : neptune (1/0)
|   service = private
|   |   diff_srv_rate < 0.35
|   |   |   srv_count < 1.5
|   |   |   |   dst_host_diff_srv_rate < 0.99
|   |   |   |   |   count < 5.5
|   |   |   |   |   |   dst_host_same_src_port_rate < 0.01
|   |   |   |   |   |   |   dst_host_diff_srv_rate < 0.04 : portsweep (1/0)
|   |   |   |   |   |   |   dst_host_diff_srv_rate >= 0.04
|   |   |   |   |   |   |   |   dst_host_rerror_rate < 0.55 : satan (1/0)
|   |   |   |   |   |   |   |   dst_host_rerror_rate >= 0.55 : neptune (1/0)
|   |   |   |   |   |   dst_host_same_src_port_rate >= 0.01 : portsweep (42/0)
|   |   |   |   |   count >= 5.5 : neptune (148/0)
|   |   |   |   dst_host_diff_srv_rate >= 0.99
|   |   |   |   |   dst_host_srv_count < 1.5
|   |   |   |   |   |   count < 18
|   |   |   |   |   |   |   dst_host_count < 163
|   |   |   |   |   |   |   |   dst_host_same_src_port_rate < 0.35 : ipsweep (80/0)
|   |   |   |   |   |   |   |   dst_host_same_src_port_rate >= 0.35 : normal (1/0)
|   |   |   |   |   |   |   dst_host_count >= 163 : portsweep (7/0)
|   |   |   |   |   |   count >= 18 : portsweep (1/0)
|   |   |   |   |   dst_host_srv_count >= 1.5 : ipsweep (183/0)
|   |   |   srv_count >= 1.5 : neptune (3236/0)
|   |   diff_srv_rate >= 0.35
|   |   |   serror_rate < 0.01
|   |   |   |   diff_srv_rate < 0.94
|   |   |   |   |   diff_srv_rate < 0.79 : portsweep (112/0)
|   |   |   |   |   diff_srv_rate >= 0.79 : normal (1/0)
|   |   |   |   diff_srv_rate >= 0.94
|   |   |   |   |   count < 3.5
|   |   |   |   |   |   dst_host_same_src_port_rate < 0.01
|   |   |   |   |   |   |   dst_host_same_src_port_rate < 0.01
|   |   |   |   |   |   |   |   rerror_rate < 0.58
|   |   |   |   |   |   |   |   |   dst_host_count < 242 : portsweep (1/0)
|   |   |   |   |   |   |   |   |   dst_host_count >= 242 : satan (1/0)
|   |   |   |   |   |   |   |   rerror_rate >= 0.58 : satan (2/0)
|   |   |   |   |   |   |   dst_host_same_src_port_rate >= 0.01
|   |   |   |   |   |   |   |   dst_host_count < 175.5 : satan (1/0)
|   |   |   |   |   |   |   |   dst_host_count >= 175.5 : portsweep (2/0)
|   |   |   |   |   |   dst_host_same_src_port_rate >= 0.01 : portsweep (226/0)
|   |   |   |   |   count >= 3.5
|   |   |   |   |   |   dst_host_same_srv_rate < 0.01 : satan (86/0)
|   |   |   |   |   |   dst_host_same_srv_rate >= 0.01 : portsweep (2/0)
|   |   |   serror_rate >= 0.01
|   |   |   |   same_srv_rate < 0.04
|   |   |   |   |   serror_rate < 0.04
|   |   |   |   |   |   dst_host_same_src_port_rate < 0.45 : satan (216/0)
|   |   |   |   |   |   dst_host_same_src_port_rate >= 0.45 : portsweep (3/0)
|   |   |   |   |   serror_rate >= 0.04
|   |   |   |   |   |   same_srv_rate < 0.03
|   |   |   |   |   |   |   dst_host_rerror_rate < 0.93
|   |   |   |   |   |   |   |   count < 477.5
|   |   |   |   |   |   |   |   |   dst_host_serror_rate < 0.08
|   |   |   |   |   |   |   |   |   |   count < 302.5
|   |   |   |   |   |   |   |   |   |   |   dst_host_rerror_rate < 0.13 : saint (1/0)
|   |   |   |   |   |   |   |   |   |   |   dst_host_rerror_rate >= 0.13
|   |   |   |   |   |   |   |   |   |   |   |   diff_srv_rate < 0.99 : satan (27/0)
|   |   |   |   |   |   |   |   |   |   |   |   diff_srv_rate >= 0.99
|   |   |   |   |   |   |   |   |   |   |   |   |   rerror_rate < 0.88
|   |   |   |   |   |   |   |   |   |   |   |   |   |   count < 65 : satan (9/0)
|   |   |   |   |   |   |   |   |   |   |   |   |   |   count >= 65 : saint (6/0)
|   |   |   |   |   |   |   |   |   |   |   |   |   rerror_rate >= 0.88
|   |   |   |   |   |   |   |   |   |   |   |   |   |   duration < 1.5
|   |   |   |   |   |   |   |   |   |   |   |   |   |   |   dst_host_rerror_rate < 0.82
|   |   |   |   |   |   |   |   |   |   |   |   |   |   |   |   dst_host_diff_srv_rate < 0.86
|   |   |   |   |   |   |   |   |   |   |   |   |   |   |   |   |   rerror_rate < 0.93
|   |   |   |   |   |   |   |   |   |   |   |   |   |   |   |   |   |   dst_host_diff_srv_rate < 0.85
|   |   |   |   |   |   |   |   |   |   |   |   |   |   |   |   |   |   |   rerror_rate < 0.9
|   |   |   |   |   |   |   |   |   |   |   |   |   |   |   |   |   |   |   |   count < 164
|   |   |   |   |   |   |   |   |   |   |   |   |   |   |   |   |   |   |   |   |   rerror_rate < 0.89
|   |   |   |   |   |   |   |   |   |   |   |   |   |   |   |   |   |   |   |   |   |   dst_host_rerror_rate < 0.34 : satan (4/0)
|   |   |   |   |   |   |   |   |   |   |   |   |   |   |   |   |   |   |   |   |   |   dst_host_rerror_rate >= 0.34 : saint (1/0)
|   |   |   |   |   |   |   |   |   |   |   |   |   |   |   |   |   |   |   |   |   rerror_rate >= 0.89 : satan (2/0)
|   |   |   |   |   |   |   |   |   |   |   |   |   |   |   |   |   |   |   |   count >= 164 : satan (16/0)
|   |   |   |   |   |   |   |   |   |   |   |   |   |   |   |   |   |   |   rerror_rate >= 0.9
|   |   |   |   |   |   |   |   |   |   |   |   |   |   |   |   |   |   |   |   dst_host_rerror_rate < 0.52 : satan (36/0)
|   |   |   |   |   |   |   |   |   |   |   |   |   |   |   |   |   |   |   |   dst_host_rerror_rate >= 0.52
|   |   |   |   |   |   |   |   |   |   |   |   |   |   |   |   |   |   |   |   |   rerror_rate < 0.92
|   |   |   |   |   |   |   |   |   |   |   |   |   |   |   |   |   |   |   |   |   |   same_srv_rate < 0.01 : saint (1/0)
|   |   |   |   |   |   |   |   |   |   |   |   |   |   |   |   |   |   |   |   |   |   same_srv_rate >= 0.01
|   |   |   |   |   |   |   |   |   |   |   |   |   |   |   |   |   |   |   |   |   |   |   count < 168.5 : satan (2/0)
|   |   |   |   |   |   |   |   |   |   |   |   |   |   |   |   |   |   |   |   |   |   |   count >= 168.5 : saint (1/0)
|   |   |   |   |   |   |   |   |   |   |   |   |   |   |   |   |   |   |   |   |   rerror_rate >= 0.92 : saint (1/0)
|   |   |   |   |   |   |   |   |   |   |   |   |   |   |   |   |   |   dst_host_diff_srv_rate >= 0.85
|   |   |   |   |   |   |   |   |   |   |   |   |   |   |   |   |   |   |   dst_host_rerror_rate < 0.77 : satan (2/0)
|   |   |   |   |   |   |   |   |   |   |   |   |   |   |   |   |   |   |   dst_host_rerror_rate >= 0.77 : saint (1/0)
|   |   |   |   |   |   |   |   |   |   |   |   |   |   |   |   |   rerror_rate >= 0.93 : satan (25/0)
|   |   |   |   |   |   |   |   |   |   |   |   |   |   |   |   dst_host_diff_srv_rate >= 0.86 : satan (34/0)
|   |   |   |   |   |   |   |   |   |   |   |   |   |   |   dst_host_rerror_rate >= 0.82 : saint (1/0)
|   |   |   |   |   |   |   |   |   |   |   |   |   |   duration >= 1.5 : satan (25/0)
|   |   |   |   |   |   |   |   |   |   count >= 302.5 : saint (8/0)
|   |   |   |   |   |   |   |   |   dst_host_serror_rate >= 0.08 : satan (238/0)
|   |   |   |   |   |   |   |   count >= 477.5 : satan (64/0)
|   |   |   |   |   |   |   dst_host_rerror_rate >= 0.93
|   |   |   |   |   |   |   |   rerror_rate < 0.92 : saint (6/0)
|   |   |   |   |   |   |   |   rerror_rate >= 0.92
|   |   |   |   |   |   |   |   |   diff_srv_rate < 0.99 : satan (2/0)
|   |   |   |   |   |   |   |   |   diff_srv_rate >= 0.99
|   |   |   |   |   |   |   |   |   |   dst_host_rerror_rate < 0.96
|   |   |   |   |   |   |   |   |   |   |   dst_host_serror_rate < 0.03 : satan (6/0)
|   |   |   |   |   |   |   |   |   |   |   dst_host_serror_rate >= 0.03
|   |   |   |   |   |   |   |   |   |   |   |   dst_host_rerror_rate < 0.94
|   |   |   |   |   |   |   |   |   |   |   |   |   dst_host_serror_rate < 0.04 : saint (2/0)
|   |   |   |   |   |   |   |   |   |   |   |   |   dst_host_serror_rate >= 0.04
|   |   |   |   |   |   |   |   |   |   |   |   |   |   rerror_rate < 0.93 : satan (1/0)
|   |   |   |   |   |   |   |   |   |   |   |   |   |   rerror_rate >= 0.93
|   |   |   |   |   |   |   |   |   |   |   |   |   |   |   count < 351.5 : saint (1/0)
|   |   |   |   |   |   |   |   |   |   |   |   |   |   |   count >= 351.5
|   |   |   |   |   |   |   |   |   |   |   |   |   |   |   |   count < 510 : satan (3/0)
|   |   |   |   |   |   |   |   |   |   |   |   |   |   |   |   count >= 510 : saint (1/0)
|   |   |   |   |   |   |   |   |   |   |   |   dst_host_rerror_rate >= 0.94 : saint (2/0)
|   |   |   |   |   |   |   |   |   |   dst_host_rerror_rate >= 0.96 : saint (1/0)
|   |   |   |   |   |   same_srv_rate >= 0.03
|   |   |   |   |   |   |   count < 35.5
|   |   |   |   |   |   |   |   dst_host_rerror_rate < 0.1 : saint (1/0)
|   |   |   |   |   |   |   |   dst_host_rerror_rate >= 0.1 : satan (2/0)
|   |   |   |   |   |   |   count >= 35.5 : satan (5/0)
|   |   |   |   same_srv_rate >= 0.04
|   |   |   |   |   dst_host_srv_rerror_rate < 0.83 : normal (1/0)
|   |   |   |   |   dst_host_srv_rerror_rate >= 0.83 : portsweep (2/0)
|   service = other
|   |   same_srv_rate < 0.27
|   |   |   dst_host_rerror_rate < 0.93
|   |   |   |   duration < 3
|   |   |   |   |   dst_host_serror_rate < 0.14
|   |   |   |   |   |   rerror_rate < 0.91
|   |   |   |   |   |   |   serror_rate < 0.11
|   |   |   |   |   |   |   |   diff_srv_rate < 0.98 : satan (23/0)
|   |   |   |   |   |   |   |   diff_srv_rate >= 0.98
|   |   |   |   |   |   |   |   |   dst_host_serror_rate < 0.1
|   |   |   |   |   |   |   |   |   |   rerror_rate < 0.9 : satan (17/0)
|   |   |   |   |   |   |   |   |   |   rerror_rate >= 0.9
|   |   |   |   |   |   |   |   |   |   |   dst_host_serror_rate < 0.08
|   |   |   |   |   |   |   |   |   |   |   |   count < 472 : satan (46/0)
|   |   |   |   |   |   |   |   |   |   |   |   count >= 472
|   |   |   |   |   |   |   |   |   |   |   |   |   serror_rate < 0.1
|   |   |   |   |   |   |   |   |   |   |   |   |   |   count < 499.5 : saint (1/0)
|   |   |   |   |   |   |   |   |   |   |   |   |   |   count >= 499.5 : satan (1/0)
|   |   |   |   |   |   |   |   |   |   |   |   |   serror_rate >= 0.1 : satan (1/0)
|   |   |   |   |   |   |   |   |   |   |   dst_host_serror_rate >= 0.08
|   |   |   |   |   |   |   |   |   |   |   |   dst_host_rerror_rate < 0.91 : satan (29/0)
|   |   |   |   |   |   |   |   |   |   |   |   dst_host_rerror_rate >= 0.91
|   |   |   |   |   |   |   |   |   |   |   |   |   count < 499.5
|   |   |   |   |   |   |   |   |   |   |   |   |   |   serror_rate < 0.09 : satan (2/0)
|   |   |   |   |   |   |   |   |   |   |   |   |   |   serror_rate >= 0.09 : saint (1/0)
|   |   |   |   |   |   |   |   |   |   |   |   |   count >= 499.5 : satan (3/0)
|   |   |   |   |   |   |   |   |   dst_host_serror_rate >= 0.1 : satan (39/0)
|   |   |   |   |   |   |   serror_rate >= 0.11 : satan (128/0)
|   |   |   |   |   |   rerror_rate >= 0.91
|   |   |   |   |   |   |   dst_host_diff_srv_rate < 0.99 : satan (4/0)
|   |   |   |   |   |   |   dst_host_diff_srv_rate >= 0.99
|   |   |   |   |   |   |   |   rerror_rate < 0.92
|   |   |   |   |   |   |   |   |   serror_rate < 0.07 : satan (24/0)
|   |   |   |   |   |   |   |   |   serror_rate >= 0.07
|   |   |   |   |   |   |   |   |   |   serror_rate < 0.08
|   |   |   |   |   |   |   |   |   |   |   count < 510 : satan (14/0)
|   |   |   |   |   |   |   |   |   |   |   count >= 510 : saint (2/0)
|   |   |   |   |   |   |   |   |   |   serror_rate >= 0.08
|   |   |   |   |   |   |   |   |   |   |   count < 484 : satan (27/0)
|   |   |   |   |   |   |   |   |   |   |   count >= 484
|   |   |   |   |   |   |   |   |   |   |   |   dst_host_serror_rate < 0.08 : satan (2/0)
|   |   |   |   |   |   |   |   |   |   |   |   dst_host_serror_rate >= 0.08
|   |   |   |   |   |   |   |   |   |   |   |   |   dst_host_rerror_rate < 0.9
|   |   |   |   |   |   |   |   |   |   |   |   |   |   dst_host_serror_rate < 0.13 : satan (4/0)
|   |   |   |   |   |   |   |   |   |   |   |   |   |   dst_host_serror_rate >= 0.13
|   |   |   |   |   |   |   |   |   |   |   |   |   |   |   count < 510 : satan (3/0)
|   |   |   |   |   |   |   |   |   |   |   |   |   |   |   count >= 510 : saint (1/0)
|   |   |   |   |   |   |   |   |   |   |   |   |   dst_host_rerror_rate >= 0.9
|   |   |   |   |   |   |   |   |   |   |   |   |   |   count < 501 : saint (1/0)
|   |   |   |   |   |   |   |   |   |   |   |   |   |   count >= 501 : satan (1/0)
|   |   |   |   |   |   |   |   rerror_rate >= 0.92
|   |   |   |   |   |   |   |   |   dst_host_rerror_rate < 0.89
|   |   |   |   |   |   |   |   |   |   serror_rate < 0.08 : satan (9/0)
|   |   |   |   |   |   |   |   |   |   serror_rate >= 0.08
|   |   |   |   |   |   |   |   |   |   |   dst_host_rerror_rate < 0.88
|   |   |   |   |   |   |   |   |   |   |   |   dst_host_same_src_port_rate < 0.01 : satan (1/0)
|   |   |   |   |   |   |   |   |   |   |   |   dst_host_same_src_port_rate >= 0.01 : saint (1/0)
|   |   |   |   |   |   |   |   |   |   |   dst_host_rerror_rate >= 0.88 : satan (1/0)
|   |   |   |   |   |   |   |   |   dst_host_rerror_rate >= 0.89
|   |   |   |   |   |   |   |   |   |   dst_host_serror_rate < 0.07 : satan (1/0)
|   |   |   |   |   |   |   |   |   |   dst_host_serror_rate >= 0.07
|   |   |   |   |   |   |   |   |   |   |   count < 510.5
|   |   |   |   |   |   |   |   |   |   |   |   serror_rate < 0.07
|   |   |   |   |   |   |   |   |   |   |   |   |   dst_host_serror_rate < 0.1
|   |   |   |   |   |   |   |   |   |   |   |   |   |   count < 498 : saint (2/0)
|   |   |   |   |   |   |   |   |   |   |   |   |   |   count >= 498 : satan (1/0)
|   |   |   |   |   |   |   |   |   |   |   |   |   dst_host_serror_rate >= 0.1 : satan (4/0)
|   |   |   |   |   |   |   |   |   |   |   |   serror_rate >= 0.07 : satan (14/0)
|   |   |   |   |   |   |   |   |   |   |   count >= 510.5
|   |   |   |   |   |   |   |   |   |   |   |   dst_host_serror_rate < 0.09
|   |   |   |   |   |   |   |   |   |   |   |   |   rerror_rate < 0.93 : saint (1/0)
|   |   |   |   |   |   |   |   |   |   |   |   |   rerror_rate >= 0.93
|   |   |   |   |   |   |   |   |   |   |   |   |   |   serror_rate < 0.07 : satan (1/0)
|   |   |   |   |   |   |   |   |   |   |   |   |   |   serror_rate >= 0.07
|   |   |   |   |   |   |   |   |   |   |   |   |   |   |   dst_host_rerror_rate < 0.92 : saint (1/0)
|   |   |   |   |   |   |   |   |   |   |   |   |   |   |   dst_host_rerror_rate >= 0.92 : satan (1/0)
|   |   |   |   |   |   |   |   |   |   |   |   dst_host_serror_rate >= 0.09 : saint (2/0)
|   |   |   |   |   dst_host_serror_rate >= 0.14 : satan (296/0)
|   |   |   |   duration >= 3 : saint (1/0)
|   |   |   dst_host_rerror_rate >= 0.93
|   |   |   |   dst_host_rerror_rate < 0.99
|   |   |   |   |   srv_diff_host_rate < 0.5
|   |   |   |   |   |   count < 506
|   |   |   |   |   |   |   serror_rate < 0.07
|   |   |   |   |   |   |   |   rerror_rate < 0.96
|   |   |   |   |   |   |   |   |   dst_host_rerror_rate < 0.95
|   |   |   |   |   |   |   |   |   |   dst_host_rerror_rate < 0.94
|   |   |   |   |   |   |   |   |   |   |   count < 491
|   |   |   |   |   |   |   |   |   |   |   |   rerror_rate < 0.95
|   |   |   |   |   |   |   |   |   |   |   |   |   count < 484
|   |   |   |   |   |   |   |   |   |   |   |   |   |   rerror_rate < 0.94 : saint (2/0)
|   |   |   |   |   |   |   |   |   |   |   |   |   |   rerror_rate >= 0.94 : satan (2/1)
|   |   |   |   |   |   |   |   |   |   |   |   |   count >= 484 : satan (2/0)
|   |   |   |   |   |   |   |   |   |   |   |   rerror_rate >= 0.95 : satan (2/0)
|   |   |   |   |   |   |   |   |   |   |   count >= 491 : saint (2/0)
|   |   |   |   |   |   |   |   |   |   dst_host_rerror_rate >= 0.94
|   |   |   |   |   |   |   |   |   |   |   serror_rate < 0.04
|   |   |   |   |   |   |   |   |   |   |   |   count < 461.5 : saint (2/0)
|   |   |   |   |   |   |   |   |   |   |   |   count >= 461.5
|   |   |   |   |   |   |   |   |   |   |   |   |   dst_host_rerror_rate < 0.94
|   |   |   |   |   |   |   |   |   |   |   |   |   |   count < 495 : satan (1/0)
|   |   |   |   |   |   |   |   |   |   |   |   |   |   count >= 495 : saint (1/0)
|   |   |   |   |   |   |   |   |   |   |   |   |   dst_host_rerror_rate >= 0.94
|   |   |   |   |   |   |   |   |   |   |   |   |   |   count < 500 : satan (2/0)
|   |   |   |   |   |   |   |   |   |   |   |   |   |   count >= 500 : saint (1/0)
|   |   |   |   |   |   |   |   |   |   |   serror_rate >= 0.04
|   |   |   |   |   |   |   |   |   |   |   |   count < 476 : saint (13/0)
|   |   |   |   |   |   |   |   |   |   |   |   count >= 476
|   |   |   |   |   |   |   |   |   |   |   |   |   rerror_rate < 0.94
|   |   |   |   |   |   |   |   |   |   |   |   |   |   dst_host_serror_rate < 0.06
|   |   |   |   |   |   |   |   |   |   |   |   |   |   |   count < 485.5 : satan (2/0)
|   |   |   |   |   |   |   |   |   |   |   |   |   |   |   count >= 485.5 : saint (1/0)
|   |   |   |   |   |   |   |   |   |   |   |   |   |   dst_host_serror_rate >= 0.06 : saint (2/0)
|   |   |   |   |   |   |   |   |   |   |   |   |   rerror_rate >= 0.94
|   |   |   |   |   |   |   |   |   |   |   |   |   |   count < 490
|   |   |   |   |   |   |   |   |   |   |   |   |   |   |   count < 485 : saint (1/0)
|   |   |   |   |   |   |   |   |   |   |   |   |   |   |   count >= 485 : satan (1/0)
|   |   |   |   |   |   |   |   |   |   |   |   |   |   count >= 490 : saint (3/0)
|   |   |   |   |   |   |   |   |   dst_host_rerror_rate >= 0.95
|   |   |   |   |   |   |   |   |   |   count < 485.5 : saint (19/0)
|   |   |   |   |   |   |   |   |   |   count >= 485.5
|   |   |   |   |   |   |   |   |   |   |   serror_rate < 0.04
|   |   |   |   |   |   |   |   |   |   |   |   count < 495
|   |   |   |   |   |   |   |   |   |   |   |   |   dst_host_serror_rate < 0.03 : satan (2/1)
|   |   |   |   |   |   |   |   |   |   |   |   |   dst_host_serror_rate >= 0.03 : saint (2/0)
|   |   |   |   |   |   |   |   |   |   |   |   count >= 495 : saint (1/0)
|   |   |   |   |   |   |   |   |   |   |   serror_rate >= 0.04 : saint (3/0)
|   |   |   |   |   |   |   |   rerror_rate >= 0.96
|   |   |   |   |   |   |   |   |   dst_host_rerror_rate < 0.95
|   |   |   |   |   |   |   |   |   |   dst_host_rerror_rate < 0.94 : satan (2/0)
|   |   |   |   |   |   |   |   |   |   dst_host_rerror_rate >= 0.94
|   |   |   |   |   |   |   |   |   |   |   count < 490.5
|   |   |   |   |   |   |   |   |   |   |   |   count < 484 : satan (2/0)
|   |   |   |   |   |   |   |   |   |   |   |   count >= 484 : saint (1/0)
|   |   |   |   |   |   |   |   |   |   |   count >= 490.5 : satan (4/0)
|   |   |   |   |   |   |   |   |   dst_host_rerror_rate >= 0.95
|   |   |   |   |   |   |   |   |   |   dst_host_serror_rate < 0.03
|   |   |   |   |   |   |   |   |   |   |   rerror_rate < 0.98 : saint (1/0)
|   |   |   |   |   |   |   |   |   |   |   rerror_rate >= 0.98 : satan (2/0)
|   |   |   |   |   |   |   |   |   |   dst_host_serror_rate >= 0.03
|   |   |   |   |   |   |   |   |   |   |   count < 479.5 : satan (1/0)
|   |   |   |   |   |   |   |   |   |   |   count >= 479.5 : saint (1/0)
|   |   |   |   |   |   |   serror_rate >= 0.07
|   |   |   |   |   |   |   |   serror_rate < 0.08
|   |   |   |   |   |   |   |   |   count < 489.5
|   |   |   |   |   |   |   |   |   |   count < 436.5
|   |   |   |   |   |   |   |   |   |   |   dst_host_serror_rate < 0.07
|   |   |   |   |   |   |   |   |   |   |   |   serror_rate < 0.08 : saint (1/0)
|   |   |   |   |   |   |   |   |   |   |   |   serror_rate >= 0.08 : satan (5/0)
|   |   |   |   |   |   |   |   |   |   |   dst_host_serror_rate >= 0.07 : satan (5/0)
|   |   |   |   |   |   |   |   |   |   count >= 436.5 : satan (49/0)
|   |   |   |   |   |   |   |   |   count >= 489.5
|   |   |   |   |   |   |   |   |   |   rerror_rate < 0.93
|   |   |   |   |   |   |   |   |   |   |   dst_host_serror_rate < 0.06 : satan (4/0)
|   |   |   |   |   |   |   |   |   |   |   dst_host_serror_rate >= 0.06 : saint (1/0)
|   |   |   |   |   |   |   |   |   |   rerror_rate >= 0.93
|   |   |   |   |   |   |   |   |   |   |   dst_host_rerror_rate < 0.95 : saint (2/0)
|   |   |   |   |   |   |   |   |   |   |   dst_host_rerror_rate >= 0.95 : satan (9/0)
|   |   |   |   |   |   |   |   serror_rate >= 0.08
|   |   |   |   |   |   |   |   |   count < 488.5 : satan (6/0)
|   |   |   |   |   |   |   |   |   count >= 488.5 : saint (2/0)
|   |   |   |   |   |   count >= 506
|   |   |   |   |   |   |   dst_host_diff_srv_rate < 0.99 : satan (13/0)
|   |   |   |   |   |   |   dst_host_diff_srv_rate >= 0.99
|   |   |   |   |   |   |   |   count < 509.5
|   |   |   |   |   |   |   |   |   rerror_rate < 0.94 : satan (21/0)
|   |   |   |   |   |   |   |   |   rerror_rate >= 0.94
|   |   |   |   |   |   |   |   |   |   rerror_rate < 0.95
|   |   |   |   |   |   |   |   |   |   |   count < 508.5 : satan (1/0)
|   |   |   |   |   |   |   |   |   |   |   count >= 508.5
|   |   |   |   |   |   |   |   |   |   |   |   dst_host_rerror_rate < 0.96 : satan (2/0)
|   |   |   |   |   |   |   |   |   |   |   |   dst_host_rerror_rate >= 0.96 : saint (1/0)
|   |   |   |   |   |   |   |   |   |   rerror_rate >= 0.95 : satan (14/0)
|   |   |   |   |   |   |   |   count >= 509.5
|   |   |   |   |   |   |   |   |   count < 510.5
|   |   |   |   |   |   |   |   |   |   dst_host_serror_rate < 0.06
|   |   |   |   |   |   |   |   |   |   |   dst_host_serror_rate < 0.03
|   |   |   |   |   |   |   |   |   |   |   |   dst_host_serror_rate < 0.01
|   |   |   |   |   |   |   |   |   |   |   |   |   serror_rate < 0.06 : saint (1/0)
|   |   |   |   |   |   |   |   |   |   |   |   |   serror_rate >= 0.06 : satan (1/0)
|   |   |   |   |   |   |   |   |   |   |   |   dst_host_serror_rate >= 0.01
|   |   |   |   |   |   |   |   |   |   |   |   |   serror_rate < 0.05
|   |   |   |   |   |   |   |   |   |   |   |   |   |   rerror_rate < 0.97 : saint (1/0)
|   |   |   |   |   |   |   |   |   |   |   |   |   |   rerror_rate >= 0.97 : satan (1/0)
|   |   |   |   |   |   |   |   |   |   |   |   |   serror_rate >= 0.05 : satan (3/0)
|   |   |   |   |   |   |   |   |   |   |   dst_host_serror_rate >= 0.03
|   |   |   |   |   |   |   |   |   |   |   |   serror_rate < 0.06
|   |   |   |   |   |   |   |   |   |   |   |   |   serror_rate < 0.04 : saint (2/0)
|   |   |   |   |   |   |   |   |   |   |   |   |   serror_rate >= 0.04
|   |   |   |   |   |   |   |   |   |   |   |   |   |   dst_host_serror_rate < 0.04 : saint (1/0)
|   |   |   |   |   |   |   |   |   |   |   |   |   |   dst_host_serror_rate >= 0.04
|   |   |   |   |   |   |   |   |   |   |   |   |   |   |   dst_host_serror_rate < 0.04 : satan (1/0)
|   |   |   |   |   |   |   |   |   |   |   |   |   |   |   dst_host_serror_rate >= 0.04 : saint (1/0)
|   |   |   |   |   |   |   |   |   |   |   |   serror_rate >= 0.06 : satan (3/0)
|   |   |   |   |   |   |   |   |   |   dst_host_serror_rate >= 0.06 : satan (4/0)
|   |   |   |   |   |   |   |   |   count >= 510.5
|   |   |   |   |   |   |   |   |   |   serror_rate < 0.07
|   |   |   |   |   |   |   |   |   |   |   duration < 3
|   |   |   |   |   |   |   |   |   |   |   |   serror_rate < 0.03 : satan (4/0)
|   |   |   |   |   |   |   |   |   |   |   |   serror_rate >= 0.03
|   |   |   |   |   |   |   |   |   |   |   |   |   dst_host_serror_rate < 0.04 : satan (5/0)
|   |   |   |   |   |   |   |   |   |   |   |   |   dst_host_serror_rate >= 0.04
|   |   |   |   |   |   |   |   |   |   |   |   |   |   rerror_rate < 0.94
|   |   |   |   |   |   |   |   |   |   |   |   |   |   |   diff_srv_rate < 0.98 : satan (1/0)
|   |   |   |   |   |   |   |   |   |   |   |   |   |   |   diff_srv_rate >= 0.98
|   |   |   |   |   |   |   |   |   |   |   |   |   |   |   |   dst_host_serror_rate < 0.07
|   |   |   |   |   |   |   |   |   |   |   |   |   |   |   |   |   dst_host_rerror_rate < 0.94 : saint (1/0)
|   |   |   |   |   |   |   |   |   |   |   |   |   |   |   |   |   dst_host_rerror_rate >= 0.94
|   |   |   |   |   |   |   |   |   |   |   |   |   |   |   |   |   |   dst_host_serror_rate < 0.04 : satan (1/0)
|   |   |   |   |   |   |   |   |   |   |   |   |   |   |   |   |   |   dst_host_serror_rate >= 0.04 : satan (2/1)
|   |   |   |   |   |   |   |   |   |   |   |   |   |   |   |   dst_host_serror_rate >= 0.07 : satan (3/0)
|   |   |   |   |   |   |   |   |   |   |   |   |   |   rerror_rate >= 0.94
|   |   |   |   |   |   |   |   |   |   |   |   |   |   |   serror_rate < 0.04
|   |   |   |   |   |   |   |   |   |   |   |   |   |   |   |   rerror_rate < 0.95 : saint (1/0)
|   |   |   |   |   |   |   |   |   |   |   |   |   |   |   |   rerror_rate >= 0.95
|   |   |   |   |   |   |   |   |   |   |   |   |   |   |   |   |   dst_host_serror_rate < 0.06 : saint (1/0)
|   |   |   |   |   |   |   |   |   |   |   |   |   |   |   |   |   dst_host_serror_rate >= 0.06 : satan (1/0)
|   |   |   |   |   |   |   |   |   |   |   |   |   |   |   serror_rate >= 0.04
|   |   |   |   |   |   |   |   |   |   |   |   |   |   |   |   dst_host_serror_rate < 0.06
|   |   |   |   |   |   |   |   |   |   |   |   |   |   |   |   |   dst_host_rerror_rate < 0.95 : saint (2/0)
|   |   |   |   |   |   |   |   |   |   |   |   |   |   |   |   |   dst_host_rerror_rate >= 0.95 : satan (2/1)
|   |   |   |   |   |   |   |   |   |   |   |   |   |   |   |   dst_host_serror_rate >= 0.06 : satan (4/2)
|   |   |   |   |   |   |   |   |   |   |   duration >= 3 : saint (2/0)
|   |   |   |   |   |   |   |   |   |   serror_rate >= 0.07 : satan (33/0)
|   |   |   |   |   srv_diff_host_rate >= 0.5 : saint (1/0)
|   |   |   |   dst_host_rerror_rate >= 0.99 : satan (52/0)
|   |   same_srv_rate >= 0.27
|   |   |   same_srv_rate < 0.83
|   |   |   |   dst_host_same_src_port_rate < 0.51
|   |   |   |   |   dst_host_rerror_rate < 0.49 : httptunnel (13/0)
|   |   |   |   |   dst_host_rerror_rate >= 0.49 : satan (1/0)
|   |   |   |   dst_host_same_src_port_rate >= 0.51 : portsweep (1/0)
|   |   |   same_srv_rate >= 0.83
|   |   |   |   dst_host_same_src_port_rate < 0.03 : httptunnel (71/0)
|   |   |   |   dst_host_same_src_port_rate >= 0.03 : normal (34/0)
|   service = smtp : normal (13/0)
|   service = telnet : mscan (66/0)
|   service = eco_i : normal (0/0)
|   service = X11
|   |   count < 5.5
|   |   |   count < 1.5 : satan (1/0)
|   |   |   count >= 1.5 : normal (9/0)
|   |   count >= 5.5 : satan (2/0)
|   service = ntp_u : normal (0/0)
|   service = ftp : saint (1/0)
|   service = IRC
|   |   dst_host_srv_count < 9.5
|   |   |   rerror_rate < 0.95 : satan (1/0)
|   |   |   rerror_rate >= 0.95 : saint (1/0)
|   |   dst_host_srv_count >= 9.5 : normal (1/0)
|   service = time : normal (0/0)
|   service = finger : normal (0/0)
|   service = urp_i : normal (0/0)
|   service = auth
|   |   same_srv_rate < 0.32
|   |   |   serror_rate < 0.03 : neptune (126/0)
|   |   |   serror_rate >= 0.03 : satan (1/0)
|   |   same_srv_rate >= 0.32
|   |   |   dst_host_same_src_port_rate < 0.52 : normal (13/0)
|   |   |   dst_host_same_src_port_rate >= 0.52 : portsweep (1/0)
|   service = ecr_i : normal (0/0)
|   service = domain
|   |   diff_srv_rate < 0.03
|   |   |   dst_host_same_src_port_rate < 0.52 : ipsweep (1/0)
|   |   |   dst_host_same_src_port_rate >= 0.52 : named (1/0)
|   |   diff_srv_rate >= 0.03
|   |   |   dst_host_srv_count < 1.5
|   |   |   |   dst_host_diff_srv_rate < 0.55 : neptune (9/0)
|   |   |   |   dst_host_diff_srv_rate >= 0.55 : portsweep (1/0)
|   |   |   dst_host_srv_count >= 1.5 : neptune (90/0)
|   service = pop_3 : mscan (40/0)
|   service = urh_i : normal (0/0)
|   service = red_i : normal (0/0)
|   service = remote_job
|   |   diff_srv_rate < 0.03
|   |   |   dst_host_srv_count < 1.5
|   |   |   |   dst_host_same_src_port_rate < 0.51 : ipsweep (2/0)
|   |   |   |   dst_host_same_src_port_rate >= 0.51 : portsweep (1/0)
|   |   |   dst_host_srv_count >= 1.5 : ipsweep (2/0)
|   |   diff_srv_rate >= 0.03
|   |   |   diff_srv_rate < 0.54 : neptune (17/0)
|   |   |   diff_srv_rate >= 0.54 : satan (2/0)
|   service = tftp_u : normal (0/0)
|   service = ssh : neptune (51/0)
|   service = shell : normal (0/0)
|   service = imap4
|   |   dst_host_diff_srv_rate < 0.05 : mscan (31/0)
|   |   dst_host_diff_srv_rate >= 0.05
|   |   |   count < 113
|   |   |   |   srv_count < 2
|   |   |   |   |   count < 54 : portsweep (1/0)
|   |   |   |   |   count >= 54 : satan (1/0)
|   |   |   |   srv_count >= 2 : mscan (25/0)
|   |   |   count >= 113 : neptune (133/0)
|   service = tim_i : normal (0/0)
|   service = link
|   |   dst_host_srv_count < 2.5
|   |   |   dst_host_same_srv_rate < 0.01
|   |   |   |   diff_srv_rate < 0.3 : neptune (3/0)
|   |   |   |   diff_srv_rate >= 0.3
|   |   |   |   |   count < 105 : satan (1/0)
|   |   |   |   |   count >= 105
|   |   |   |   |   |   rerror_rate < 0.96 : satan (1/0)
|   |   |   |   |   |   rerror_rate >= 0.96 : portsweep (1/0)
|   |   |   dst_host_same_srv_rate >= 0.01
|   |   |   |   same_srv_rate < 0.57 : neptune (8/0)
|   |   |   |   same_srv_rate >= 0.57 : ipsweep (6/0)
|   |   dst_host_srv_count >= 2.5 : neptune (87/0)
|   service = uucp
|   |   dst_host_count < 150.5 : saint (1/0)
|   |   dst_host_count >= 150.5 : satan (1/0)
|   service = whois
|   |   dst_host_rerror_rate < 0.97
|   |   |   dst_host_srv_count < 1.5
|   |   |   |   count < 4.5 : ipsweep (1/0)
|   |   |   |   count >= 4.5
|   |   |   |   |   count < 31 : satan (1/0)
|   |   |   |   |   count >= 31
|   |   |   |   |   |   dst_host_serror_rate < 0.07
|   |   |   |   |   |   |   dst_host_same_src_port_rate < 0.1 : satan (1/0)
|   |   |   |   |   |   |   dst_host_same_src_port_rate >= 0.1 : portsweep (2/0)
|   |   |   |   |   |   dst_host_serror_rate >= 0.07 : satan (1/0)
|   |   |   dst_host_srv_count >= 1.5
|   |   |   |   rerror_rate < 0.84 : neptune (1/0)
|   |   |   |   rerror_rate >= 0.84 : ipsweep (3/0)
|   |   dst_host_rerror_rate >= 0.97
|   |   |   serror_rate < 0.01
|   |   |   |   dst_host_diff_srv_rate < 0.55 : neptune (112/0)
|   |   |   |   dst_host_diff_srv_rate >= 0.55 : portsweep (1/0)
|   |   |   serror_rate >= 0.01 : neptune (1/0)
|   service = mtp
|   |   count < 101.5
|   |   |   count < 1.5 : ipsweep (5/0)
|   |   |   count >= 1.5 : portsweep (3/0)
|   |   count >= 101.5
|   |   |   dst_host_rerror_rate < 0.92 : satan (1/0)
|   |   |   dst_host_rerror_rate >= 0.92 : neptune (84/0)
|   service = Z39_50
|   |   dst_host_diff_srv_rate < 0.3 : neptune (155/0)
|   |   dst_host_diff_srv_rate >= 0.3
|   |   |   serror_rate < 0.01 : portsweep (1/0)
|   |   |   serror_rate >= 0.01 : satan (2/0)
|   service = supdup
|   |   diff_srv_rate < 0.54 : neptune (85/0)
|   |   diff_srv_rate >= 0.54
|   |   |   rerror_rate < 0.97 : satan (2/0)
|   |   |   rerror_rate >= 0.97 : portsweep (1/0)
|   service = login : normal (0/0)
|   service = http_443
|   |   diff_srv_rate < 0.55 : neptune (118/0)
|   |   diff_srv_rate >= 0.55
|   |   |   dst_host_rerror_rate < 0.91 : portsweep (1/0)
|   |   |   dst_host_rerror_rate >= 0.91 : satan (1/0)
|   service = bgp
|   |   dst_host_same_srv_rate < 0.01
|   |   |   diff_srv_rate < 0.3 : neptune (11/0)
|   |   |   diff_srv_rate >= 0.3
|   |   |   |   count < 300.5 : portsweep (2/0)
|   |   |   |   count >= 300.5 : satan (1/0)
|   |   dst_host_same_srv_rate >= 0.01 : neptune (141/0)
|   service = uucp_path
|   |   dst_host_srv_count < 1.5
|   |   |   diff_srv_rate < 0.3 : neptune (11/0)
|   |   |   diff_srv_rate >= 0.3
|   |   |   |   same_srv_rate < 0.25
|   |   |   |   |   rerror_rate < 0.98 : satan (2/0)
|   |   |   |   |   rerror_rate >= 0.98 : portsweep (1/0)
|   |   |   |   same_srv_rate >= 0.25 : portsweep (2/0)
|   |   dst_host_srv_count >= 1.5 : neptune (129/0)
|   service = sql_net
|   |   dst_host_diff_srv_rate < 0.29 : neptune (49/0)
|   |   dst_host_diff_srv_rate >= 0.29
|   |   |   same_srv_rate < 0.26 : satan (3/0)
|   |   |   same_srv_rate >= 0.26 : portsweep (1/0)
|   service = hostnames
|   |   dst_host_srv_count < 1.5
|   |   |   dst_host_same_src_port_rate < 0.23
|   |   |   |   rerror_rate < 0.97 : satan (3/0)
|   |   |   |   rerror_rate >= 0.97 : neptune (7/0)
|   |   |   dst_host_same_src_port_rate >= 0.23 : portsweep (3/0)
|   |   dst_host_srv_count >= 1.5 : neptune (87/0)
|   service = iso_tsap
|   |   rerror_rate < 0.96 : satan (2/0)
|   |   rerror_rate >= 0.96
|   |   |   count < 53.5 : portsweep (2/0)
|   |   |   count >= 53.5 : neptune (117/0)
|   service = nnsp
|   |   dst_host_same_src_port_rate < 0.5
|   |   |   count < 226 : neptune (125/0)
|   |   |   count >= 226 : satan (1/0)
|   |   dst_host_same_src_port_rate >= 0.5 : portsweep (2/0)
|   service = csnet_ns
|   |   diff_srv_rate < 0.54 : neptune (111/0)
|   |   diff_srv_rate >= 0.54
|   |   |   count < 3.5 : portsweep (1/0)
|   |   |   count >= 3.5 : satan (2/0)
|   service = vmnet
|   |   count < 51.5 : portsweep (1/0)
|   |   count >= 51.5
|   |   |   dst_host_same_src_port_rate < 0.5
|   |   |   |   dst_host_diff_srv_rate < 0.33 : neptune (120/0)
|   |   |   |   dst_host_diff_srv_rate >= 0.33 : satan (2/0)
|   |   |   dst_host_same_src_port_rate >= 0.5 : portsweep (1/0)
|   service = kshell : neptune (66/0)
|   service = sunrpc : mscan (109/0)
|   service = efs
|   |   srv_count < 1.5
|   |   |   rerror_rate < 0.96 : satan (1/0)
|   |   |   rerror_rate >= 0.96 : neptune (3/0)
|   |   srv_count >= 1.5 : neptune (95/0)
|   service = klogin
|   |   serror_rate < 0.03
|   |   |   same_srv_rate < 0.35 : neptune (68/0)
|   |   |   same_srv_rate >= 0.35 : portsweep (2/0)
|   |   serror_rate >= 0.03 : satan (1/0)
|   service = ldap
|   |   rerror_rate < 0.97 : satan (1/0)
|   |   rerror_rate >= 0.97
|   |   |   dst_host_same_src_port_rate < 0.13 : neptune (74/0)
|   |   |   dst_host_same_src_port_rate >= 0.13 : portsweep (1/0)
|   service = pop_2
|   |   dst_host_rerror_rate < 0.97 : satan (1/0)
|   |   dst_host_rerror_rate >= 0.97
|   |   |   same_srv_rate < 0.32 : neptune (23/0)
|   |   |   same_srv_rate >= 0.32 : portsweep (1/0)
|   service = netstat
|   |   count < 97
|   |   |   rerror_rate < 0.97 : satan (2/0)
|   |   |   rerror_rate >= 0.97 : portsweep (4/0)
|   |   count >= 97
|   |   |   dst_host_rerror_rate < 0.93 : satan (1/0)
|   |   |   dst_host_rerror_rate >= 0.93 : neptune (50/0)
|   service = daytime
|   |   serror_rate < 0.01 : portsweep (2/0)
|   |   serror_rate >= 0.01 : satan (2/0)
|   service = exec : satan (1/0)
|   service = discard
|   |   dst_host_diff_srv_rate < 0.6 : portsweep (1/0)
|   |   dst_host_diff_srv_rate >= 0.6 : satan (1/0)
|   service = netbios_dgm
|   |   dst_host_rerror_rate < 0.99
|   |   |   rerror_rate < 0.98 : satan (2/0)
|   |   |   rerror_rate >= 0.98 : portsweep (2/0)
|   |   dst_host_rerror_rate >= 0.99
|   |   |   count < 51.5 : portsweep (1/0)
|   |   |   count >= 51.5 : neptune (72/0)
|   service = systat
|   |   diff_srv_rate < 0.33 : neptune (87/0)
|   |   diff_srv_rate >= 0.33
|   |   |   dst_host_same_src_port_rate < 0.32 : satan (3/0)
|   |   |   dst_host_same_src_port_rate >= 0.32 : portsweep (4/0)
|   service = name
|   |   dst_host_diff_srv_rate < 0.13 : neptune (102/0)
|   |   dst_host_diff_srv_rate >= 0.13
|   |   |   rerror_rate < 0.97
|   |   |   |   dst_host_rerror_rate < 0.9 : satan (3/0)
|   |   |   |   dst_host_rerror_rate >= 0.9 : saint (1/0)
|   |   |   rerror_rate >= 0.97
|   |   |   |   dst_host_same_srv_rate < 0.02 : portsweep (2/0)
|   |   |   |   dst_host_same_srv_rate >= 0.02 : ipsweep (3/0)
|   service = ctf
|   |   dst_host_srv_diff_host_rate < 0.5
|   |   |   diff_srv_rate < 0.3
|   |   |   |   count < 52.5 : ipsweep (1/0)
|   |   |   |   count >= 52.5 : neptune (112/0)
|   |   |   diff_srv_rate >= 0.3
|   |   |   |   diff_srv_rate < 0.77 : portsweep (1/0)
|   |   |   |   diff_srv_rate >= 0.77
|   |   |   |   |   dst_host_rerror_rate < 0.78
|   |   |   |   |   |   rerror_rate < 0.96 : satan (1/0)
|   |   |   |   |   |   rerror_rate >= 0.96 : portsweep (1/0)
|   |   |   |   |   dst_host_rerror_rate >= 0.78 : satan (2/0)
|   |   dst_host_srv_diff_host_rate >= 0.5 : ipsweep (4/0)
|   service = rje
|   |   dst_host_same_srv_rate < 0.01
|   |   |   serror_rate < 0.01 : portsweep (2/0)
|   |   |   serror_rate >= 0.01 : satan (1/0)
|   |   dst_host_same_srv_rate >= 0.01
|   |   |   count < 73
|   |   |   |   rerror_rate < 0.99 : satan (1/0)
|   |   |   |   rerror_rate >= 0.99 : ipsweep (4/0)
|   |   |   count >= 73 : neptune (15/0)
|   service = netbios_ns
|   |   count < 100.5
|   |   |   dst_host_count < 240 : satan (1/0)
|   |   |   dst_host_count >= 240 : portsweep (1/0)
|   |   count >= 100.5
|   |   |   dst_host_same_src_port_rate < 0.5 : neptune (81/0)
|   |   |   dst_host_same_src_port_rate >= 0.5 : portsweep (1/0)
|   service = courier
|   |   dst_host_same_src_port_rate < 0.48
|   |   |   serror_rate < 0.04 : neptune (132/0)
|   |   |   serror_rate >= 0.04 : satan (1/0)
|   |   dst_host_same_src_port_rate >= 0.48 : portsweep (2/0)
|   service = echo
|   |   dst_host_diff_srv_rate < 0.32 : portsweep (2/0)
|   |   dst_host_diff_srv_rate >= 0.32 : satan (2/0)
|   service = gopher
|   |   dst_host_same_srv_rate < 0.01
|   |   |   dst_host_count < 206 : satan (2/0)
|   |   |   dst_host_count >= 206
|   |   |   |   count < 380.5
|   |   |   |   |   dst_host_srv_count < 1.5
|   |   |   |   |   |   count < 65 : portsweep (1/0)
|   |   |   |   |   |   count >= 65 : neptune (5/0)
|   |   |   |   |   dst_host_srv_count >= 1.5 : neptune (6/0)
|   |   |   |   count >= 380.5 : satan (3/0)
|   |   dst_host_same_srv_rate >= 0.01
|   |   |   count < 51 : ipsweep (2/0)
|   |   |   count >= 51 : neptune (83/0)
|   service = netbios_ssn
|   |   dst_host_diff_srv_rate < 0.5 : neptune (60/0)
|   |   dst_host_diff_srv_rate >= 0.5 : portsweep (1/0)
|   service = printer : normal (0/0)
|   service = nntp
|   |   dst_host_count < 208.5
|   |   |   dst_host_rerror_rate < 0.07 : satan (1/0)
|   |   |   dst_host_rerror_rate >= 0.07 : saint (1/0)
|   |   dst_host_count >= 208.5 : portsweep (2/0)
|   service = http_2784 : satan (1/0)
|   service = aol : satan (2/0)
|   service = pm_dump : normal (0/0)
|   service = http_8001 : satan (1/0)
|   service = harvest : satan (1/0)
flag = SF
|   src_bytes < 28.5
|   |   dst_host_same_src_port_rate < 0.99
|   |   |   diff_srv_rate < 0.08
|   |   |   |   src_bytes < 24.5
|   |   |   |   |   dst_host_same_src_port_rate < 0.01
|   |   |   |   |   |   dst_host_srv_rerror_rate < 0.01
|   |   |   |   |   |   |   dst_host_same_srv_rate < 0.41
|   |   |   |   |   |   |   |   hot < 0.5
|   |   |   |   |   |   |   |   |   duration < 6583
|   |   |   |   |   |   |   |   |   |   dst_bytes < 31.5
|   |   |   |   |   |   |   |   |   |   |   src_bytes < 21.5
|   |   |   |   |   |   |   |   |   |   |   |   src_bytes < 18.5
|   |   |   |   |   |   |   |   |   |   |   |   |   dst_host_serror_rate < 0.01
|   |   |   |   |   |   |   |   |   |   |   |   |   |   service = http : normal (0/0)
|   |   |   |   |   |   |   |   |   |   |   |   |   |   service = domain_u : normal (1/0)
|   |   |   |   |   |   |   |   |   |   |   |   |   |   service = ftp_data : normal (0/0)
|   |   |   |   |   |   |   |   |   |   |   |   |   |   service = private : normal (0/0)
|   |   |   |   |   |   |   |   |   |   |   |   |   |   service = other : normal (0/0)
|   |   |   |   |   |   |   |   |   |   |   |   |   |   service = smtp : normal (0/0)
|   |   |   |   |   |   |   |   |   |   |   |   |   |   service = telnet : normal (1/0)
|   |   |   |   |   |   |   |   |   |   |   |   |   |   service = eco_i : normal (0/0)
|   |   |   |   |   |   |   |   |   |   |   |   |   |   service = X11 : normal (0/0)
|   |   |   |   |   |   |   |   |   |   |   |   |   |   service = ntp_u : normal (0/0)
|   |   |   |   |   |   |   |   |   |   |   |   |   |   service = ftp : normal (0/0)
|   |   |   |   |   |   |   |   |   |   |   |   |   |   service = IRC : normal (0/0)
|   |   |   |   |   |   |   |   |   |   |   |   |   |   service = time : normal (0/0)
|   |   |   |   |   |   |   |   |   |   |   |   |   |   service = finger
|   |   |   |   |   |   |   |   |   |   |   |   |   |   |   srv_count < 2 : normal (1/0)
|   |   |   |   |   |   |   |   |   |   |   |   |   |   |   srv_count >= 2 : satan (1/0)
|   |   |   |   |   |   |   |   |   |   |   |   |   |   service = urp_i : normal (0/0)
|   |   |   |   |   |   |   |   |   |   |   |   |   |   service = auth : normal (0/0)
|   |   |   |   |   |   |   |   |   |   |   |   |   |   service = ecr_i : normal (0/0)
|   |   |   |   |   |   |   |   |   |   |   |   |   |   service = domain : normal (0/0)
|   |   |   |   |   |   |   |   |   |   |   |   |   |   service = pop_3 : normal (0/0)
|   |   |   |   |   |   |   |   |   |   |   |   |   |   service = urh_i : normal (0/0)
|   |   |   |   |   |   |   |   |   |   |   |   |   |   service = red_i : normal (0/0)
|   |   |   |   |   |   |   |   |   |   |   |   |   |   service = remote_job : normal (0/0)
|   |   |   |   |   |   |   |   |   |   |   |   |   |   service = tftp_u : normal (0/0)
|   |   |   |   |   |   |   |   |   |   |   |   |   |   service = ssh : normal (0/0)
|   |   |   |   |   |   |   |   |   |   |   |   |   |   service = shell : normal (0/0)
|   |   |   |   |   |   |   |   |   |   |   |   |   |   service = imap4 : normal (0/0)
|   |   |   |   |   |   |   |   |   |   |   |   |   |   service = tim_i : normal (0/0)
|   |   |   |   |   |   |   |   |   |   |   |   |   |   service = link : normal (0/0)
|   |   |   |   |   |   |   |   |   |   |   |   |   |   service = uucp : normal (0/0)
|   |   |   |   |   |   |   |   |   |   |   |   |   |   service = whois : normal (0/0)
|   |   |   |   |   |   |   |   |   |   |   |   |   |   service = mtp : normal (0/0)
|   |   |   |   |   |   |   |   |   |   |   |   |   |   service = Z39_50 : normal (0/0)
|   |   |   |   |   |   |   |   |   |   |   |   |   |   service = supdup : normal (0/0)
|   |   |   |   |   |   |   |   |   |   |   |   |   |   service = login : normal (0/0)
|   |   |   |   |   |   |   |   |   |   |   |   |   |   service = http_443 : normal (0/0)
|   |   |   |   |   |   |   |   |   |   |   |   |   |   service = bgp : normal (0/0)
|   |   |   |   |   |   |   |   |   |   |   |   |   |   service = uucp_path : normal (0/0)
|   |   |   |   |   |   |   |   |   |   |   |   |   |   service = sql_net : normal (0/0)
|   |   |   |   |   |   |   |   |   |   |   |   |   |   service = hostnames : normal (0/0)
|   |   |   |   |   |   |   |   |   |   |   |   |   |   service = iso_tsap : normal (0/0)
|   |   |   |   |   |   |   |   |   |   |   |   |   |   service = nnsp : normal (0/0)
|   |   |   |   |   |   |   |   |   |   |   |   |   |   service = csnet_ns : normal (0/0)
|   |   |   |   |   |   |   |   |   |   |   |   |   |   service = vmnet : normal (0/0)
|   |   |   |   |   |   |   |   |   |   |   |   |   |   service = kshell : normal (0/0)
|   |   |   |   |   |   |   |   |   |   |   |   |   |   service = sunrpc : normal (0/0)
|   |   |   |   |   |   |   |   |   |   |   |   |   |   service = efs : normal (0/0)
|   |   |   |   |   |   |   |   |   |   |   |   |   |   service = klogin : normal (0/0)
|   |   |   |   |   |   |   |   |   |   |   |   |   |   service = ldap : normal (0/0)
|   |   |   |   |   |   |   |   |   |   |   |   |   |   service = pop_2 : normal (0/0)
|   |   |   |   |   |   |   |   |   |   |   |   |   |   service = netstat : normal (0/0)
|   |   |   |   |   |   |   |   |   |   |   |   |   |   service = daytime : normal (0/0)
|   |   |   |   |   |   |   |   |   |   |   |   |   |   service = exec : normal (0/0)
|   |   |   |   |   |   |   |   |   |   |   |   |   |   service = discard : normal (0/0)
|   |   |   |   |   |   |   |   |   |   |   |   |   |   service = netbios_dgm : normal (0/0)
|   |   |   |   |   |   |   |   |   |   |   |   |   |   service = systat : normal (0/0)
|   |   |   |   |   |   |   |   |   |   |   |   |   |   service = name : normal (0/0)
|   |   |   |   |   |   |   |   |   |   |   |   |   |   service = ctf : normal (0/0)
|   |   |   |   |   |   |   |   |   |   |   |   |   |   service = rje : normal (0/0)
|   |   |   |   |   |   |   |   |   |   |   |   |   |   service = netbios_ns : normal (0/0)
|   |   |   |   |   |   |   |   |   |   |   |   |   |   service = courier : normal (0/0)
|   |   |   |   |   |   |   |   |   |   |   |   |   |   service = echo : normal (0/0)
|   |   |   |   |   |   |   |   |   |   |   |   |   |   service = gopher : normal (0/0)
|   |   |   |   |   |   |   |   |   |   |   |   |   |   service = netbios_ssn : normal (0/0)
|   |   |   |   |   |   |   |   |   |   |   |   |   |   service = printer : normal (0/0)
|   |   |   |   |   |   |   |   |   |   |   |   |   |   service = nntp : normal (0/0)
|   |   |   |   |   |   |   |   |   |   |   |   |   |   service = http_2784 : normal (0/0)
|   |   |   |   |   |   |   |   |   |   |   |   |   |   service = aol : normal (0/0)
|   |   |   |   |   |   |   |   |   |   |   |   |   |   service = pm_dump : normal (0/0)
|   |   |   |   |   |   |   |   |   |   |   |   |   |   service = http_8001 : normal (0/0)
|   |   |   |   |   |   |   |   |   |   |   |   |   |   service = harvest : normal (0/0)
|   |   |   |   |   |   |   |   |   |   |   |   |   dst_host_serror_rate >= 0.01 : satan (2/0)
|   |   |   |   |   |   |   |   |   |   |   |   src_bytes >= 18.5 : satan (2/0)
|   |   |   |   |   |   |   |   |   |   |   src_bytes >= 21.5
|   |   |   |   |   |   |   |   |   |   |   |   dst_host_diff_srv_rate < 0.03
|   |   |   |   |   |   |   |   |   |   |   |   |   dst_host_rerror_rate < 0.01 : normal (1/0)
|   |   |   |   |   |   |   |   |   |   |   |   |   dst_host_rerror_rate >= 0.01 : multihop (1/0)
|   |   |   |   |   |   |   |   |   |   |   |   dst_host_diff_srv_rate >= 0.03 : multihop (1/0)
|   |   |   |   |   |   |   |   |   |   dst_bytes >= 31.5
|   |   |   |   |   |   |   |   |   |   |   dst_host_same_srv_rate < 0.03
|   |   |   |   |   |   |   |   |   |   |   |   srv_count < 2.5
|   |   |   |   |   |   |   |   |   |   |   |   |   src_bytes < 6.5
|   |   |   |   |   |   |   |   |   |   |   |   |   |   dst_host_diff_srv_rate < 0.03 : normal (3/0)
|   |   |   |   |   |   |   |   |   |   |   |   |   |   dst_host_diff_srv_rate >= 0.03
|   |   |   |   |   |   |   |   |   |   |   |   |   |   |   service = http : normal (0/0)
|   |   |   |   |   |   |   |   |   |   |   |   |   |   |   service = domain_u : normal (0/0)
|   |   |   |   |   |   |   |   |   |   |   |   |   |   |   service = ftp_data : normal (0/0)
|   |   |   |   |   |   |   |   |   |   |   |   |   |   |   service = private : normal (0/0)
|   |   |   |   |   |   |   |   |   |   |   |   |   |   |   service = other : normal (0/0)
|   |   |   |   |   |   |   |   |   |   |   |   |   |   |   service = smtp : satan (1/0)
|   |   |   |   |   |   |   |   |   |   |   |   |   |   |   service = telnet : normal (0/0)
|   |   |   |   |   |   |   |   |   |   |   |   |   |   |   service = eco_i : normal (0/0)
|   |   |   |   |   |   |   |   |   |   |   |   |   |   |   service = X11 : normal (0/0)
|   |   |   |   |   |   |   |   |   |   |   |   |   |   |   service = ntp_u : normal (0/0)
|   |   |   |   |   |   |   |   |   |   |   |   |   |   |   service = ftp : normal (0/0)
|   |   |   |   |   |   |   |   |   |   |   |   |   |   |   service = IRC : normal (0/0)
|   |   |   |   |   |   |   |   |   |   |   |   |   |   |   service = time : normal (0/0)
|   |   |   |   |   |   |   |   |   |   |   |   |   |   |   service = finger : normal (4/0)
|   |   |   |   |   |   |   |   |   |   |   |   |   |   |   service = urp_i : normal (0/0)
|   |   |   |   |   |   |   |   |   |   |   |   |   |   |   service = auth : normal (0/0)
|   |   |   |   |   |   |   |   |   |   |   |   |   |   |   service = ecr_i : normal (0/0)
|   |   |   |   |   |   |   |   |   |   |   |   |   |   |   service = domain : normal (0/0)
|   |   |   |   |   |   |   |   |   |   |   |   |   |   |   service = pop_3 : normal (0/0)
|   |   |   |   |   |   |   |   |   |   |   |   |   |   |   service = urh_i : normal (0/0)
|   |   |   |   |   |   |   |   |   |   |   |   |   |   |   service = red_i : normal (0/0)
|   |   |   |   |   |   |   |   |   |   |   |   |   |   |   service = remote_job : normal (0/0)
|   |   |   |   |   |   |   |   |   |   |   |   |   |   |   service = tftp_u : normal (0/0)
|   |   |   |   |   |   |   |   |   |   |   |   |   |   |   service = ssh : normal (0/0)
|   |   |   |   |   |   |   |   |   |   |   |   |   |   |   service = shell : normal (0/0)
|   |   |   |   |   |   |   |   |   |   |   |   |   |   |   service = imap4 : normal (0/0)
|   |   |   |   |   |   |   |   |   |   |   |   |   |   |   service = tim_i : normal (0/0)
|   |   |   |   |   |   |   |   |   |   |   |   |   |   |   service = link : normal (0/0)
|   |   |   |   |   |   |   |   |   |   |   |   |   |   |   service = uucp : normal (0/0)
|   |   |   |   |   |   |   |   |   |   |   |   |   |   |   service = whois : normal (0/0)
|   |   |   |   |   |   |   |   |   |   |   |   |   |   |   service = mtp : normal (0/0)
|   |   |   |   |   |   |   |   |   |   |   |   |   |   |   service = Z39_50 : normal (0/0)
|   |   |   |   |   |   |   |   |   |   |   |   |   |   |   service = supdup : normal (0/0)
|   |   |   |   |   |   |   |   |   |   |   |   |   |   |   service = login : normal (0/0)
|   |   |   |   |   |   |   |   |   |   |   |   |   |   |   service = http_443 : normal (0/0)
|   |   |   |   |   |   |   |   |   |   |   |   |   |   |   service = bgp : normal (0/0)
|   |   |   |   |   |   |   |   |   |   |   |   |   |   |   service = uucp_path : normal (0/0)
|   |   |   |   |   |   |   |   |   |   |   |   |   |   |   service = sql_net : normal (0/0)
|   |   |   |   |   |   |   |   |   |   |   |   |   |   |   service = hostnames : normal (0/0)
|   |   |   |   |   |   |   |   |   |   |   |   |   |   |   service = iso_tsap : normal (0/0)
|   |   |   |   |   |   |   |   |   |   |   |   |   |   |   service = nnsp : normal (0/0)
|   |   |   |   |   |   |   |   |   |   |   |   |   |   |   service = csnet_ns : normal (0/0)
|   |   |   |   |   |   |   |   |   |   |   |   |   |   |   service = vmnet : normal (0/0)
|   |   |   |   |   |   |   |   |   |   |   |   |   |   |   service = kshell : normal (0/0)
|   |   |   |   |   |   |   |   |   |   |   |   |   |   |   service = sunrpc : normal (0/0)
|   |   |   |   |   |   |   |   |   |   |   |   |   |   |   service = efs : normal (0/0)
|   |   |   |   |   |   |   |   |   |   |   |   |   |   |   service = klogin : normal (0/0)
|   |   |   |   |   |   |   |   |   |   |   |   |   |   |   service = ldap : normal (0/0)
|   |   |   |   |   |   |   |   |   |   |   |   |   |   |   service = pop_2 : satan (1/0)
|   |   |   |   |   |   |   |   |   |   |   |   |   |   |   service = netstat : normal (0/0)
|   |   |   |   |   |   |   |   |   |   |   |   |   |   |   service = daytime : normal (0/0)
|   |   |   |   |   |   |   |   |   |   |   |   |   |   |   service = exec : normal (0/0)
|   |   |   |   |   |   |   |   |   |   |   |   |   |   |   service = discard : normal (0/0)
|   |   |   |   |   |   |   |   |   |   |   |   |   |   |   service = netbios_dgm : normal (0/0)
|   |   |   |   |   |   |   |   |   |   |   |   |   |   |   service = systat : normal (0/0)
|   |   |   |   |   |   |   |   |   |   |   |   |   |   |   service = name : normal (0/0)
|   |   |   |   |   |   |   |   |   |   |   |   |   |   |   service = ctf : normal (0/0)
|   |   |   |   |   |   |   |   |   |   |   |   |   |   |   service = rje : normal (0/0)
|   |   |   |   |   |   |   |   |   |   |   |   |   |   |   service = netbios_ns : normal (0/0)
|   |   |   |   |   |   |   |   |   |   |   |   |   |   |   service = courier : normal (0/0)
|   |   |   |   |   |   |   |   |   |   |   |   |   |   |   service = echo : normal (0/0)
|   |   |   |   |   |   |   |   |   |   |   |   |   |   |   service = gopher : normal (0/0)
|   |   |   |   |   |   |   |   |   |   |   |   |   |   |   service = netbios_ssn : normal (0/0)
|   |   |   |   |   |   |   |   |   |   |   |   |   |   |   service = printer : normal (0/0)
|   |   |   |   |   |   |   |   |   |   |   |   |   |   |   service = nntp : normal (0/0)
|   |   |   |   |   |   |   |   |   |   |   |   |   |   |   service = http_2784 : normal (0/0)
|   |   |   |   |   |   |   |   |   |   |   |   |   |   |   service = aol : normal (0/0)
|   |   |   |   |   |   |   |   |   |   |   |   |   |   |   service = pm_dump : normal (0/0)
|   |   |   |   |   |   |   |   |   |   |   |   |   |   |   service = http_8001 : normal (0/0)
|   |   |   |   |   |   |   |   |   |   |   |   |   |   |   service = harvest : normal (0/0)
|   |   |   |   |   |   |   |   |   |   |   |   |   src_bytes >= 6.5 : normal (46/0)
|   |   |   |   |   |   |   |   |   |   |   |   srv_count >= 2.5
|   |   |   |   |   |   |   |   |   |   |   |   |   dst_bytes < 163.5
|   |   |   |   |   |   |   |   |   |   |   |   |   |   dst_host_srv_count < 4 : normal (1/0)
|   |   |   |   |   |   |   |   |   |   |   |   |   |   dst_host_srv_count >= 4
|   |   |   |   |   |   |   |   |   |   |   |   |   |   |   count < 2 : normal (1/0)
|   |   |   |   |   |   |   |   |   |   |   |   |   |   |   count >= 2 : saint (1/0)
|   |   |   |   |   |   |   |   |   |   |   |   |   dst_bytes >= 163.5 : satan (2/0)
|   |   |   |   |   |   |   |   |   |   |   dst_host_same_srv_rate >= 0.03 : normal (82/0)
|   |   |   |   |   |   |   |   |   duration >= 6583 : processtable (17/0)
|   |   |   |   |   |   |   |   hot >= 0.5 : satan (2/0)
|   |   |   |   |   |   |   dst_host_same_srv_rate >= 0.41
|   |   |   |   |   |   |   |   service = http : normal (15/0)
|   |   |   |   |   |   |   |   service = domain_u : normal (15/0)
|   |   |   |   |   |   |   |   service = ftp_data : normal (1/0)
|   |   |   |   |   |   |   |   service = private : normal (0/0)
|   |   |   |   |   |   |   |   service = other : normal (0/0)
|   |   |   |   |   |   |   |   service = smtp : normal (1/0)
|   |   |   |   |   |   |   |   service = telnet : processtable (38/0)
|   |   |   |   |   |   |   |   service = eco_i : normal (0/0)
|   |   |   |   |   |   |   |   service = X11 : normal (0/0)
|   |   |   |   |   |   |   |   service = ntp_u : normal (0/0)
|   |   |   |   |   |   |   |   service = ftp : normal (0/0)
|   |   |   |   |   |   |   |   service = IRC : normal (0/0)
|   |   |   |   |   |   |   |   service = time : normal (0/0)
|   |   |   |   |   |   |   |   service = finger : normal (0/0)
|   |   |   |   |   |   |   |   service = urp_i : normal (0/0)
|   |   |   |   |   |   |   |   service = auth : normal (0/0)
|   |   |   |   |   |   |   |   service = ecr_i : normal (0/0)
|   |   |   |   |   |   |   |   service = domain : normal (0/0)
|   |   |   |   |   |   |   |   service = pop_3 : normal (0/0)
|   |   |   |   |   |   |   |   service = urh_i : normal (0/0)
|   |   |   |   |   |   |   |   service = red_i : normal (0/0)
|   |   |   |   |   |   |   |   service = remote_job : normal (0/0)
|   |   |   |   |   |   |   |   service = tftp_u : normal (0/0)
|   |   |   |   |   |   |   |   service = ssh : normal (0/0)
|   |   |   |   |   |   |   |   service = shell : normal (0/0)
|   |   |   |   |   |   |   |   service = imap4 : normal (0/0)
|   |   |   |   |   |   |   |   service = tim_i : normal (0/0)
|   |   |   |   |   |   |   |   service = link : normal (0/0)
|   |   |   |   |   |   |   |   service = uucp : normal (0/0)
|   |   |   |   |   |   |   |   service = whois : normal (0/0)
|   |   |   |   |   |   |   |   service = mtp : normal (0/0)
|   |   |   |   |   |   |   |   service = Z39_50 : normal (0/0)
|   |   |   |   |   |   |   |   service = supdup : normal (0/0)
|   |   |   |   |   |   |   |   service = login : normal (0/0)
|   |   |   |   |   |   |   |   service = http_443 : normal (0/0)
|   |   |   |   |   |   |   |   service = bgp : normal (0/0)
|   |   |   |   |   |   |   |   service = uucp_path : normal (0/0)
|   |   |   |   |   |   |   |   service = sql_net : normal (0/0)
|   |   |   |   |   |   |   |   service = hostnames : normal (0/0)
|   |   |   |   |   |   |   |   service = iso_tsap : normal (0/0)
|   |   |   |   |   |   |   |   service = nnsp : normal (0/0)
|   |   |   |   |   |   |   |   service = csnet_ns : normal (0/0)
|   |   |   |   |   |   |   |   service = vmnet : normal (0/0)
|   |   |   |   |   |   |   |   service = kshell : normal (0/0)
|   |   |   |   |   |   |   |   service = sunrpc : normal (0/0)
|   |   |   |   |   |   |   |   service = efs : normal (0/0)
|   |   |   |   |   |   |   |   service = klogin : normal (0/0)
|   |   |   |   |   |   |   |   service = ldap : normal (0/0)
|   |   |   |   |   |   |   |   service = pop_2 : normal (0/0)
|   |   |   |   |   |   |   |   service = netstat : normal (0/0)
|   |   |   |   |   |   |   |   service = daytime : normal (0/0)
|   |   |   |   |   |   |   |   service = exec : normal (0/0)
|   |   |   |   |   |   |   |   service = discard : normal (0/0)
|   |   |   |   |   |   |   |   service = netbios_dgm : normal (0/0)
|   |   |   |   |   |   |   |   service = systat : normal (0/0)
|   |   |   |   |   |   |   |   service = name : normal (0/0)
|   |   |   |   |   |   |   |   service = ctf : normal (0/0)
|   |   |   |   |   |   |   |   service = rje : normal (0/0)
|   |   |   |   |   |   |   |   service = netbios_ns : normal (0/0)
|   |   |   |   |   |   |   |   service = courier : normal (0/0)
|   |   |   |   |   |   |   |   service = echo : normal (0/0)
|   |   |   |   |   |   |   |   service = gopher : normal (0/0)
|   |   |   |   |   |   |   |   service = netbios_ssn : normal (0/0)
|   |   |   |   |   |   |   |   service = printer : normal (0/0)
|   |   |   |   |   |   |   |   service = nntp : normal (0/0)
|   |   |   |   |   |   |   |   service = http_2784 : normal (0/0)
|   |   |   |   |   |   |   |   service = aol : normal (0/0)
|   |   |   |   |   |   |   |   service = pm_dump : normal (0/0)
|   |   |   |   |   |   |   |   service = http_8001 : normal (0/0)
|   |   |   |   |   |   |   |   service = harvest : normal (0/0)
|   |   |   |   |   |   dst_host_srv_rerror_rate >= 0.01
|   |   |   |   |   |   |   dst_host_serror_rate < 0.09
|   |   |   |   |   |   |   |   dst_host_same_srv_rate < 0.59
|   |   |   |   |   |   |   |   |   dst_host_rerror_rate < 0.13
|   |   |   |   |   |   |   |   |   |   service = http : normal (0/0)
|   |   |   |   |   |   |   |   |   |   service = domain_u : normal (0/0)
|   |   |   |   |   |   |   |   |   |   service = ftp_data : normal (0/0)
|   |   |   |   |   |   |   |   |   |   service = private : normal (0/0)
|   |   |   |   |   |   |   |   |   |   service = other : normal (0/0)
|   |   |   |   |   |   |   |   |   |   service = smtp : normal (2/0)
|   |   |   |   |   |   |   |   |   |   service = telnet : processtable (40/0)
|   |   |   |   |   |   |   |   |   |   service = eco_i : normal (0/0)
|   |   |   |   |   |   |   |   |   |   service = X11 : normal (0/0)
|   |   |   |   |   |   |   |   |   |   service = ntp_u : normal (0/0)
|   |   |   |   |   |   |   |   |   |   service = ftp : multihop (1/0)
|   |   |   |   |   |   |   |   |   |   service = IRC : normal (0/0)
|   |   |   |   |   |   |   |   |   |   service = time : normal (0/0)
|   |   |   |   |   |   |   |   |   |   service = finger : normal (1/0)
|   |   |   |   |   |   |   |   |   |   service = urp_i : normal (0/0)
|   |   |   |   |   |   |   |   |   |   service = auth : normal (1/0)
|   |   |   |   |   |   |   |   |   |   service = ecr_i : normal (0/0)
|   |   |   |   |   |   |   |   |   |   service = domain : normal (0/0)
|   |   |   |   |   |   |   |   |   |   service = pop_3 : normal (0/0)
|   |   |   |   |   |   |   |   |   |   service = urh_i : normal (0/0)
|   |   |   |   |   |   |   |   |   |   service = red_i : normal (0/0)
|   |   |   |   |   |   |   |   |   |   service = remote_job : normal (0/0)
|   |   |   |   |   |   |   |   |   |   service = tftp_u : normal (0/0)
|   |   |   |   |   |   |   |   |   |   service = ssh : normal (0/0)
|   |   |   |   |   |   |   |   |   |   service = shell : normal (0/0)
|   |   |   |   |   |   |   |   |   |   service = imap4 : normal (0/0)
|   |   |   |   |   |   |   |   |   |   service = tim_i : normal (0/0)
|   |   |   |   |   |   |   |   |   |   service = link : normal (0/0)
|   |   |   |   |   |   |   |   |   |   service = uucp : normal (0/0)
|   |   |   |   |   |   |   |   |   |   service = whois : normal (0/0)
|   |   |   |   |   |   |   |   |   |   service = mtp : normal (0/0)
|   |   |   |   |   |   |   |   |   |   service = Z39_50 : normal (0/0)
|   |   |   |   |   |   |   |   |   |   service = supdup : normal (0/0)
|   |   |   |   |   |   |   |   |   |   service = login : normal (0/0)
|   |   |   |   |   |   |   |   |   |   service = http_443 : normal (0/0)
|   |   |   |   |   |   |   |   |   |   service = bgp : normal (0/0)
|   |   |   |   |   |   |   |   |   |   service = uucp_path : normal (0/0)
|   |   |   |   |   |   |   |   |   |   service = sql_net : normal (0/0)
|   |   |   |   |   |   |   |   |   |   service = hostnames : normal (0/0)
|   |   |   |   |   |   |   |   |   |   service = iso_tsap : normal (0/0)
|   |   |   |   |   |   |   |   |   |   service = nnsp : normal (0/0)
|   |   |   |   |   |   |   |   |   |   service = csnet_ns : normal (0/0)
|   |   |   |   |   |   |   |   |   |   service = vmnet : normal (0/0)
|   |   |   |   |   |   |   |   |   |   service = kshell : normal (0/0)
|   |   |   |   |   |   |   |   |   |   service = sunrpc : normal (0/0)
|   |   |   |   |   |   |   |   |   |   service = efs : normal (0/0)
|   |   |   |   |   |   |   |   |   |   service = klogin : normal (0/0)
|   |   |   |   |   |   |   |   |   |   service = ldap : normal (0/0)
|   |   |   |   |   |   |   |   |   |   service = pop_2 : normal (0/0)
|   |   |   |   |   |   |   |   |   |   service = netstat : normal (0/0)
|   |   |   |   |   |   |   |   |   |   service = daytime : normal (0/0)
|   |   |   |   |   |   |   |   |   |   service = exec : normal (0/0)
|   |   |   |   |   |   |   |   |   |   service = discard : normal (0/0)
|   |   |   |   |   |   |   |   |   |   service = netbios_dgm : normal (0/0)
|   |   |   |   |   |   |   |   |   |   service = systat : normal (0/0)
|   |   |   |   |   |   |   |   |   |   service = name : normal (0/0)
|   |   |   |   |   |   |   |   |   |   service = ctf : normal (0/0)
|   |   |   |   |   |   |   |   |   |   service = rje : normal (0/0)
|   |   |   |   |   |   |   |   |   |   service = netbios_ns : normal (0/0)
|   |   |   |   |   |   |   |   |   |   service = courier : normal (0/0)
|   |   |   |   |   |   |   |   |   |   service = echo : normal (0/0)
|   |   |   |   |   |   |   |   |   |   service = gopher : normal (0/0)
|   |   |   |   |   |   |   |   |   |   service = netbios_ssn : normal (0/0)
|   |   |   |   |   |   |   |   |   |   service = printer : normal (0/0)
|   |   |   |   |   |   |   |   |   |   service = nntp : normal (0/0)
|   |   |   |   |   |   |   |   |   |   service = http_2784 : normal (0/0)
|   |   |   |   |   |   |   |   |   |   service = aol : normal (0/0)
|   |   |   |   |   |   |   |   |   |   service = pm_dump : normal (0/0)
|   |   |   |   |   |   |   |   |   |   service = http_8001 : normal (0/0)
|   |   |   |   |   |   |   |   |   |   service = harvest : normal (0/0)
|   |   |   |   |   |   |   |   |   dst_host_rerror_rate >= 0.13 : mscan (11/0)
|   |   |   |   |   |   |   |   dst_host_same_srv_rate >= 0.59 : normal (10/0)
|   |   |   |   |   |   |   dst_host_serror_rate >= 0.09
|   |   |   |   |   |   |   |   count < 1.5 : processtable (268/0)
|   |   |   |   |   |   |   |   count >= 1.5 : mscan (1/0)
|   |   |   |   |   dst_host_same_src_port_rate >= 0.01
|   |   |   |   |   |   dst_host_srv_count < 3.5
|   |   |   |   |   |   |   dst_bytes < 3.5
|   |   |   |   |   |   |   |   same_srv_rate < 0.51 : satan (1/0)
|   |   |   |   |   |   |   |   same_srv_rate >= 0.51
|   |   |   |   |   |   |   |   |   service = http : ipsweep (1/0)
|   |   |   |   |   |   |   |   |   service = domain_u : normal (0/0)
|   |   |   |   |   |   |   |   |   service = ftp_data
|   |   |   |   |   |   |   |   |   |   dst_host_diff_srv_rate < 0.74 : warezmaster (8/0)
|   |   |   |   |   |   |   |   |   |   dst_host_diff_srv_rate >= 0.74
|   |   |   |   |   |   |   |   |   |   |   dst_host_same_srv_rate < 0.26 : normal (1/0)
|   |   |   |   |   |   |   |   |   |   |   dst_host_same_srv_rate >= 0.26 : warezmaster (2/0)
|   |   |   |   |   |   |   |   |   service = private
|   |   |   |   |   |   |   |   |   |   srv_count < 1.5
|   |   |   |   |   |   |   |   |   |   |   src_bytes < 0.5 : udpstorm (1/0)
|   |   |   |   |   |   |   |   |   |   |   src_bytes >= 0.5 : satan (8/0)
|   |   |   |   |   |   |   |   |   |   srv_count >= 1.5 : satan (19/0)
|   |   |   |   |   |   |   |   |   service = other
|   |   |   |   |   |   |   |   |   |   logged_in < 0.5
|   |   |   |   |   |   |   |   |   |   |   dst_host_srv_count < 1.5
|   |   |   |   |   |   |   |   |   |   |   |   dst_host_count < 130 : named (1/0)
|   |   |   |   |   |   |   |   |   |   |   |   dst_host_count >= 130 : satan (2/0)
|   |   |   |   |   |   |   |   |   |   |   dst_host_srv_count >= 1.5
|   |   |   |   |   |   |   |   |   |   |   |   dst_host_count < 128.5 : rootkit (1/0)
|   |   |   |   |   |   |   |   |   |   |   |   dst_host_count >= 128.5 : satan (5/0)
|   |   |   |   |   |   |   |   |   |   logged_in >= 0.5 : normal (2/0)
|   |   |   |   |   |   |   |   |   service = smtp : normal (0/0)
|   |   |   |   |   |   |   |   |   service = telnet : ipsweep (1/0)
|   |   |   |   |   |   |   |   |   service = eco_i
|   |   |   |   |   |   |   |   |   |   dst_host_rerror_rate < 0.01
|   |   |   |   |   |   |   |   |   |   |   dst_host_diff_srv_rate < 0.33 : satan (6/0)
|   |   |   |   |   |   |   |   |   |   |   dst_host_diff_srv_rate >= 0.33 : nmap (3/0)
|   |   |   |   |   |   |   |   |   |   dst_host_rerror_rate >= 0.01
|   |   |   |   |   |   |   |   |   |   |   dst_host_diff_srv_rate < 0.2
|   |   |   |   |   |   |   |   |   |   |   |   src_bytes < 14 : portsweep (2/0)
|   |   |   |   |   |   |   |   |   |   |   |   src_bytes >= 14 : satan (1/0)
|   |   |   |   |   |   |   |   |   |   |   dst_host_diff_srv_rate >= 0.2 : satan (3/0)
|   |   |   |   |   |   |   |   |   service = X11 : normal (0/0)
|   |   |   |   |   |   |   |   |   service = ntp_u : normal (0/0)
|   |   |   |   |   |   |   |   |   service = ftp : normal (0/0)
|   |   |   |   |   |   |   |   |   service = IRC : normal (0/0)
|   |   |   |   |   |   |   |   |   service = time : normal (0/0)
|   |   |   |   |   |   |   |   |   service = finger : ipsweep (3/0)
|   |   |   |   |   |   |   |   |   service = urp_i : normal (0/0)
|   |   |   |   |   |   |   |   |   service = auth : normal (0/0)
|   |   |   |   |   |   |   |   |   service = ecr_i
|   |   |   |   |   |   |   |   |   |   count < 1.5
|   |   |   |   |   |   |   |   |   |   |   dst_host_count < 137 : saint (1/0)
|   |   |   |   |   |   |   |   |   |   |   dst_host_count >= 137
|   |   |   |   |   |   |   |   |   |   |   |   src_bytes < 19 : ipsweep (1/0)
|   |   |   |   |   |   |   |   |   |   |   |   src_bytes >= 19 : satan (1/0)
|   |   |   |   |   |   |   |   |   |   count >= 1.5 : satan (2/0)
|   |   |   |   |   |   |   |   |   service = domain : ipsweep (6/0)
|   |   |   |   |   |   |   |   |   service = pop_3 : normal (0/0)
|   |   |   |   |   |   |   |   |   service = urh_i : normal (0/0)
|   |   |   |   |   |   |   |   |   service = red_i : normal (0/0)
|   |   |   |   |   |   |   |   |   service = remote_job : normal (0/0)
|   |   |   |   |   |   |   |   |   service = tftp_u : normal (0/0)
|   |   |   |   |   |   |   |   |   service = ssh : normal (0/0)
|   |   |   |   |   |   |   |   |   service = shell : normal (0/0)
|   |   |   |   |   |   |   |   |   service = imap4 : normal (0/0)
|   |   |   |   |   |   |   |   |   service = tim_i : normal (0/0)
|   |   |   |   |   |   |   |   |   service = link : normal (0/0)
|   |   |   |   |   |   |   |   |   service = uucp : normal (0/0)
|   |   |   |   |   |   |   |   |   service = whois : normal (0/0)
|   |   |   |   |   |   |   |   |   service = mtp : normal (0/0)
|   |   |   |   |   |   |   |   |   service = Z39_50 : normal (0/0)
|   |   |   |   |   |   |   |   |   service = supdup : normal (0/0)
|   |   |   |   |   |   |   |   |   service = login : normal (0/0)
|   |   |   |   |   |   |   |   |   service = http_443 : normal (0/0)
|   |   |   |   |   |   |   |   |   service = bgp : normal (0/0)
|   |   |   |   |   |   |   |   |   service = uucp_path : normal (0/0)
|   |   |   |   |   |   |   |   |   service = sql_net : normal (0/0)
|   |   |   |   |   |   |   |   |   service = hostnames : normal (0/0)
|   |   |   |   |   |   |   |   |   service = iso_tsap : normal (0/0)
|   |   |   |   |   |   |   |   |   service = nnsp : normal (0/0)
|   |   |   |   |   |   |   |   |   service = csnet_ns : normal (0/0)
|   |   |   |   |   |   |   |   |   service = vmnet : normal (0/0)
|   |   |   |   |   |   |   |   |   service = kshell : normal (0/0)
|   |   |   |   |   |   |   |   |   service = sunrpc : normal (0/0)
|   |   |   |   |   |   |   |   |   service = efs : normal (0/0)
|   |   |   |   |   |   |   |   |   service = klogin : normal (0/0)
|   |   |   |   |   |   |   |   |   service = ldap : normal (0/0)
|   |   |   |   |   |   |   |   |   service = pop_2 : normal (0/0)
|   |   |   |   |   |   |   |   |   service = netstat : normal (0/0)
|   |   |   |   |   |   |   |   |   service = daytime : normal (0/0)
|   |   |   |   |   |   |   |   |   service = exec : normal (0/0)
|   |   |   |   |   |   |   |   |   service = discard : normal (0/0)
|   |   |   |   |   |   |   |   |   service = netbios_dgm : normal (0/0)
|   |   |   |   |   |   |   |   |   service = systat : normal (0/0)
|   |   |   |   |   |   |   |   |   service = name : normal (0/0)
|   |   |   |   |   |   |   |   |   service = ctf : normal (0/0)
|   |   |   |   |   |   |   |   |   service = rje : normal (0/0)
|   |   |   |   |   |   |   |   |   service = netbios_ns : normal (0/0)
|   |   |   |   |   |   |   |   |   service = courier : normal (0/0)
|   |   |   |   |   |   |   |   |   service = echo : normal (0/0)
|   |   |   |   |   |   |   |   |   service = gopher : ipsweep (7/0)
|   |   |   |   |   |   |   |   |   service = netbios_ssn : normal (0/0)
|   |   |   |   |   |   |   |   |   service = printer : normal (0/0)
|   |   |   |   |   |   |   |   |   service = nntp : normal (0/0)
|   |   |   |   |   |   |   |   |   service = http_2784 : normal (0/0)
|   |   |   |   |   |   |   |   |   service = aol : normal (0/0)
|   |   |   |   |   |   |   |   |   service = pm_dump : normal (0/0)
|   |   |   |   |   |   |   |   |   service = http_8001 : normal (0/0)
|   |   |   |   |   |   |   |   |   service = harvest : normal (0/0)
|   |   |   |   |   |   |   dst_bytes >= 3.5
|   |   |   |   |   |   |   |   dst_host_same_src_port_rate < 0.06
|   |   |   |   |   |   |   |   |   srv_count < 1.5
|   |   |   |   |   |   |   |   |   |   dst_host_same_srv_rate < 0.01
|   |   |   |   |   |   |   |   |   |   |   service = http : normal (0/0)
|   |   |   |   |   |   |   |   |   |   |   service = domain_u : normal (0/0)
|   |   |   |   |   |   |   |   |   |   |   service = ftp_data : normal (0/0)
|   |   |   |   |   |   |   |   |   |   |   service = private : normal (0/0)
|   |   |   |   |   |   |   |   |   |   |   service = other : multihop (1/0)
|   |   |   |   |   |   |   |   |   |   |   service = smtp : normal (0/0)
|   |   |   |   |   |   |   |   |   |   |   service = telnet : normal (1/0)
|   |   |   |   |   |   |   |   |   |   |   service = eco_i : normal (0/0)
|   |   |   |   |   |   |   |   |   |   |   service = X11 : normal (0/0)
|   |   |   |   |   |   |   |   |   |   |   service = ntp_u : normal (0/0)
|   |   |   |   |   |   |   |   |   |   |   service = ftp : normal (0/0)
|   |   |   |   |   |   |   |   |   |   |   service = IRC : normal (0/0)
|   |   |   |   |   |   |   |   |   |   |   service = time : normal (0/0)
|   |   |   |   |   |   |   |   |   |   |   service = finger : normal (6/0)
|   |   |   |   |   |   |   |   |   |   |   service = urp_i : normal (0/0)
|   |   |   |   |   |   |   |   |   |   |   service = auth : normal (8/0)
|   |   |   |   |   |   |   |   |   |   |   service = ecr_i : normal (0/0)
|   |   |   |   |   |   |   |   |   |   |   service = domain : normal (0/0)
|   |   |   |   |   |   |   |   |   |   |   service = pop_3 : normal (0/0)
|   |   |   |   |   |   |   |   |   |   |   service = urh_i : normal (0/0)
|   |   |   |   |   |   |   |   |   |   |   service = red_i : normal (0/0)
|   |   |   |   |   |   |   |   |   |   |   service = remote_job : normal (0/0)
|   |   |   |   |   |   |   |   |   |   |   service = tftp_u : normal (0/0)
|   |   |   |   |   |   |   |   |   |   |   service = ssh : normal (0/0)
|   |   |   |   |   |   |   |   |   |   |   service = shell : normal (0/0)
|   |   |   |   |   |   |   |   |   |   |   service = imap4 : normal (0/0)
|   |   |   |   |   |   |   |   |   |   |   service = tim_i : normal (0/0)
|   |   |   |   |   |   |   |   |   |   |   service = link : normal (0/0)
|   |   |   |   |   |   |   |   |   |   |   service = uucp : normal (0/0)
|   |   |   |   |   |   |   |   |   |   |   service = whois : normal (0/0)
|   |   |   |   |   |   |   |   |   |   |   service = mtp : normal (0/0)
|   |   |   |   |   |   |   |   |   |   |   service = Z39_50 : normal (0/0)
|   |   |   |   |   |   |   |   |   |   |   service = supdup : normal (0/0)
|   |   |   |   |   |   |   |   |   |   |   service = login : normal (0/0)
|   |   |   |   |   |   |   |   |   |   |   service = http_443 : normal (0/0)
|   |   |   |   |   |   |   |   |   |   |   service = bgp : normal (0/0)
|   |   |   |   |   |   |   |   |   |   |   service = uucp_path : normal (0/0)
|   |   |   |   |   |   |   |   |   |   |   service = sql_net : normal (0/0)
|   |   |   |   |   |   |   |   |   |   |   service = hostnames : normal (0/0)
|   |   |   |   |   |   |   |   |   |   |   service = iso_tsap : normal (0/0)
|   |   |   |   |   |   |   |   |   |   |   service = nnsp : normal (0/0)
|   |   |   |   |   |   |   |   |   |   |   service = csnet_ns : normal (0/0)
|   |   |   |   |   |   |   |   |   |   |   service = vmnet : normal (0/0)
|   |   |   |   |   |   |   |   |   |   |   service = kshell : normal (0/0)
|   |   |   |   |   |   |   |   |   |   |   service = sunrpc : normal (0/0)
|   |   |   |   |   |   |   |   |   |   |   service = efs : normal (0/0)
|   |   |   |   |   |   |   |   |   |   |   service = klogin : normal (0/0)
|   |   |   |   |   |   |   |   |   |   |   service = ldap : normal (0/0)
|   |   |   |   |   |   |   |   |   |   |   service = pop_2 : normal (0/0)
|   |   |   |   |   |   |   |   |   |   |   service = netstat : normal (0/0)
|   |   |   |   |   |   |   |   |   |   |   service = daytime : normal (0/0)
|   |   |   |   |   |   |   |   |   |   |   service = exec : normal (0/0)
|   |   |   |   |   |   |   |   |   |   |   service = discard : normal (0/0)
|   |   |   |   |   |   |   |   |   |   |   service = netbios_dgm : normal (0/0)
|   |   |   |   |   |   |   |   |   |   |   service = systat : normal (0/0)
|   |   |   |   |   |   |   |   |   |   |   service = name : normal (0/0)
|   |   |   |   |   |   |   |   |   |   |   service = ctf : normal (0/0)
|   |   |   |   |   |   |   |   |   |   |   service = rje : normal (0/0)
|   |   |   |   |   |   |   |   |   |   |   service = netbios_ns : normal (0/0)
|   |   |   |   |   |   |   |   |   |   |   service = courier : normal (0/0)
|   |   |   |   |   |   |   |   |   |   |   service = echo : normal (0/0)
|   |   |   |   |   |   |   |   |   |   |   service = gopher : normal (0/0)
|   |   |   |   |   |   |   |   |   |   |   service = netbios_ssn : normal (0/0)
|   |   |   |   |   |   |   |   |   |   |   service = printer : normal (0/0)
|   |   |   |   |   |   |   |   |   |   |   service = nntp : normal (0/0)
|   |   |   |   |   |   |   |   |   |   |   service = http_2784 : normal (0/0)
|   |   |   |   |   |   |   |   |   |   |   service = aol : normal (0/0)
|   |   |   |   |   |   |   |   |   |   |   service = pm_dump : normal (0/0)
|   |   |   |   |   |   |   |   |   |   |   service = http_8001 : normal (0/0)
|   |   |   |   |   |   |   |   |   |   |   service = harvest : normal (0/0)
|   |   |   |   |   |   |   |   |   |   dst_host_same_srv_rate >= 0.01
|   |   |   |   |   |   |   |   |   |   |   dst_host_same_srv_rate < 0.03
|   |   |   |   |   |   |   |   |   |   |   |   dst_host_diff_srv_rate < 0.1 : normal (13/0)
|   |   |   |   |   |   |   |   |   |   |   |   dst_host_diff_srv_rate >= 0.1
|   |   |   |   |   |   |   |   |   |   |   |   |   dst_host_srv_count < 1.5
|   |   |   |   |   |   |   |   |   |   |   |   |   |   src_bytes < 7.5 : normal (1/0)
|   |   |   |   |   |   |   |   |   |   |   |   |   |   src_bytes >= 7.5 : sendmail (1/0)
|   |   |   |   |   |   |   |   |   |   |   |   |   dst_host_srv_count >= 1.5 : normal (1/0)
|   |   |   |   |   |   |   |   |   |   |   dst_host_same_srv_rate >= 0.03 : normal (23/0)
|   |   |   |   |   |   |   |   |   srv_count >= 1.5
|   |   |   |   |   |   |   |   |   |   protocol_type = tcp : saint (2/0)
|   |   |   |   |   |   |   |   |   |   protocol_type = udp : normal (1/0)
|   |   |   |   |   |   |   |   |   |   protocol_type = icmp : normal (0/0)
|   |   |   |   |   |   |   |   dst_host_same_src_port_rate >= 0.06
|   |   |   |   |   |   |   |   |   protocol_type = tcp
|   |   |   |   |   |   |   |   |   |   service = http : normal (0/0)
|   |   |   |   |   |   |   |   |   |   service = domain_u : normal (0/0)
|   |   |   |   |   |   |   |   |   |   service = ftp_data : normal (0/0)
|   |   |   |   |   |   |   |   |   |   service = private : normal (0/0)
|   |   |   |   |   |   |   |   |   |   service = other : normal (0/0)
|   |   |   |   |   |   |   |   |   |   service = smtp
|   |   |   |   |   |   |   |   |   |   |   duration < 1 : normal (1/0)
|   |   |   |   |   |   |   |   |   |   |   duration >= 1 : ipsweep (1/0)
|   |   |   |   |   |   |   |   |   |   service = telnet : ipsweep (1/0)
|   |   |   |   |   |   |   |   |   |   service = eco_i : normal (0/0)
|   |   |   |   |   |   |   |   |   |   service = X11 : normal (0/0)
|   |   |   |   |   |   |   |   |   |   service = ntp_u : normal (0/0)
|   |   |   |   |   |   |   |   |   |   service = ftp : normal (0/0)
|   |   |   |   |   |   |   |   |   |   service = IRC : normal (0/0)
|   |   |   |   |   |   |   |   |   |   service = time
|   |   |   |   |   |   |   |   |   |   |   dst_host_same_src_port_rate < 0.2 : ipsweep (4/0)
|   |   |   |   |   |   |   |   |   |   |   dst_host_same_src_port_rate >= 0.2 : normal (4/0)
|   |   |   |   |   |   |   |   |   |   service = finger : normal (5/0)
|   |   |   |   |   |   |   |   |   |   service = urp_i : normal (0/0)
|   |   |   |   |   |   |   |   |   |   service = auth
|   |   |   |   |   |   |   |   |   |   |   num_compromised < 0.5 : normal (7/0)
|   |   |   |   |   |   |   |   |   |   |   num_compromised >= 0.5 : satan (2/0)
|   |   |   |   |   |   |   |   |   |   service = ecr_i : normal (0/0)
|   |   |   |   |   |   |   |   |   |   service = domain : normal (0/0)
|   |   |   |   |   |   |   |   |   |   service = pop_3 : normal (0/0)
|   |   |   |   |   |   |   |   |   |   service = urh_i : normal (0/0)
|   |   |   |   |   |   |   |   |   |   service = red_i : normal (0/0)
|   |   |   |   |   |   |   |   |   |   service = remote_job : normal (0/0)
|   |   |   |   |   |   |   |   |   |   service = tftp_u : normal (0/0)
|   |   |   |   |   |   |   |   |   |   service = ssh : ipsweep (2/0)
|   |   |   |   |   |   |   |   |   |   service = shell : normal (0/0)
|   |   |   |   |   |   |   |   |   |   service = imap4 : normal (0/0)
|   |   |   |   |   |   |   |   |   |   service = tim_i : normal (0/0)
|   |   |   |   |   |   |   |   |   |   service = link : normal (0/0)
|   |   |   |   |   |   |   |   |   |   service = uucp : normal (0/0)
|   |   |   |   |   |   |   |   |   |   service = whois : normal (0/0)
|   |   |   |   |   |   |   |   |   |   service = mtp : normal (0/0)
|   |   |   |   |   |   |   |   |   |   service = Z39_50 : normal (0/0)
|   |   |   |   |   |   |   |   |   |   service = supdup : normal (0/0)
|   |   |   |   |   |   |   |   |   |   service = login : normal (0/0)
|   |   |   |   |   |   |   |   |   |   service = http_443 : normal (0/0)
|   |   |   |   |   |   |   |   |   |   service = bgp : normal (0/0)
|   |   |   |   |   |   |   |   |   |   service = uucp_path : normal (0/0)
|   |   |   |   |   |   |   |   |   |   service = sql_net : normal (0/0)
|   |   |   |   |   |   |   |   |   |   service = hostnames : normal (0/0)
|   |   |   |   |   |   |   |   |   |   service = iso_tsap : normal (0/0)
|   |   |   |   |   |   |   |   |   |   service = nnsp : normal (0/0)
|   |   |   |   |   |   |   |   |   |   service = csnet_ns : normal (0/0)
|   |   |   |   |   |   |   |   |   |   service = vmnet : normal (0/0)
|   |   |   |   |   |   |   |   |   |   service = kshell : normal (0/0)
|   |   |   |   |   |   |   |   |   |   service = sunrpc : normal (0/0)
|   |   |   |   |   |   |   |   |   |   service = efs : normal (0/0)
|   |   |   |   |   |   |   |   |   |   service = klogin : normal (0/0)
|   |   |   |   |   |   |   |   |   |   service = ldap : normal (0/0)
|   |   |   |   |   |   |   |   |   |   service = pop_2 : normal (0/0)
|   |   |   |   |   |   |   |   |   |   service = netstat : normal (0/0)
|   |   |   |   |   |   |   |   |   |   service = daytime : normal (0/0)
|   |   |   |   |   |   |   |   |   |   service = exec : normal (0/0)
|   |   |   |   |   |   |   |   |   |   service = discard : normal (0/0)
|   |   |   |   |   |   |   |   |   |   service = netbios_dgm : normal (0/0)
|   |   |   |   |   |   |   |   |   |   service = systat : normal (0/0)
|   |   |   |   |   |   |   |   |   |   service = name : normal (0/0)
|   |   |   |   |   |   |   |   |   |   service = ctf : normal (0/0)
|   |   |   |   |   |   |   |   |   |   service = rje : normal (0/0)
|   |   |   |   |   |   |   |   |   |   service = netbios_ns : normal (0/0)
|   |   |   |   |   |   |   |   |   |   service = courier : normal (0/0)
|   |   |   |   |   |   |   |   |   |   service = echo : normal (0/0)
|   |   |   |   |   |   |   |   |   |   service = gopher : normal (0/0)
|   |   |   |   |   |   |   |   |   |   service = netbios_ssn : normal (0/0)
|   |   |   |   |   |   |   |   |   |   service = printer : normal (0/0)
|   |   |   |   |   |   |   |   |   |   service = nntp : normal (0/0)
|   |   |   |   |   |   |   |   |   |   service = http_2784 : normal (0/0)
|   |   |   |   |   |   |   |   |   |   service = aol : normal (0/0)
|   |   |   |   |   |   |   |   |   |   service = pm_dump : normal (0/0)
|   |   |   |   |   |   |   |   |   |   service = http_8001 : normal (0/0)
|   |   |   |   |   |   |   |   |   |   service = harvest : normal (0/0)
|   |   |   |   |   |   |   |   |   protocol_type = udp : normal (1/0)
|   |   |   |   |   |   |   |   |   protocol_type = icmp : normal (0/0)
|   |   |   |   |   |   dst_host_srv_count >= 3.5
|   |   |   |   |   |   |   service = http : normal (33/0)
|   |   |   |   |   |   |   service = domain_u : normal (17/0)
|   |   |   |   |   |   |   service = ftp_data
|   |   |   |   |   |   |   |   dst_host_serror_rate < 0.03
|   |   |   |   |   |   |   |   |   logged_in < 0.5
|   |   |   |   |   |   |   |   |   |   dst_host_srv_serror_rate < 0.01
|   |   |   |   |   |   |   |   |   |   |   dst_host_count < 13.5
|   |   |   |   |   |   |   |   |   |   |   |   dst_host_same_srv_rate < 0.84
|   |   |   |   |   |   |   |   |   |   |   |   |   dst_host_srv_diff_host_rate < 0.03
|   |   |   |   |   |   |   |   |   |   |   |   |   |   dst_host_srv_diff_host_rate < 0.01
|   |   |   |   |   |   |   |   |   |   |   |   |   |   |   dst_host_same_srv_rate < 0.65 : warezmaster (2/0)
|   |   |   |   |   |   |   |   |   |   |   |   |   |   |   dst_host_same_srv_rate >= 0.65
|   |   |   |   |   |   |   |   |   |   |   |   |   |   |   |   dst_host_srv_count < 5.5 : normal (2/1)
|   |   |   |   |   |   |   |   |   |   |   |   |   |   |   |   dst_host_srv_count >= 5.5 : normal (1/0)
|   |   |   |   |   |   |   |   |   |   |   |   |   |   dst_host_srv_diff_host_rate >= 0.01 : normal (1/0)
|   |   |   |   |   |   |   |   |   |   |   |   |   dst_host_srv_diff_host_rate >= 0.03 : warezmaster (9/0)
|   |   |   |   |   |   |   |   |   |   |   |   dst_host_same_srv_rate >= 0.84 : warezmaster (8/0)
|   |   |   |   |   |   |   |   |   |   |   dst_host_count >= 13.5
|   |   |   |   |   |   |   |   |   |   |   |   dst_host_srv_diff_host_rate < 0.08
|   |   |   |   |   |   |   |   |   |   |   |   |   dst_host_same_srv_rate < 0.29
|   |   |   |   |   |   |   |   |   |   |   |   |   |   dst_host_same_src_port_rate < 0.17
|   |   |   |   |   |   |   |   |   |   |   |   |   |   |   dst_host_rerror_rate < 0.02
|   |   |   |   |   |   |   |   |   |   |   |   |   |   |   |   count < 1.5
|   |   |   |   |   |   |   |   |   |   |   |   |   |   |   |   |   dst_host_srv_diff_host_rate < 0.04
|   |   |   |   |   |   |   |   |   |   |   |   |   |   |   |   |   |   dst_host_same_srv_rate < 0.03 : normal (2/0)
|   |   |   |   |   |   |   |   |   |   |   |   |   |   |   |   |   |   dst_host_same_srv_rate >= 0.03
|   |   |   |   |   |   |   |   |   |   |   |   |   |   |   |   |   |   |   dst_host_count < 98 : normal (3/0)
|   |   |   |   |   |   |   |   |   |   |   |   |   |   |   |   |   |   |   dst_host_count >= 98
|   |   |   |   |   |   |   |   |   |   |   |   |   |   |   |   |   |   |   |   dst_host_serror_rate < 0.01
|   |   |   |   |   |   |   |   |   |   |   |   |   |   |   |   |   |   |   |   |   dst_host_diff_srv_rate < 0.01 : normal (2/0)
|   |   |   |   |   |   |   |   |   |   |   |   |   |   |   |   |   |   |   |   |   dst_host_diff_srv_rate >= 0.01
|   |   |   |   |   |   |   |   |   |   |   |   |   |   |   |   |   |   |   |   |   |   dst_host_count < 185 : normal (1/0)
|   |   |   |   |   |   |   |   |   |   |   |   |   |   |   |   |   |   |   |   |   |   dst_host_count >= 185 : warezmaster (1/0)
|   |   |   |   |   |   |   |   |   |   |   |   |   |   |   |   |   |   |   |   dst_host_serror_rate >= 0.01 : warezmaster (2/0)
|   |   |   |   |   |   |   |   |   |   |   |   |   |   |   |   |   dst_host_srv_diff_host_rate >= 0.04 : normal (6/0)
|   |   |   |   |   |   |   |   |   |   |   |   |   |   |   |   count >= 1.5 : normal (2/0)
|   |   |   |   |   |   |   |   |   |   |   |   |   |   |   dst_host_rerror_rate >= 0.02 : normal (9/0)
|   |   |   |   |   |   |   |   |   |   |   |   |   |   dst_host_same_src_port_rate >= 0.17
|   |   |   |   |   |   |   |   |   |   |   |   |   |   |   src_bytes < 15
|   |   |   |   |   |   |   |   |   |   |   |   |   |   |   |   dst_host_same_srv_rate < 0.28
|   |   |   |   |   |   |   |   |   |   |   |   |   |   |   |   |   dst_host_diff_srv_rate < 0.04 : normal (3/0)
|   |   |   |   |   |   |   |   |   |   |   |   |   |   |   |   |   dst_host_diff_srv_rate >= 0.04
|   |   |   |   |   |   |   |   |   |   |   |   |   |   |   |   |   |   dst_host_same_src_port_rate < 0.21
|   |   |   |   |   |   |   |   |   |   |   |   |   |   |   |   |   |   |   dst_host_srv_diff_host_rate < 0.06 : warezmaster (7/0)
|   |   |   |   |   |   |   |   |   |   |   |   |   |   |   |   |   |   |   dst_host_srv_diff_host_rate >= 0.06 : normal (1/0)
|   |   |   |   |   |   |   |   |   |   |   |   |   |   |   |   |   |   dst_host_same_src_port_rate >= 0.21
|   |   |   |   |   |   |   |   |   |   |   |   |   |   |   |   |   |   |   dst_host_count < 31 : warezmaster (2/0)
|   |   |   |   |   |   |   |   |   |   |   |   |   |   |   |   |   |   |   dst_host_count >= 31
|   |   |   |   |   |   |   |   |   |   |   |   |   |   |   |   |   |   |   |   dst_host_srv_diff_host_rate < 0.01
|   |   |   |   |   |   |   |   |   |   |   |   |   |   |   |   |   |   |   |   |   dst_host_same_srv_rate < 0.24
|   |   |   |   |   |   |   |   |   |   |   |   |   |   |   |   |   |   |   |   |   |   dst_host_count < 135 : normal (1/0)
|   |   |   |   |   |   |   |   |   |   |   |   |   |   |   |   |   |   |   |   |   |   dst_host_count >= 135 : warezmaster (1/0)
|   |   |   |   |   |   |   |   |   |   |   |   |   |   |   |   |   |   |   |   |   dst_host_same_srv_rate >= 0.24 : normal (1/0)
|   |   |   |   |   |   |   |   |   |   |   |   |   |   |   |   |   |   |   |   dst_host_srv_diff_host_rate >= 0.01 : normal (3/0)
|   |   |   |   |   |   |   |   |   |   |   |   |   |   |   |   dst_host_same_srv_rate >= 0.28 : warezmaster (3/0)
|   |   |   |   |   |   |   |   |   |   |   |   |   |   |   src_bytes >= 15 : normal (8/0)
|   |   |   |   |   |   |   |   |   |   |   |   |   dst_host_same_srv_rate >= 0.29
|   |   |   |   |   |   |   |   |   |   |   |   |   |   count < 1.5
|   |   |   |   |   |   |   |   |   |   |   |   |   |   |   srv_serror_rate < 0.02
|   |   |   |   |   |   |   |   |   |   |   |   |   |   |   |   srv_count < 1.5
|   |   |   |   |   |   |   |   |   |   |   |   |   |   |   |   |   dst_host_diff_srv_rate < 0.03
|   |   |   |   |   |   |   |   |   |   |   |   |   |   |   |   |   |   dst_host_srv_count < 105 : normal (2/0)
|   |   |   |   |   |   |   |   |   |   |   |   |   |   |   |   |   |   dst_host_srv_count >= 105 : warezmaster (1/0)
|   |   |   |   |   |   |   |   |   |   |   |   |   |   |   |   |   dst_host_diff_srv_rate >= 0.03 : normal (21/0)
|   |   |   |   |   |   |   |   |   |   |   |   |   |   |   |   srv_count >= 1.5 : normal (3/0)
|   |   |   |   |   |   |   |   |   |   |   |   |   |   |   srv_serror_rate >= 0.02 : normal (1/0)
|   |   |   |   |   |   |   |   |   |   |   |   |   |   count >= 1.5 : normal (13/0)
|   |   |   |   |   |   |   |   |   |   |   |   dst_host_srv_diff_host_rate >= 0.08
|   |   |   |   |   |   |   |   |   |   |   |   |   dst_host_count < 214.5
|   |   |   |   |   |   |   |   |   |   |   |   |   |   src_bytes < 6 : normal (1/0)
|   |   |   |   |   |   |   |   |   |   |   |   |   |   src_bytes >= 6
|   |   |   |   |   |   |   |   |   |   |   |   |   |   |   dst_host_same_srv_rate < 0.04 : warezmaster (2/0)
|   |   |   |   |   |   |   |   |   |   |   |   |   |   |   dst_host_same_srv_rate >= 0.04
|   |   |   |   |   |   |   |   |   |   |   |   |   |   |   |   dst_host_srv_count < 12.5 : normal (1/0)
|   |   |   |   |   |   |   |   |   |   |   |   |   |   |   |   dst_host_srv_count >= 12.5
|   |   |   |   |   |   |   |   |   |   |   |   |   |   |   |   |   dst_host_rerror_rate < 0.01
|   |   |   |   |   |   |   |   |   |   |   |   |   |   |   |   |   |   dst_host_diff_srv_rate < 0.04 : warezmaster (3/0)
|   |   |   |   |   |   |   |   |   |   |   |   |   |   |   |   |   |   dst_host_diff_srv_rate >= 0.04
|   |   |   |   |   |   |   |   |   |   |   |   |   |   |   |   |   |   |   dst_host_same_srv_rate < 0.12 : normal (1/0)
|   |   |   |   |   |   |   |   |   |   |   |   |   |   |   |   |   |   |   dst_host_same_srv_rate >= 0.12 : warezmaster (2/0)
|   |   |   |   |   |   |   |   |   |   |   |   |   |   |   |   |   dst_host_rerror_rate >= 0.01 : normal (1/0)
|   |   |   |   |   |   |   |   |   |   |   |   |   dst_host_count >= 214.5
|   |   |   |   |   |   |   |   |   |   |   |   |   |   srv_count < 1.5
|   |   |   |   |   |   |   |   |   |   |   |   |   |   |   dst_bytes < 1624.5 : warezmaster (1/0)
|   |   |   |   |   |   |   |   |   |   |   |   |   |   |   dst_bytes >= 1624.5 : ps (1/0)
|   |   |   |   |   |   |   |   |   |   |   |   |   |   srv_count >= 1.5 : warezmaster (1/0)
|   |   |   |   |   |   |   |   |   |   dst_host_srv_serror_rate >= 0.01 : normal (9/0)
|   |   |   |   |   |   |   |   |   logged_in >= 0.5 : normal (222/0)
|   |   |   |   |   |   |   |   dst_host_serror_rate >= 0.03 : normal (47/0)
|   |   |   |   |   |   |   service = private
|   |   |   |   |   |   |   |   same_srv_rate < 0.49 : normal (1/0)
|   |   |   |   |   |   |   |   same_srv_rate >= 0.49 : satan (87/0)
|   |   |   |   |   |   |   service = other
|   |   |   |   |   |   |   |   dst_host_diff_srv_rate < 0.08
|   |   |   |   |   |   |   |   |   dst_host_srv_count < 14.5 : satan (6/0)
|   |   |   |   |   |   |   |   |   dst_host_srv_count >= 14.5 : saint (1/0)
|   |   |   |   |   |   |   |   dst_host_diff_srv_rate >= 0.08 : satan (12/0)
|   |   |   |   |   |   |   service = smtp
|   |   |   |   |   |   |   |   dst_host_same_srv_rate < 0.2 : ipsweep (5/0)
|   |   |   |   |   |   |   |   dst_host_same_srv_rate >= 0.2 : normal (42/0)
|   |   |   |   |   |   |   service = telnet
|   |   |   |   |   |   |   |   dst_host_srv_rerror_rate < 0.26 : ipsweep (1/0)
|   |   |   |   |   |   |   |   dst_host_srv_rerror_rate >= 0.26 : mscan (9/0)
|   |   |   |   |   |   |   service = eco_i
|   |   |   |   |   |   |   |   dst_host_serror_rate < 0.12
|   |   |   |   |   |   |   |   |   srv_diff_host_rate < 0.5
|   |   |   |   |   |   |   |   |   |   dst_host_srv_diff_host_rate < 0.13
|   |   |   |   |   |   |   |   |   |   |   src_bytes < 14 : nmap (2/0)
|   |   |   |   |   |   |   |   |   |   |   src_bytes >= 14 : satan (2/0)
|   |   |   |   |   |   |   |   |   |   dst_host_srv_diff_host_rate >= 0.13
|   |   |   |   |   |   |   |   |   |   |   dst_host_srv_diff_host_rate < 0.59 : ipsweep (2/0)
|   |   |   |   |   |   |   |   |   |   |   dst_host_srv_diff_host_rate >= 0.59
|   |   |   |   |   |   |   |   |   |   |   |   dst_host_diff_srv_rate < 0.35 : portsweep (1/0)
|   |   |   |   |   |   |   |   |   |   |   |   dst_host_diff_srv_rate >= 0.35 : ipsweep (1/0)
|   |   |   |   |   |   |   |   |   srv_diff_host_rate >= 0.5
|   |   |   |   |   |   |   |   |   |   dst_host_same_srv_rate < 0.01 : portsweep (1/0)
|   |   |   |   |   |   |   |   |   |   dst_host_same_srv_rate >= 0.01 : ipsweep (1/0)
|   |   |   |   |   |   |   |   dst_host_serror_rate >= 0.12 : nmap (4/0)
|   |   |   |   |   |   |   service = X11 : normal (0/0)
|   |   |   |   |   |   |   service = ntp_u : normal (0/0)
|   |   |   |   |   |   |   service = ftp : normal (0/0)
|   |   |   |   |   |   |   service = IRC : normal (0/0)
|   |   |   |   |   |   |   service = time : normal (45/0)
|   |   |   |   |   |   |   service = finger
|   |   |   |   |   |   |   |   dst_host_rerror_rate < 0.13
|   |   |   |   |   |   |   |   |   count < 2 : normal (278/0)
|   |   |   |   |   |   |   |   |   count >= 2 : satan (4/0)
|   |   |   |   |   |   |   |   dst_host_rerror_rate >= 0.13
|   |   |   |   |   |   |   |   |   src_bytes < 3 : ipsweep (6/0)
|   |   |   |   |   |   |   |   |   src_bytes >= 3
|   |   |   |   |   |   |   |   |   |   srv_count < 1.5 : normal (3/0)
|   |   |   |   |   |   |   |   |   |   srv_count >= 1.5 : saint (1/0)
|   |   |   |   |   |   |   service = urp_i : normal (0/0)
|   |   |   |   |   |   |   service = auth : normal (55/0)
|   |   |   |   |   |   |   service = ecr_i : normal (0/0)
|   |   |   |   |   |   |   service = domain : normal (0/0)
|   |   |   |   |   |   |   service = pop_3 : normal (0/0)
|   |   |   |   |   |   |   service = urh_i : normal (0/0)
|   |   |   |   |   |   |   service = red_i : normal (0/0)
|   |   |   |   |   |   |   service = remote_job : normal (0/0)
|   |   |   |   |   |   |   service = tftp_u : normal (0/0)
|   |   |   |   |   |   |   service = ssh : normal (0/0)
|   |   |   |   |   |   |   service = shell : normal (0/0)
|   |   |   |   |   |   |   service = imap4
|   |   |   |   |   |   |   |   duration < 2.5 : imap (1/0)
|   |   |   |   |   |   |   |   duration >= 2.5 : mscan (1/0)
|   |   |   |   |   |   |   service = tim_i : normal (0/0)
|   |   |   |   |   |   |   service = link : normal (0/0)
