=== Run information ===

Scheme:       weka.classifiers.trees.J48 -C 0.25 -M 2
Relation:     train-80-weka.filters.unsupervised.attribute.Remove-R43
Instances:    118798
Attributes:   42
              duration
              protocol_type
              service
              flag
              src_bytes
              dst_bytes
              land
              wrong_fragment
              urgent
              hot
              num_failed_logins
              logged_in
              num_compromised
              root_shell
              su_attempted
              num_root
              num_file_creations
              num_shells
              num_access_files
              num_outbound_cmds
              is_host_login
              is_guest_login
              count
              srv_count
              serror_rate
              srv_serror_rate
              rerror_rate
              srv_rerror_rate
              same_srv_rate
              diff_srv_rate
              srv_diff_host_rate
              dst_host_count
              dst_host_srv_count
              dst_host_same_srv_rate
              dst_host_diff_srv_rate
              dst_host_same_src_port_rate
              dst_host_srv_diff_host_rate
              dst_host_serror_rate
              dst_host_srv_serror_rate
              dst_host_rerror_rate
              dst_host_srv_rerror_rate
              outcome
Test mode:    user supplied test set:  size unknown (reading incrementally)

=== Classifier model (full training set) ===

J48 pruned tree
------------------

same_srv_rate <= 0.49
|   dst_host_diff_srv_rate <= 0.15
|   |   src_bytes <= 0
|   |   |   srv_diff_host_rate <= 0.71
|   |   |   |   diff_srv_rate <= 0.36
|   |   |   |   |   dst_host_same_srv_rate <= 0.7: neptune (35448.0)
|   |   |   |   |   dst_host_same_srv_rate > 0.7
|   |   |   |   |   |   service = http: normal (11.0)
|   |   |   |   |   |   service = domain_u: neptune (0.0)
|   |   |   |   |   |   service = ftp_data: neptune (0.0)
|   |   |   |   |   |   service = private: neptune (16.0)
|   |   |   |   |   |   service = other: neptune (0.0)
|   |   |   |   |   |   service = smtp: neptune (0.0)
|   |   |   |   |   |   service = telnet: neptune (0.0)
|   |   |   |   |   |   service = eco_i: neptune (0.0)
|   |   |   |   |   |   service = X11: neptune (0.0)
|   |   |   |   |   |   service = ntp_u: neptune (0.0)
|   |   |   |   |   |   service = ftp: neptune (0.0)
|   |   |   |   |   |   service = IRC: neptune (0.0)
|   |   |   |   |   |   service = time: neptune (0.0)
|   |   |   |   |   |   service = finger: neptune (0.0)
|   |   |   |   |   |   service = urp_i: neptune (0.0)
|   |   |   |   |   |   service = auth: neptune (0.0)
|   |   |   |   |   |   service = ecr_i: neptune (0.0)
|   |   |   |   |   |   service = domain: neptune (0.0)
|   |   |   |   |   |   service = pop_3: neptune (0.0)
|   |   |   |   |   |   service = urh_i: neptune (0.0)
|   |   |   |   |   |   service = red_i: neptune (0.0)
|   |   |   |   |   |   service = remote_job: neptune (0.0)
|   |   |   |   |   |   service = tftp_u: neptune (0.0)
|   |   |   |   |   |   service = ssh: neptune (0.0)
|   |   |   |   |   |   service = shell: neptune (0.0)
|   |   |   |   |   |   service = imap4: neptune (0.0)
|   |   |   |   |   |   service = tim_i: neptune (0.0)
|   |   |   |   |   |   service = link: neptune (0.0)
|   |   |   |   |   |   service = uucp: neptune (0.0)
|   |   |   |   |   |   service = whois: neptune (0.0)
|   |   |   |   |   |   service = mtp: neptune (0.0)
|   |   |   |   |   |   service = Z39_50: neptune (0.0)
|   |   |   |   |   |   service = supdup: neptune (0.0)
|   |   |   |   |   |   service = login: neptune (0.0)
|   |   |   |   |   |   service = http_443: neptune (0.0)
|   |   |   |   |   |   service = bgp: neptune (0.0)
|   |   |   |   |   |   service = uucp_path: neptune (0.0)
|   |   |   |   |   |   service = sql_net: neptune (0.0)
|   |   |   |   |   |   service = hostnames: neptune (0.0)
|   |   |   |   |   |   service = iso_tsap: neptune (0.0)
|   |   |   |   |   |   service = nnsp: neptune (0.0)
|   |   |   |   |   |   service = csnet_ns: neptune (0.0)
|   |   |   |   |   |   service = vmnet: neptune (0.0)
|   |   |   |   |   |   service = kshell: neptune (0.0)
|   |   |   |   |   |   service = sunrpc: neptune (0.0)
|   |   |   |   |   |   service = efs: neptune (0.0)
|   |   |   |   |   |   service = klogin: neptune (0.0)
|   |   |   |   |   |   service = ldap: neptune (0.0)
|   |   |   |   |   |   service = pop_2: neptune (0.0)
|   |   |   |   |   |   service = netstat: neptune (0.0)
|   |   |   |   |   |   service = daytime: neptune (0.0)
|   |   |   |   |   |   service = exec: neptune (0.0)
|   |   |   |   |   |   service = discard: neptune (0.0)
|   |   |   |   |   |   service = netbios_dgm: neptune (0.0)
|   |   |   |   |   |   service = systat: neptune (0.0)
|   |   |   |   |   |   service = name: neptune (0.0)
|   |   |   |   |   |   service = ctf: neptune (0.0)
|   |   |   |   |   |   service = rje: neptune (0.0)
|   |   |   |   |   |   service = netbios_ns: neptune (0.0)
|   |   |   |   |   |   service = courier: neptune (0.0)
|   |   |   |   |   |   service = echo: neptune (0.0)
|   |   |   |   |   |   service = gopher: neptune (0.0)
|   |   |   |   |   |   service = netbios_ssn: neptune (0.0)
|   |   |   |   |   |   service = printer: neptune (0.0)
|   |   |   |   |   |   service = nntp: neptune (0.0)
|   |   |   |   |   |   service = http_2784: neptune (0.0)
|   |   |   |   |   |   service = aol: neptune (0.0)
|   |   |   |   |   |   service = pm_dump: neptune (0.0)
|   |   |   |   |   |   service = http_8001: neptune (0.0)
|   |   |   |   |   |   service = harvest: neptune (0.0)
|   |   |   |   diff_srv_rate > 0.36
|   |   |   |   |   dst_host_serror_rate <= 0.72
|   |   |   |   |   |   dst_host_same_src_port_rate <= 0.01
|   |   |   |   |   |   |   dst_host_srv_count <= 1
|   |   |   |   |   |   |   |   dst_host_diff_srv_rate <= 0.04: portsweep (3.0/1.0)
|   |   |   |   |   |   |   |   dst_host_diff_srv_rate > 0.04
|   |   |   |   |   |   |   |   |   dst_host_serror_rate <= 0.01: satan (35.0)
|   |   |   |   |   |   |   |   |   dst_host_serror_rate > 0.01
|   |   |   |   |   |   |   |   |   |   count <= 50: saint (2.0)
|   |   |   |   |   |   |   |   |   |   count > 50: satan (2.0)
|   |   |   |   |   |   |   dst_host_srv_count > 1
|   |   |   |   |   |   |   |   diff_srv_rate <= 0.71
|   |   |   |   |   |   |   |   |   dst_host_diff_srv_rate <= 0.07: normal (3.0/1.0)
|   |   |   |   |   |   |   |   |   dst_host_diff_srv_rate > 0.07: neptune (2.0)
|   |   |   |   |   |   |   |   diff_srv_rate > 0.71: mscan (22.0)
|   |   |   |   |   |   dst_host_same_src_port_rate > 0.01: portsweep (105.0/1.0)
|   |   |   |   |   dst_host_serror_rate > 0.72: neptune (194.0)
|   |   |   srv_diff_host_rate > 0.71
|   |   |   |   serror_rate <= 0.62: mscan (197.0/1.0)
|   |   |   |   serror_rate > 0.62: neptune (4.0/1.0)
|   |   src_bytes > 0
|   |   |   src_bytes <= 6
|   |   |   |   dst_host_count <= 84: normal (3.0)
|   |   |   |   dst_host_count > 84
|   |   |   |   |   dst_bytes <= 6: satan (110.0/2.0)
|   |   |   |   |   dst_bytes > 6
|   |   |   |   |   |   diff_srv_rate <= 0.83: normal (3.0)
|   |   |   |   |   |   diff_srv_rate > 0.83: satan (3.0)
|   |   |   src_bytes > 6
|   |   |   |   rerror_rate <= 0
|   |   |   |   |   duration <= 92
|   |   |   |   |   |   dst_host_count <= 14
|   |   |   |   |   |   |   dst_host_srv_diff_host_rate <= 0.12: normal (3.0)
|   |   |   |   |   |   |   dst_host_srv_diff_host_rate > 0.12: ipsweep (3.0/1.0)
|   |   |   |   |   |   dst_host_count > 14
|   |   |   |   |   |   |   dst_host_srv_count <= 249: normal (992.0/3.0)
|   |   |   |   |   |   |   dst_host_srv_count > 249
|   |   |   |   |   |   |   |   dst_bytes <= 146: snmpgetattack (2.0)
|   |   |   |   |   |   |   |   dst_bytes > 146: normal (2.0)
|   |   |   |   |   duration > 92
|   |   |   |   |   |   is_guest_login <= 0
|   |   |   |   |   |   |   duration <= 343: buffer_overflow (2.0/1.0)
|   |   |   |   |   |   |   duration > 343: normal (4.0)
|   |   |   |   |   |   is_guest_login > 0: warezmaster (7.0)
|   |   |   |   rerror_rate > 0
|   |   |   |   |   src_bytes <= 188
|   |   |   |   |   |   dst_host_diff_srv_rate <= 0.05: mscan (11.0)
|   |   |   |   |   |   dst_host_diff_srv_rate > 0.05: satan (6.0/1.0)
|   |   |   |   |   src_bytes > 188
|   |   |   |   |   |   serror_rate <= 0.39: normal (11.0/1.0)
|   |   |   |   |   |   serror_rate > 0.39: portsweep (2.0/1.0)
|   dst_host_diff_srv_rate > 0.15
|   |   src_bytes <= 27
|   |   |   serror_rate <= 0.53
|   |   |   |   rerror_rate <= 0.99
|   |   |   |   |   srv_count <= 1
|   |   |   |   |   |   count <= 9
|   |   |   |   |   |   |   dst_host_srv_rerror_rate <= 0.5
|   |   |   |   |   |   |   |   dst_host_count <= 132: normal (4.0/1.0)
|   |   |   |   |   |   |   |   dst_host_count > 132
|   |   |   |   |   |   |   |   |   dst_bytes <= 122
|   |   |   |   |   |   |   |   |   |   count <= 8: satan (25.0/3.0)
|   |   |   |   |   |   |   |   |   |   count > 8
|   |   |   |   |   |   |   |   |   |   |   diff_srv_rate <= 0.5: satan (3.0)
|   |   |   |   |   |   |   |   |   |   |   diff_srv_rate > 0.5
|   |   |   |   |   |   |   |   |   |   |   |   diff_srv_rate <= 0.67: normal (3.0)
|   |   |   |   |   |   |   |   |   |   |   |   diff_srv_rate > 0.67: satan (2.0)
|   |   |   |   |   |   |   |   |   dst_bytes > 122: normal (2.0)
|   |   |   |   |   |   |   dst_host_srv_rerror_rate > 0.5
|   |   |   |   |   |   |   |   dst_host_same_srv_rate <= 0.01
|   |   |   |   |   |   |   |   |   dst_host_same_srv_rate <= 0
|   |   |   |   |   |   |   |   |   |   dst_host_serror_rate <= 0.07: portsweep (9.0)
|   |   |   |   |   |   |   |   |   |   dst_host_serror_rate > 0.07: satan (2.0)
|   |   |   |   |   |   |   |   |   dst_host_same_srv_rate > 0: satan (3.0)
|   |   |   |   |   |   |   |   dst_host_same_srv_rate > 0.01: saint (3.0)
|   |   |   |   |   |   count > 9
|   |   |   |   |   |   |   dst_host_rerror_rate <= 0.92
|   |   |   |   |   |   |   |   dst_host_count <= 121
|   |   |   |   |   |   |   |   |   dst_host_serror_rate <= 0.01: satan (6.0/1.0)
|   |   |   |   |   |   |   |   |   dst_host_serror_rate > 0.01: portsweep (5.0)
|   |   |   |   |   |   |   |   dst_host_count > 121
|   |   |   |   |   |   |   |   |   diff_srv_rate <= 0.58
|   |   |   |   |   |   |   |   |   |   protocol_type = tcp: portsweep (4.0)
|   |   |   |   |   |   |   |   |   |   protocol_type = udp: satan (107.0/6.0)
|   |   |   |   |   |   |   |   |   |   protocol_type = icmp: satan (0.0)
|   |   |   |   |   |   |   |   |   diff_srv_rate > 0.58
|   |   |   |   |   |   |   |   |   |   dst_host_serror_rate <= 0.03: satan (575.0)
|   |   |   |   |   |   |   |   |   |   dst_host_serror_rate > 0.03
|   |   |   |   |   |   |   |   |   |   |   dst_host_rerror_rate <= 0.58
|   |   |   |   |   |   |   |   |   |   |   |   service = http: saint (0.0)
|   |   |   |   |   |   |   |   |   |   |   |   service = domain_u: saint (0.0)
|   |   |   |   |   |   |   |   |   |   |   |   service = ftp_data: saint (0.0)
|   |   |   |   |   |   |   |   |   |   |   |   service = private: saint (10.0/1.0)
|   |   |   |   |   |   |   |   |   |   |   |   service = other: satan (5.0)
|   |   |   |   |   |   |   |   |   |   |   |   service = smtp: saint (0.0)
|   |   |   |   |   |   |   |   |   |   |   |   service = telnet: saint (0.0)
|   |   |   |   |   |   |   |   |   |   |   |   service = eco_i: saint (0.0)
|   |   |   |   |   |   |   |   |   |   |   |   service = X11: saint (0.0)
|   |   |   |   |   |   |   |   |   |   |   |   service = ntp_u: saint (0.0)
|   |   |   |   |   |   |   |   |   |   |   |   service = ftp: saint (0.0)
|   |   |   |   |   |   |   |   |   |   |   |   service = IRC: saint (0.0)
|   |   |   |   |   |   |   |   |   |   |   |   service = time: saint (0.0)
|   |   |   |   |   |   |   |   |   |   |   |   service = finger: saint (1.0)
|   |   |   |   |   |   |   |   |   |   |   |   service = urp_i: saint (0.0)
|   |   |   |   |   |   |   |   |   |   |   |   service = auth: saint (0.0)
|   |   |   |   |   |   |   |   |   |   |   |   service = ecr_i: saint (0.0)
|   |   |   |   |   |   |   |   |   |   |   |   service = domain: saint (0.0)
|   |   |   |   |   |   |   |   |   |   |   |   service = pop_3: saint (0.0)
|   |   |   |   |   |   |   |   |   |   |   |   service = urh_i: saint (0.0)
|   |   |   |   |   |   |   |   |   |   |   |   service = red_i: saint (0.0)
|   |   |   |   |   |   |   |   |   |   |   |   service = remote_job: saint (0.0)
|   |   |   |   |   |   |   |   |   |   |   |   service = tftp_u: saint (0.0)
|   |   |   |   |   |   |   |   |   |   |   |   service = ssh: saint (0.0)
|   |   |   |   |   |   |   |   |   |   |   |   service = shell: saint (0.0)
|   |   |   |   |   |   |   |   |   |   |   |   service = imap4: saint (0.0)
|   |   |   |   |   |   |   |   |   |   |   |   service = tim_i: saint (0.0)
|   |   |   |   |   |   |   |   |   |   |   |   service = link: saint (0.0)
|   |   |   |   |   |   |   |   |   |   |   |   service = uucp: saint (0.0)
|   |   |   |   |   |   |   |   |   |   |   |   service = whois: saint (0.0)
|   |   |   |   |   |   |   |   |   |   |   |   service = mtp: saint (0.0)
|   |   |   |   |   |   |   |   |   |   |   |   service = Z39_50: saint (0.0)
|   |   |   |   |   |   |   |   |   |   |   |   service = supdup: saint (0.0)
|   |   |   |   |   |   |   |   |   |   |   |   service = login: saint (0.0)
|   |   |   |   |   |   |   |   |   |   |   |   service = http_443: saint (0.0)
|   |   |   |   |   |   |   |   |   |   |   |   service = bgp: saint (0.0)
|   |   |   |   |   |   |   |   |   |   |   |   service = uucp_path: saint (0.0)
|   |   |   |   |   |   |   |   |   |   |   |   service = sql_net: saint (0.0)
|   |   |   |   |   |   |   |   |   |   |   |   service = hostnames: saint (0.0)
|   |   |   |   |   |   |   |   |   |   |   |   service = iso_tsap: saint (0.0)
|   |   |   |   |   |   |   |   |   |   |   |   service = nnsp: saint (0.0)
|   |   |   |   |   |   |   |   |   |   |   |   service = csnet_ns: saint (0.0)
|   |   |   |   |   |   |   |   |   |   |   |   service = vmnet: saint (0.0)
|   |   |   |   |   |   |   |   |   |   |   |   service = kshell: saint (0.0)
|   |   |   |   |   |   |   |   |   |   |   |   service = sunrpc: saint (0.0)
|   |   |   |   |   |   |   |   |   |   |   |   service = efs: saint (0.0)
|   |   |   |   |   |   |   |   |   |   |   |   service = klogin: saint (0.0)
|   |   |   |   |   |   |   |   |   |   |   |   service = ldap: saint (0.0)
|   |   |   |   |   |   |   |   |   |   |   |   service = pop_2: saint (0.0)
|   |   |   |   |   |   |   |   |   |   |   |   service = netstat: saint (0.0)
|   |   |   |   |   |   |   |   |   |   |   |   service = daytime: saint (0.0)
|   |   |   |   |   |   |   |   |   |   |   |   service = exec: saint (0.0)
|   |   |   |   |   |   |   |   |   |   |   |   service = discard: saint (0.0)
|   |   |   |   |   |   |   |   |   |   |   |   service = netbios_dgm: saint (0.0)
|   |   |   |   |   |   |   |   |   |   |   |   service = systat: saint (0.0)
|   |   |   |   |   |   |   |   |   |   |   |   service = name: saint (0.0)
|   |   |   |   |   |   |   |   |   |   |   |   service = ctf: saint (0.0)
|   |   |   |   |   |   |   |   |   |   |   |   service = rje: saint (0.0)
|   |   |   |   |   |   |   |   |   |   |   |   service = netbios_ns: saint (0.0)
|   |   |   |   |   |   |   |   |   |   |   |   service = courier: saint (0.0)
|   |   |   |   |   |   |   |   |   |   |   |   service = echo: saint (0.0)
|   |   |   |   |   |   |   |   |   |   |   |   service = gopher: saint (0.0)
|   |   |   |   |   |   |   |   |   |   |   |   service = netbios_ssn: saint (0.0)
|   |   |   |   |   |   |   |   |   |   |   |   service = printer: saint (0.0)
|   |   |   |   |   |   |   |   |   |   |   |   service = nntp: saint (0.0)
|   |   |   |   |   |   |   |   |   |   |   |   service = http_2784: saint (0.0)
|   |   |   |   |   |   |   |   |   |   |   |   service = aol: saint (0.0)
|   |   |   |   |   |   |   |   |   |   |   |   service = pm_dump: saint (0.0)
|   |   |   |   |   |   |   |   |   |   |   |   service = http_8001: saint (0.0)
|   |   |   |   |   |   |   |   |   |   |   |   service = harvest: saint (0.0)
|   |   |   |   |   |   |   |   |   |   |   dst_host_rerror_rate > 0.58
|   |   |   |   |   |   |   |   |   |   |   |   rerror_rate <= 0.89: satan (730.0)
|   |   |   |   |   |   |   |   |   |   |   |   rerror_rate > 0.89
|   |   |   |   |   |   |   |   |   |   |   |   |   count <= 442
|   |   |   |   |   |   |   |   |   |   |   |   |   |   dst_host_diff_srv_rate <= 0.87
|   |   |   |   |   |   |   |   |   |   |   |   |   |   |   same_srv_rate <= 0: saint (3.0)
|   |   |   |   |   |   |   |   |   |   |   |   |   |   |   same_srv_rate > 0: satan (6.0)
|   |   |   |   |   |   |   |   |   |   |   |   |   |   dst_host_diff_srv_rate > 0.87: satan (316.0/2.0)
|   |   |   |   |   |   |   |   |   |   |   |   |   count > 442
|   |   |   |   |   |   |   |   |   |   |   |   |   |   dst_host_serror_rate <= 0.05: saint (6.0)
|   |   |   |   |   |   |   |   |   |   |   |   |   |   dst_host_serror_rate > 0.05: satan (219.0/18.0)
|   |   |   |   |   |   |   dst_host_rerror_rate > 0.92
|   |   |   |   |   |   |   |   serror_rate <= 0.06
|   |   |   |   |   |   |   |   |   serror_rate <= 0.03: satan (110.0/6.0)
|   |   |   |   |   |   |   |   |   serror_rate > 0.03
|   |   |   |   |   |   |   |   |   |   dst_host_serror_rate <= 0.01: satan (20.0)
|   |   |   |   |   |   |   |   |   |   dst_host_serror_rate > 0.01
|   |   |   |   |   |   |   |   |   |   |   count <= 427: satan (10.0/1.0)
|   |   |   |   |   |   |   |   |   |   |   count > 427
|   |   |   |   |   |   |   |   |   |   |   |   count <= 474: saint (32.0)
|   |   |   |   |   |   |   |   |   |   |   |   count > 474
|   |   |   |   |   |   |   |   |   |   |   |   |   duration <= 3
|   |   |   |   |   |   |   |   |   |   |   |   |   |   dst_host_rerror_rate <= 0.93
|   |   |   |   |   |   |   |   |   |   |   |   |   |   |   count <= 506
|   |   |   |   |   |   |   |   |   |   |   |   |   |   |   |   serror_rate <= 0.05: satan (6.0/1.0)
|   |   |   |   |   |   |   |   |   |   |   |   |   |   |   |   serror_rate > 0.05: saint (5.0/1.0)
|   |   |   |   |   |   |   |   |   |   |   |   |   |   |   count > 506: satan (13.0/2.0)
|   |   |   |   |   |   |   |   |   |   |   |   |   |   dst_host_rerror_rate > 0.93
|   |   |   |   |   |   |   |   |   |   |   |   |   |   |   rerror_rate <= 0.93: satan (3.0)
|   |   |   |   |   |   |   |   |   |   |   |   |   |   |   rerror_rate > 0.93
|   |   |   |   |   |   |   |   |   |   |   |   |   |   |   |   count <= 480: satan (3.0)
|   |   |   |   |   |   |   |   |   |   |   |   |   |   |   |   count > 480
|   |   |   |   |   |   |   |   |   |   |   |   |   |   |   |   |   count <= 506: saint (31.0/6.0)
|   |   |   |   |   |   |   |   |   |   |   |   |   |   |   |   |   count > 506
|   |   |   |   |   |   |   |   |   |   |   |   |   |   |   |   |   |   count <= 509: satan (14.0/1.0)
|   |   |   |   |   |   |   |   |   |   |   |   |   |   |   |   |   |   count > 509
|   |   |   |   |   |   |   |   |   |   |   |   |   |   |   |   |   |   |   count <= 510: saint (10.0/1.0)
|   |   |   |   |   |   |   |   |   |   |   |   |   |   |   |   |   |   |   count > 510
|   |   |   |   |   |   |   |   |   |   |   |   |   |   |   |   |   |   |   |   dst_host_serror_rate <= 0.03: satan (9.0)
|   |   |   |   |   |   |   |   |   |   |   |   |   |   |   |   |   |   |   |   dst_host_serror_rate > 0.03: saint (14.0/5.0)
|   |   |   |   |   |   |   |   |   |   |   |   |   duration > 3: saint (2.0)
|   |   |   |   |   |   |   |   serror_rate > 0.06
|   |   |   |   |   |   |   |   |   service = http: satan (0.0)
|   |   |   |   |   |   |   |   |   service = domain_u: satan (0.0)
|   |   |   |   |   |   |   |   |   service = ftp_data: satan (0.0)
|   |   |   |   |   |   |   |   |   service = private: saint (10.0)
|   |   |   |   |   |   |   |   |   service = other: satan (168.0/7.0)
|   |   |   |   |   |   |   |   |   service = smtp: satan (0.0)
|   |   |   |   |   |   |   |   |   service = telnet: satan (0.0)
|   |   |   |   |   |   |   |   |   service = eco_i: satan (0.0)
|   |   |   |   |   |   |   |   |   service = X11: satan (0.0)
|   |   |   |   |   |   |   |   |   service = ntp_u: satan (0.0)
|   |   |   |   |   |   |   |   |   service = ftp: satan (0.0)
|   |   |   |   |   |   |   |   |   service = IRC: satan (1.0)
|   |   |   |   |   |   |   |   |   service = time: satan (0.0)
|   |   |   |   |   |   |   |   |   service = finger: satan (0.0)
|   |   |   |   |   |   |   |   |   service = urp_i: satan (0.0)
|   |   |   |   |   |   |   |   |   service = auth: satan (0.0)
|   |   |   |   |   |   |   |   |   service = ecr_i: satan (0.0)
|   |   |   |   |   |   |   |   |   service = domain: satan (0.0)
|   |   |   |   |   |   |   |   |   service = pop_3: satan (0.0)
|   |   |   |   |   |   |   |   |   service = urh_i: satan (0.0)
|   |   |   |   |   |   |   |   |   service = red_i: satan (0.0)
|   |   |   |   |   |   |   |   |   service = remote_job: satan (0.0)
|   |   |   |   |   |   |   |   |   service = tftp_u: satan (0.0)
|   |   |   |   |   |   |   |   |   service = ssh: satan (0.0)
|   |   |   |   |   |   |   |   |   service = shell: satan (0.0)
|   |   |   |   |   |   |   |   |   service = imap4: satan (0.0)
|   |   |   |   |   |   |   |   |   service = tim_i: satan (0.0)
|   |   |   |   |   |   |   |   |   service = link: satan (1.0)
|   |   |   |   |   |   |   |   |   service = uucp: satan (0.0)
|   |   |   |   |   |   |   |   |   service = whois: satan (0.0)
|   |   |   |   |   |   |   |   |   service = mtp: satan (0.0)
|   |   |   |   |   |   |   |   |   service = Z39_50: satan (0.0)
|   |   |   |   |   |   |   |   |   service = supdup: satan (0.0)
|   |   |   |   |   |   |   |   |   service = login: saint (1.0)
|   |   |   |   |   |   |   |   |   service = http_443: satan (0.0)
|   |   |   |   |   |   |   |   |   service = bgp: satan (0.0)
|   |   |   |   |   |   |   |   |   service = uucp_path: satan (0.0)
|   |   |   |   |   |   |   |   |   service = sql_net: satan (0.0)
|   |   |   |   |   |   |   |   |   service = hostnames: satan (0.0)
|   |   |   |   |   |   |   |   |   service = iso_tsap: satan (0.0)
|   |   |   |   |   |   |   |   |   service = nnsp: satan (0.0)
|   |   |   |   |   |   |   |   |   service = csnet_ns: satan (0.0)
|   |   |   |   |   |   |   |   |   service = vmnet: satan (0.0)
|   |   |   |   |   |   |   |   |   service = kshell: satan (0.0)
|   |   |   |   |   |   |   |   |   service = sunrpc: satan (0.0)
|   |   |   |   |   |   |   |   |   service = efs: satan (0.0)
|   |   |   |   |   |   |   |   |   service = klogin: satan (0.0)
|   |   |   |   |   |   |   |   |   service = ldap: satan (0.0)
|   |   |   |   |   |   |   |   |   service = pop_2: satan (1.0)
|   |   |   |   |   |   |   |   |   service = netstat: satan (0.0)
|   |   |   |   |   |   |   |   |   service = daytime: satan (0.0)
|   |   |   |   |   |   |   |   |   service = exec: satan (0.0)
|   |   |   |   |   |   |   |   |   service = discard: satan (0.0)
|   |   |   |   |   |   |   |   |   service = netbios_dgm: satan (0.0)
|   |   |   |   |   |   |   |   |   service = systat: satan (0.0)
|   |   |   |   |   |   |   |   |   service = name: saint (1.0)
|   |   |   |   |   |   |   |   |   service = ctf: satan (0.0)
|   |   |   |   |   |   |   |   |   service = rje: satan (0.0)
|   |   |   |   |   |   |   |   |   service = netbios_ns: satan (0.0)
|   |   |   |   |   |   |   |   |   service = courier: satan (0.0)
|   |   |   |   |   |   |   |   |   service = echo: satan (0.0)
|   |   |   |   |   |   |   |   |   service = gopher: satan (2.0)
|   |   |   |   |   |   |   |   |   service = netbios_ssn: satan (0.0)
|   |   |   |   |   |   |   |   |   service = printer: satan (0.0)
|   |   |   |   |   |   |   |   |   service = nntp: satan (0.0)
|   |   |   |   |   |   |   |   |   service = http_2784: satan (0.0)
|   |   |   |   |   |   |   |   |   service = aol: satan (0.0)
|   |   |   |   |   |   |   |   |   service = pm_dump: satan (0.0)
|   |   |   |   |   |   |   |   |   service = http_8001: satan (0.0)
|   |   |   |   |   |   |   |   |   service = harvest: satan (0.0)
|   |   |   |   |   srv_count > 1
|   |   |   |   |   |   srv_diff_host_rate <= 0.5
|   |   |   |   |   |   |   flag = REJ: satan (12.0/1.0)
|   |   |   |   |   |   |   flag = SF
|   |   |   |   |   |   |   |   dst_bytes <= 0
|   |   |   |   |   |   |   |   |   diff_srv_rate <= 0.39
|   |   |   |   |   |   |   |   |   |   dst_host_diff_srv_rate <= 0.49: satan (206.0/2.0)
|   |   |   |   |   |   |   |   |   |   dst_host_diff_srv_rate > 0.49
|   |   |   |   |   |   |   |   |   |   |   dst_host_rerror_rate <= 0.16: normal (10.0/1.0)
|   |   |   |   |   |   |   |   |   |   |   dst_host_rerror_rate > 0.16: satan (137.0/2.0)
|   |   |   |   |   |   |   |   |   diff_srv_rate > 0.39
|   |   |   |   |   |   |   |   |   |   count <= 19: satan (48.0/2.0)
|   |   |   |   |   |   |   |   |   |   count > 19
|   |   |   |   |   |   |   |   |   |   |   dst_host_diff_srv_rate <= 0.45: satan (2.0)
|   |   |   |   |   |   |   |   |   |   |   dst_host_diff_srv_rate > 0.45: normal (62.0/7.0)
|   |   |   |   |   |   |   |   dst_bytes > 0
|   |   |   |   |   |   |   |   |   dst_host_serror_rate <= 0.11: normal (23.0)
|   |   |   |   |   |   |   |   |   dst_host_serror_rate > 0.11: satan (30.0)
|   |   |   |   |   |   |   flag = RSTO: satan (0.0)
|   |   |   |   |   |   |   flag = S0: satan (4.0/1.0)
|   |   |   |   |   |   |   flag = S3: satan (0.0)
|   |   |   |   |   |   |   flag = RSTR: portsweep (2.0)
|   |   |   |   |   |   |   flag = S1: satan (0.0)
|   |   |   |   |   |   |   flag = S2: satan (0.0)
|   |   |   |   |   |   |   flag = OTH: satan (0.0)
|   |   |   |   |   |   |   flag = RSTOS0: portsweep (3.0)
|   |   |   |   |   |   |   flag = SH: satan (0.0)
|   |   |   |   |   |   srv_diff_host_rate > 0.5
|   |   |   |   |   |   |   src_bytes <= 2
|   |   |   |   |   |   |   |   serror_rate <= 0.02: mscan (6.0)
|   |   |   |   |   |   |   |   serror_rate > 0.02: land (2.0/1.0)
|   |   |   |   |   |   |   src_bytes > 2: satan (4.0)
|   |   |   |   rerror_rate > 0.99
|   |   |   |   |   dst_host_same_src_port_rate <= 0.26
|   |   |   |   |   |   srv_diff_host_rate <= 0.47
|   |   |   |   |   |   |   diff_srv_rate <= 0.68: neptune (29.0)
|   |   |   |   |   |   |   diff_srv_rate > 0.68: satan (38.0/1.0)
|   |   |   |   |   |   srv_diff_host_rate > 0.47: mscan (11.0)
|   |   |   |   |   dst_host_same_src_port_rate > 0.26
|   |   |   |   |   |   dst_host_count <= 208
|   |   |   |   |   |   |   srv_count <= 1: portsweep (10.0)
|   |   |   |   |   |   |   srv_count > 1: normal (11.0)
|   |   |   |   |   |   dst_host_count > 208: portsweep (191.0)
|   |   |   serror_rate > 0.53
|   |   |   |   rerror_rate <= 0.01
|   |   |   |   |   flag = REJ: neptune (0.0)
|   |   |   |   |   flag = SF: neptune (0.0)
|   |   |   |   |   flag = RSTO: neptune (0.0)
|   |   |   |   |   flag = S0: neptune (130.0)
|   |   |   |   |   flag = S3: neptune (0.0)
|   |   |   |   |   flag = RSTR: neptune (0.0)
|   |   |   |   |   flag = S1: neptune (0.0)
|   |   |   |   |   flag = S2: neptune (0.0)
|   |   |   |   |   flag = OTH: neptune (0.0)
|   |   |   |   |   flag = RSTOS0: neptune (0.0)
|   |   |   |   |   flag = SH: nmap (4.0)
|   |   |   |   rerror_rate > 0.01: portsweep (55.0)
|   |   src_bytes > 27
|   |   |   wrong_fragment <= 1
|   |   |   |   rerror_rate <= 0.36: normal (396.0/1.0)
|   |   |   |   rerror_rate > 0.36
|   |   |   |   |   diff_srv_rate <= 0.9: mscan (5.0)
|   |   |   |   |   diff_srv_rate > 0.9: satan (6.0/1.0)
|   |   |   wrong_fragment > 1: teardrop (71.0)
same_srv_rate > 0.49
|   dst_host_srv_diff_host_rate <= 0.24
|   |   flag = REJ
|   |   |   dst_host_srv_count <= 1
|   |   |   |   dst_host_count <= 215
|   |   |   |   |   dst_host_diff_srv_rate <= 0.83: normal (13.0/3.0)
|   |   |   |   |   dst_host_diff_srv_rate > 0.83: ipsweep (91.0/1.0)
|   |   |   |   dst_host_count > 215
|   |   |   |   |   dst_host_same_src_port_rate <= 0
|   |   |   |   |   |   service = http: neptune (1.0)
|   |   |   |   |   |   service = domain_u: normal (0.0)
|   |   |   |   |   |   service = ftp_data: normal (0.0)
|   |   |   |   |   |   service = private
|   |   |   |   |   |   |   dst_host_diff_srv_rate <= 0.04: portsweep (2.0)
|   |   |   |   |   |   |   dst_host_diff_srv_rate > 0.04: satan (3.0/1.0)
|   |   |   |   |   |   service = other: httptunnel (2.0)
|   |   |   |   |   |   service = smtp: normal (1.0)
|   |   |   |   |   |   service = telnet: normal (0.0)
|   |   |   |   |   |   service = eco_i: normal (0.0)
|   |   |   |   |   |   service = X11: normal (2.0/1.0)
|   |   |   |   |   |   service = ntp_u: normal (0.0)
|   |   |   |   |   |   service = ftp: normal (0.0)
|   |   |   |   |   |   service = IRC: normal (0.0)
|   |   |   |   |   |   service = time: normal (0.0)
|   |   |   |   |   |   service = finger: normal (0.0)
|   |   |   |   |   |   service = urp_i: normal (0.0)
|   |   |   |   |   |   service = auth: normal (1.0)
|   |   |   |   |   |   service = ecr_i: normal (0.0)
|   |   |   |   |   |   service = domain: normal (0.0)
|   |   |   |   |   |   service = pop_3: normal (0.0)
|   |   |   |   |   |   service = urh_i: normal (0.0)
|   |   |   |   |   |   service = red_i: normal (0.0)
|   |   |   |   |   |   service = remote_job: normal (0.0)
|   |   |   |   |   |   service = tftp_u: normal (0.0)
|   |   |   |   |   |   service = ssh: normal (0.0)
|   |   |   |   |   |   service = shell: normal (0.0)
|   |   |   |   |   |   service = imap4: normal (0.0)
|   |   |   |   |   |   service = tim_i: normal (0.0)
|   |   |   |   |   |   service = link: normal (0.0)
|   |   |   |   |   |   service = uucp: normal (0.0)
|   |   |   |   |   |   service = whois: normal (0.0)
|   |   |   |   |   |   service = mtp: normal (0.0)
|   |   |   |   |   |   service = Z39_50: normal (0.0)
|   |   |   |   |   |   service = supdup: normal (0.0)
|   |   |   |   |   |   service = login: normal (0.0)
|   |   |   |   |   |   service = http_443: normal (0.0)
|   |   |   |   |   |   service = bgp: normal (0.0)
|   |   |   |   |   |   service = uucp_path: normal (0.0)
|   |   |   |   |   |   service = sql_net: normal (0.0)
|   |   |   |   |   |   service = hostnames: normal (0.0)
|   |   |   |   |   |   service = iso_tsap: normal (0.0)
|   |   |   |   |   |   service = nnsp: normal (0.0)
|   |   |   |   |   |   service = csnet_ns: normal (0.0)
|   |   |   |   |   |   service = vmnet: normal (0.0)
|   |   |   |   |   |   service = kshell: normal (0.0)
|   |   |   |   |   |   service = sunrpc: normal (0.0)
|   |   |   |   |   |   service = efs: normal (0.0)
|   |   |   |   |   |   service = klogin: normal (0.0)
|   |   |   |   |   |   service = ldap: normal (0.0)
|   |   |   |   |   |   service = pop_2: normal (0.0)
|   |   |   |   |   |   service = netstat: normal (0.0)
|   |   |   |   |   |   service = daytime: normal (0.0)
|   |   |   |   |   |   service = exec: normal (0.0)
|   |   |   |   |   |   service = discard: normal (0.0)
|   |   |   |   |   |   service = netbios_dgm: normal (0.0)
|   |   |   |   |   |   service = systat: normal (0.0)
|   |   |   |   |   |   service = name: normal (0.0)
|   |   |   |   |   |   service = ctf: normal (0.0)
|   |   |   |   |   |   service = rje: normal (0.0)
|   |   |   |   |   |   service = netbios_ns: normal (0.0)
|   |   |   |   |   |   service = courier: normal (0.0)
|   |   |   |   |   |   service = echo: normal (0.0)
|   |   |   |   |   |   service = gopher: normal (0.0)
|   |   |   |   |   |   service = netbios_ssn: normal (0.0)
|   |   |   |   |   |   service = printer: normal (0.0)
|   |   |   |   |   |   service = nntp: normal (0.0)
|   |   |   |   |   |   service = http_2784: normal (0.0)
|   |   |   |   |   |   service = aol: normal (0.0)
|   |   |   |   |   |   service = pm_dump: normal (0.0)
|   |   |   |   |   |   service = http_8001: normal (0.0)
|   |   |   |   |   |   service = harvest: normal (0.0)
|   |   |   |   |   dst_host_same_src_port_rate > 0: portsweep (316.0)
|   |   |   dst_host_srv_count > 1
|   |   |   |   dst_host_same_srv_rate <= 0.51
|   |   |   |   |   service = http
|   |   |   |   |   |   same_srv_rate <= 0.97: neptune (8.0/1.0)
|   |   |   |   |   |   same_srv_rate > 0.97: normal (37.0/1.0)
|   |   |   |   |   service = domain_u: mscan (0.0)
|   |   |   |   |   service = ftp_data: portsweep (3.0/1.0)
|   |   |   |   |   service = private: neptune (14.0)
|   |   |   |   |   service = other: httptunnel (81.0/1.0)
|   |   |   |   |   service = smtp: normal (9.0)
|   |   |   |   |   service = telnet: mscan (52.0)
|   |   |   |   |   service = eco_i: mscan (0.0)
|   |   |   |   |   service = X11: normal (7.0)
|   |   |   |   |   service = ntp_u: mscan (0.0)
|   |   |   |   |   service = ftp: mscan (0.0)
|   |   |   |   |   service = IRC: normal (1.0)
|   |   |   |   |   service = time: mscan (0.0)
|   |   |   |   |   service = finger: mscan (0.0)
|   |   |   |   |   service = urp_i: mscan (0.0)
|   |   |   |   |   service = auth: normal (12.0)
|   |   |   |   |   service = ecr_i: mscan (0.0)
|   |   |   |   |   service = domain: mscan (0.0)
|   |   |   |   |   service = pop_3: mscan (8.0)
|   |   |   |   |   service = urh_i: mscan (0.0)
|   |   |   |   |   service = red_i: mscan (0.0)
|   |   |   |   |   service = remote_job: mscan (0.0)
|   |   |   |   |   service = tftp_u: mscan (0.0)
|   |   |   |   |   service = ssh: mscan (0.0)
|   |   |   |   |   service = shell: mscan (0.0)
|   |   |   |   |   service = imap4: mscan (44.0)
|   |   |   |   |   service = tim_i: mscan (0.0)
|   |   |   |   |   service = link: mscan (0.0)
|   |   |   |   |   service = uucp: mscan (0.0)
|   |   |   |   |   service = whois: mscan (0.0)
|   |   |   |   |   service = mtp: mscan (0.0)
|   |   |   |   |   service = Z39_50: mscan (0.0)
|   |   |   |   |   service = supdup: mscan (0.0)
|   |   |   |   |   service = login: mscan (0.0)
|   |   |   |   |   service = http_443: mscan (0.0)
|   |   |   |   |   service = bgp: mscan (0.0)
|   |   |   |   |   service = uucp_path: mscan (0.0)
|   |   |   |   |   service = sql_net: mscan (0.0)
|   |   |   |   |   service = hostnames: mscan (0.0)
|   |   |   |   |   service = iso_tsap: mscan (0.0)
|   |   |   |   |   service = nnsp: mscan (0.0)
|   |   |   |   |   service = csnet_ns: mscan (0.0)
|   |   |   |   |   service = vmnet: mscan (0.0)
|   |   |   |   |   service = kshell: mscan (0.0)
|   |   |   |   |   service = sunrpc: mscan (44.0)
|   |   |   |   |   service = efs: mscan (0.0)
|   |   |   |   |   service = klogin: mscan (0.0)
|   |   |   |   |   service = ldap: mscan (0.0)
|   |   |   |   |   service = pop_2: mscan (0.0)
|   |   |   |   |   service = netstat: mscan (0.0)
|   |   |   |   |   service = daytime: mscan (0.0)
|   |   |   |   |   service = exec: mscan (0.0)
|   |   |   |   |   service = discard: mscan (0.0)
|   |   |   |   |   service = netbios_dgm: mscan (0.0)
|   |   |   |   |   service = systat: mscan (0.0)
|   |   |   |   |   service = name: mscan (0.0)
|   |   |   |   |   service = ctf: mscan (0.0)
|   |   |   |   |   service = rje: mscan (0.0)
|   |   |   |   |   service = netbios_ns: mscan (0.0)
|   |   |   |   |   service = courier: mscan (0.0)
|   |   |   |   |   service = echo: mscan (0.0)
|   |   |   |   |   service = gopher: mscan (0.0)
|   |   |   |   |   service = netbios_ssn: mscan (0.0)
|   |   |   |   |   service = printer: mscan (0.0)
|   |   |   |   |   service = nntp: mscan (0.0)
|   |   |   |   |   service = http_2784: mscan (0.0)
|   |   |   |   |   service = aol: mscan (0.0)
|   |   |   |   |   service = pm_dump: mscan (0.0)
|   |   |   |   |   service = http_8001: mscan (0.0)
|   |   |   |   |   service = harvest: mscan (0.0)
|   |   |   |   dst_host_same_srv_rate > 0.51
|   |   |   |   |   service = http: normal (1858.0/1.0)
|   |   |   |   |   service = domain_u: normal (0.0)
|   |   |   |   |   service = ftp_data: ipsweep (8.0)
|   |   |   |   |   service = private: normal (0.0)
|   |   |   |   |   service = other: normal (31.0)
|   |   |   |   |   service = smtp: normal (3.0)
|   |   |   |   |   service = telnet: normal (0.0)
|   |   |   |   |   service = eco_i: normal (0.0)
|   |   |   |   |   service = X11: normal (0.0)
|   |   |   |   |   service = ntp_u: normal (0.0)
|   |   |   |   |   service = ftp: normal (0.0)
|   |   |   |   |   service = IRC: normal (0.0)
|   |   |   |   |   service = time: normal (0.0)
|   |   |   |   |   service = finger: normal (0.0)
|   |   |   |   |   service = urp_i: normal (0.0)
|   |   |   |   |   service = auth: normal (0.0)
|   |   |   |   |   service = ecr_i: normal (0.0)
|   |   |   |   |   service = domain: normal (0.0)
|   |   |   |   |   service = pop_3: normal (0.0)
|   |   |   |   |   service = urh_i: normal (0.0)
|   |   |   |   |   service = red_i: normal (0.0)
|   |   |   |   |   service = remote_job: normal (0.0)
|   |   |   |   |   service = tftp_u: normal (0.0)
|   |   |   |   |   service = ssh: normal (0.0)
|   |   |   |   |   service = shell: normal (0.0)
|   |   |   |   |   service = imap4: normal (0.0)
|   |   |   |   |   service = tim_i: normal (0.0)
|   |   |   |   |   service = link: normal (0.0)
|   |   |   |   |   service = uucp: normal (0.0)
|   |   |   |   |   service = whois: normal (0.0)
|   |   |   |   |   service = mtp: normal (0.0)
|   |   |   |   |   service = Z39_50: normal (0.0)
|   |   |   |   |   service = supdup: normal (0.0)
|   |   |   |   |   service = login: normal (0.0)
|   |   |   |   |   service = http_443: normal (0.0)
|   |   |   |   |   service = bgp: normal (0.0)
|   |   |   |   |   service = uucp_path: normal (0.0)
|   |   |   |   |   service = sql_net: normal (0.0)
|   |   |   |   |   service = hostnames: normal (0.0)
|   |   |   |   |   service = iso_tsap: normal (0.0)
|   |   |   |   |   service = nnsp: normal (0.0)
|   |   |   |   |   service = csnet_ns: normal (0.0)
|   |   |   |   |   service = vmnet: normal (0.0)
|   |   |   |   |   service = kshell: normal (0.0)
|   |   |   |   |   service = sunrpc: normal (0.0)
|   |   |   |   |   service = efs: normal (0.0)
|   |   |   |   |   service = klogin: normal (0.0)
|   |   |   |   |   service = ldap: normal (0.0)
|   |   |   |   |   service = pop_2: normal (0.0)
|   |   |   |   |   service = netstat: normal (0.0)
|   |   |   |   |   service = daytime: normal (0.0)
|   |   |   |   |   service = exec: normal (0.0)
|   |   |   |   |   service = discard: normal (0.0)
|   |   |   |   |   service = netbios_dgm: normal (0.0)
|   |   |   |   |   service = systat: normal (0.0)
|   |   |   |   |   service = name: normal (0.0)
|   |   |   |   |   service = ctf: normal (0.0)
|   |   |   |   |   service = rje: normal (0.0)
|   |   |   |   |   service = netbios_ns: normal (0.0)
|   |   |   |   |   service = courier: normal (0.0)
|   |   |   |   |   service = echo: normal (0.0)
|   |   |   |   |   service = gopher: normal (0.0)
|   |   |   |   |   service = netbios_ssn: normal (0.0)
|   |   |   |   |   service = printer: normal (0.0)
|   |   |   |   |   service = nntp: normal (0.0)
|   |   |   |   |   service = http_2784: normal (0.0)
|   |   |   |   |   service = aol: normal (0.0)
|   |   |   |   |   service = pm_dump: normal (0.0)
|   |   |   |   |   service = http_8001: normal (0.0)
|   |   |   |   |   service = harvest: normal (0.0)
|   |   flag = SF
|   |   |   wrong_fragment <= 0
|   |   |   |   num_compromised <= 0
|   |   |   |   |   src_bytes <= 32
|   |   |   |   |   |   duration <= 2
|   |   |   |   |   |   |   count <= 2
|   |   |   |   |   |   |   |   dst_host_count <= 17
|   |   |   |   |   |   |   |   |   protocol_type = tcp
|   |   |   |   |   |   |   |   |   |   src_bytes <= 11
|   |   |   |   |   |   |   |   |   |   |   dst_host_diff_srv_rate <= 0.53
|   |   |   |   |   |   |   |   |   |   |   |   dst_bytes <= 602: normal (64.0/3.0)
|   |   |   |   |   |   |   |   |   |   |   |   dst_bytes > 602
|   |   |   |   |   |   |   |   |   |   |   |   |   logged_in <= 0
|   |   |   |   |   |   |   |   |   |   |   |   |   |   dst_bytes <= 235404: warezmaster (3.0/1.0)
|   |   |   |   |   |   |   |   |   |   |   |   |   |   dst_bytes > 235404: multihop (2.0)
|   |   |   |   |   |   |   |   |   |   |   |   |   logged_in > 0
|   |   |   |   |   |   |   |   |   |   |   |   |   |   dst_host_srv_diff_host_rate <= 0.03: buffer_overflow (4.0)
|   |   |   |   |   |   |   |   |   |   |   |   |   |   dst_host_srv_diff_host_rate > 0.03: normal (4.0)
|   |   |   |   |   |   |   |   |   |   |   dst_host_diff_srv_rate > 0.53
|   |   |   |   |   |   |   |   |   |   |   |   duration <= 0
|   |   |   |   |   |   |   |   |   |   |   |   |   count <= 1: normal (3.0/1.0)
|   |   |   |   |   |   |   |   |   |   |   |   |   count > 1: satan (2.0/1.0)
|   |   |   |   |   |   |   |   |   |   |   |   duration > 0: ipsweep (4.0/1.0)
|   |   |   |   |   |   |   |   |   |   src_bytes > 11
|   |   |   |   |   |   |   |   |   |   |   logged_in <= 0
|   |   |   |   |   |   |   |   |   |   |   |   src_bytes <= 12: warezmaster (117.0/2.0)
|   |   |   |   |   |   |   |   |   |   |   |   src_bytes > 12: normal (9.0)
|   |   |   |   |   |   |   |   |   |   |   logged_in > 0
|   |   |   |   |   |   |   |   |   |   |   |   num_root <= 0
|   |   |   |   |   |   |   |   |   |   |   |   |   src_bytes <= 29: normal (28.0)
|   |   |   |   |   |   |   |   |   |   |   |   |   src_bytes > 29: warezclient (5.0)
|   |   |   |   |   |   |   |   |   |   |   |   num_root > 0: warezmaster (2.0)
|   |   |   |   |   |   |   |   |   protocol_type = udp
|   |   |   |   |   |   |   |   |   |   src_bytes <= 10: rootkit (2.0/1.0)
|   |   |   |   |   |   |   |   |   |   src_bytes > 10: normal (26.0)
|   |   |   |   |   |   |   |   |   protocol_type = icmp
|   |   |   |   |   |   |   |   |   |   src_bytes <= 19
|   |   |   |   |   |   |   |   |   |   |   src_bytes <= 13
|   |   |   |   |   |   |   |   |   |   |   |   dst_host_count <= 2: ipsweep (28.0/8.0)
|   |   |   |   |   |   |   |   |   |   |   |   dst_host_count > 2
|   |   |   |   |   |   |   |   |   |   |   |   |   count <= 1: nmap (16.0/2.0)
|   |   |   |   |   |   |   |   |   |   |   |   |   count > 1: ipsweep (3.0/1.0)
|   |   |   |   |   |   |   |   |   |   |   src_bytes > 13: ipsweep (22.0)
|   |   |   |   |   |   |   |   |   |   src_bytes > 19
|   |   |   |   |   |   |   |   |   |   |   src_bytes <= 25: satan (3.0/1.0)
|   |   |   |   |   |   |   |   |   |   |   src_bytes > 25: normal (13.0)
|   |   |   |   |   |   |   |   dst_host_count > 17
|   |   |   |   |   |   |   |   |   dst_host_srv_rerror_rate <= 0.24
|   |   |   |   |   |   |   |   |   |   dst_host_srv_count <= 2
|   |   |   |   |   |   |   |   |   |   |   src_bytes <= 2
|   |   |   |   |   |   |   |   |   |   |   |   protocol_type = tcp: ipsweep (4.0)
|   |   |   |   |   |   |   |   |   |   |   |   protocol_type = udp: satan (37.0)
|   |   |   |   |   |   |   |   |   |   |   |   protocol_type = icmp: satan (0.0)
|   |   |   |   |   |   |   |   |   |   |   src_bytes > 2
|   |   |   |   |   |   |   |   |   |   |   |   service = http: normal (0.0)
|   |   |   |   |   |   |   |   |   |   |   |   service = domain_u: normal (2.0)
|   |   |   |   |   |   |   |   |   |   |   |   service = ftp_data: normal (0.0)
|   |   |   |   |   |   |   |   |   |   |   |   service = private: normal (0.0)
|   |   |   |   |   |   |   |   |   |   |   |   service = other
|   |   |   |   |   |   |   |   |   |   |   |   |   src_bytes <= 21: satan (3.0/1.0)
|   |   |   |   |   |   |   |   |   |   |   |   |   src_bytes > 21
|   |   |   |   |   |   |   |   |   |   |   |   |   |   src_bytes <= 27: multihop (4.0/1.0)
|   |   |   |   |   |   |   |   |   |   |   |   |   |   src_bytes > 27: normal (2.0/1.0)
|   |   |   |   |   |   |   |   |   |   |   |   service = smtp: normal (0.0)
|   |   |   |   |   |   |   |   |   |   |   |   service = telnet: normal (2.0)
|   |   |   |   |   |   |   |   |   |   |   |   service = eco_i
|   |   |   |   |   |   |   |   |   |   |   |   |   src_bytes <= 25
|   |   |   |   |   |   |   |   |   |   |   |   |   |   src_bytes <= 14: portsweep (2.0)
|   |   |   |   |   |   |   |   |   |   |   |   |   |   src_bytes > 14: satan (8.0)
|   |   |   |   |   |   |   |   |   |   |   |   |   src_bytes > 25: normal (13.0)
|   |   |   |   |   |   |   |   |   |   |   |   service = X11: normal (0.0)
|   |   |   |   |   |   |   |   |   |   |   |   service = ntp_u: normal (0.0)
|   |   |   |   |   |   |   |   |   |   |   |   service = ftp: normal (0.0)
|   |   |   |   |   |   |   |   |   |   |   |   service = IRC: normal (0.0)
|   |   |   |   |   |   |   |   |   |   |   |   service = time: normal (0.0)
|   |   |   |   |   |   |   |   |   |   |   |   service = finger
|   |   |   |   |   |   |   |   |   |   |   |   |   count <= 1
|   |   |   |   |   |   |   |   |   |   |   |   |   |   srv_count <= 1: normal (28.0)
|   |   |   |   |   |   |   |   |   |   |   |   |   |   srv_count > 1: saint (2.0)
|   |   |   |   |   |   |   |   |   |   |   |   |   count > 1: satan (2.0)
|   |   |   |   |   |   |   |   |   |   |   |   service = urp_i: normal (0.0)
|   |   |   |   |   |   |   |   |   |   |   |   service = auth
|   |   |   |   |   |   |   |   |   |   |   |   |   dst_bytes <= 36: sendmail (3.0/1.0)
|   |   |   |   |   |   |   |   |   |   |   |   |   dst_bytes > 36: normal (18.0)
|   |   |   |   |   |   |   |   |   |   |   |   service = ecr_i: satan (3.0/1.0)
|   |   |   |   |   |   |   |   |   |   |   |   service = domain: normal (1.0)
|   |   |   |   |   |   |   |   |   |   |   |   service = pop_3: guess_passwd (4.0)
|   |   |   |   |   |   |   |   |   |   |   |   service = urh_i: normal (0.0)
|   |   |   |   |   |   |   |   |   |   |   |   service = red_i: normal (0.0)
|   |   |   |   |   |   |   |   |   |   |   |   service = remote_job: normal (0.0)
|   |   |   |   |   |   |   |   |   |   |   |   service = tftp_u: normal (0.0)
|   |   |   |   |   |   |   |   |   |   |   |   service = ssh: normal (0.0)
|   |   |   |   |   |   |   |   |   |   |   |   service = shell: normal (0.0)
|   |   |   |   |   |   |   |   |   |   |   |   service = imap4: normal (0.0)
|   |   |   |   |   |   |   |   |   |   |   |   service = tim_i: normal (0.0)
|   |   |   |   |   |   |   |   |   |   |   |   service = link: normal (0.0)
|   |   |   |   |   |   |   |   |   |   |   |   service = uucp: normal (0.0)
|   |   |   |   |   |   |   |   |   |   |   |   service = whois: normal (0.0)
|   |   |   |   |   |   |   |   |   |   |   |   service = mtp: normal (0.0)
|   |   |   |   |   |   |   |   |   |   |   |   service = Z39_50: normal (0.0)
|   |   |   |   |   |   |   |   |   |   |   |   service = supdup: normal (0.0)
|   |   |   |   |   |   |   |   |   |   |   |   service = login: normal (0.0)
|   |   |   |   |   |   |   |   |   |   |   |   service = http_443: normal (0.0)
|   |   |   |   |   |   |   |   |   |   |   |   service = bgp: normal (0.0)
|   |   |   |   |   |   |   |   |   |   |   |   service = uucp_path: normal (0.0)
|   |   |   |   |   |   |   |   |   |   |   |   service = sql_net: normal (0.0)
|   |   |   |   |   |   |   |   |   |   |   |   service = hostnames: normal (0.0)
|   |   |   |   |   |   |   |   |   |   |   |   service = iso_tsap: normal (0.0)
|   |   |   |   |   |   |   |   |   |   |   |   service = nnsp: normal (0.0)
|   |   |   |   |   |   |   |   |   |   |   |   service = csnet_ns: normal (0.0)
|   |   |   |   |   |   |   |   |   |   |   |   service = vmnet: normal (0.0)
|   |   |   |   |   |   |   |   |   |   |   |   service = kshell: normal (0.0)
|   |   |   |   |   |   |   |   |   |   |   |   service = sunrpc: normal (0.0)
|   |   |   |   |   |   |   |   |   |   |   |   service = efs: normal (0.0)
|   |   |   |   |   |   |   |   |   |   |   |   service = klogin: normal (0.0)
|   |   |   |   |   |   |   |   |   |   |   |   service = ldap: normal (0.0)
|   |   |   |   |   |   |   |   |   |   |   |   service = pop_2: normal (0.0)
|   |   |   |   |   |   |   |   |   |   |   |   service = netstat: normal (0.0)
|   |   |   |   |   |   |   |   |   |   |   |   service = daytime: normal (0.0)
|   |   |   |   |   |   |   |   |   |   |   |   service = exec: normal (0.0)
|   |   |   |   |   |   |   |   |   |   |   |   service = discard: normal (0.0)
|   |   |   |   |   |   |   |   |   |   |   |   service = netbios_dgm: normal (0.0)
|   |   |   |   |   |   |   |   |   |   |   |   service = systat: normal (0.0)
|   |   |   |   |   |   |   |   |   |   |   |   service = name: normal (0.0)
|   |   |   |   |   |   |   |   |   |   |   |   service = ctf: normal (0.0)
|   |   |   |   |   |   |   |   |   |   |   |   service = rje: normal (0.0)
|   |   |   |   |   |   |   |   |   |   |   |   service = netbios_ns: normal (0.0)
|   |   |   |   |   |   |   |   |   |   |   |   service = courier: normal (0.0)
|   |   |   |   |   |   |   |   |   |   |   |   service = echo: normal (0.0)
|   |   |   |   |   |   |   |   |   |   |   |   service = gopher: satan (1.0)
|   |   |   |   |   |   |   |   |   |   |   |   service = netbios_ssn: normal (0.0)
|   |   |   |   |   |   |   |   |   |   |   |   service = printer: normal (0.0)
|   |   |   |   |   |   |   |   |   |   |   |   service = nntp: normal (0.0)
|   |   |   |   |   |   |   |   |   |   |   |   service = http_2784: normal (0.0)
|   |   |   |   |   |   |   |   |   |   |   |   service = aol: normal (0.0)
|   |   |   |   |   |   |   |   |   |   |   |   service = pm_dump: normal (0.0)
|   |   |   |   |   |   |   |   |   |   |   |   service = http_8001: normal (0.0)
|   |   |   |   |   |   |   |   |   |   |   |   service = harvest: normal (0.0)
|   |   |   |   |   |   |   |   |   |   dst_host_srv_count > 2
|   |   |   |   |   |   |   |   |   |   |   service = http: normal (2.0/1.0)
|   |   |   |   |   |   |   |   |   |   |   service = domain_u: normal (201.0)
|   |   |   |   |   |   |   |   |   |   |   service = ftp_data
|   |   |   |   |   |   |   |   |   |   |   |   logged_in <= 0
|   |   |   |   |   |   |   |   |   |   |   |   |   dst_host_srv_diff_host_rate <= 0.07
|   |   |   |   |   |   |   |   |   |   |   |   |   |   src_bytes <= 14
|   |   |   |   |   |   |   |   |   |   |   |   |   |   |   src_bytes <= 11: normal (45.0/1.0)
|   |   |   |   |   |   |   |   |   |   |   |   |   |   |   src_bytes > 11
|   |   |   |   |   |   |   |   |   |   |   |   |   |   |   |   srv_count <= 1
|   |   |   |   |   |   |   |   |   |   |   |   |   |   |   |   |   dst_host_rerror_rate <= 0.02
|   |   |   |   |   |   |   |   |   |   |   |   |   |   |   |   |   |   dst_host_srv_diff_host_rate <= 0.03
|   |   |   |   |   |   |   |   |   |   |   |   |   |   |   |   |   |   |   dst_host_serror_rate <= 0.2
|   |   |   |   |   |   |   |   |   |   |   |   |   |   |   |   |   |   |   |   dst_host_same_srv_rate <= 0.05: normal (3.0)
|   |   |   |   |   |   |   |   |   |   |   |   |   |   |   |   |   |   |   |   dst_host_same_srv_rate > 0.05
|   |   |   |   |   |   |   |   |   |   |   |   |   |   |   |   |   |   |   |   |   dst_host_same_srv_rate <= 0.24: warezmaster (14.0/1.0)
|   |   |   |   |   |   |   |   |   |   |   |   |   |   |   |   |   |   |   |   |   dst_host_same_srv_rate > 0.24
|   |   |   |   |   |   |   |   |   |   |   |   |   |   |   |   |   |   |   |   |   |   dst_host_same_srv_rate <= 0.54: warezmaster (5.0/2.0)
|   |   |   |   |   |   |   |   |   |   |   |   |   |   |   |   |   |   |   |   |   |   dst_host_same_srv_rate > 0.54: normal (2.0)
|   |   |   |   |   |   |   |   |   |   |   |   |   |   |   |   |   |   |   dst_host_serror_rate > 0.2: normal (2.0)
|   |   |   |   |   |   |   |   |   |   |   |   |   |   |   |   |   |   dst_host_srv_diff_host_rate > 0.03
|   |   |   |   |   |   |   |   |   |   |   |   |   |   |   |   |   |   |   dst_host_count <= 112: normal (9.0)
|   |   |   |   |   |   |   |   |   |   |   |   |   |   |   |   |   |   |   dst_host_count > 112: warezmaster (3.0/1.0)
|   |   |   |   |   |   |   |   |   |   |   |   |   |   |   |   |   dst_host_rerror_rate > 0.02: normal (4.0)
|   |   |   |   |   |   |   |   |   |   |   |   |   |   |   |   srv_count > 1: normal (23.0/2.0)
|   |   |   |   |   |   |   |   |   |   |   |   |   |   src_bytes > 14: normal (43.0)
|   |   |   |   |   |   |   |   |   |   |   |   |   dst_host_srv_diff_host_rate > 0.07
|   |   |   |   |   |   |   |   |   |   |   |   |   |   src_bytes <= 15: warezmaster (10.0/2.0)
|   |   |   |   |   |   |   |   |   |   |   |   |   |   src_bytes > 15: normal (3.0)
|   |   |   |   |   |   |   |   |   |   |   |   logged_in > 0: normal (235.0)
|   |   |   |   |   |   |   |   |   |   |   service = private: satan (8.0)
|   |   |   |   |   |   |   |   |   |   |   service = other: satan (4.0/1.0)
|   |   |   |   |   |   |   |   |   |   |   service = smtp: normal (59.0/1.0)
|   |   |   |   |   |   |   |   |   |   |   service = telnet: mscan (1.0)
|   |   |   |   |   |   |   |   |   |   |   service = eco_i
|   |   |   |   |   |   |   |   |   |   |   |   src_bytes <= 25: satan (6.0)
|   |   |   |   |   |   |   |   |   |   |   |   src_bytes > 25: normal (185.0)
|   |   |   |   |   |   |   |   |   |   |   service = X11: normal (0.0)
|   |   |   |   |   |   |   |   |   |   |   service = ntp_u: normal (0.0)
|   |   |   |   |   |   |   |   |   |   |   service = ftp: guess_passwd (74.0)
|   |   |   |   |   |   |   |   |   |   |   service = IRC: normal (0.0)
|   |   |   |   |   |   |   |   |   |   |   service = time: normal (18.0)
|   |   |   |   |   |   |   |   |   |   |   service = finger: normal (230.0/3.0)
|   |   |   |   |   |   |   |   |   |   |   service = urp_i: normal (0.0)
|   |   |   |   |   |   |   |   |   |   |   service = auth: normal (64.0)
|   |   |   |   |   |   |   |   |   |   |   service = ecr_i: normal (112.0/1.0)
|   |   |   |   |   |   |   |   |   |   |   service = domain: normal (0.0)
|   |   |   |   |   |   |   |   |   |   |   service = pop_3: guess_passwd (19.0)
|   |   |   |   |   |   |   |   |   |   |   service = urh_i: normal (0.0)
|   |   |   |   |   |   |   |   |   |   |   service = red_i: normal (0.0)
|   |   |   |   |   |   |   |   |   |   |   service = remote_job: normal (0.0)
|   |   |   |   |   |   |   |   |   |   |   service = tftp_u: normal (0.0)
|   |   |   |   |   |   |   |   |   |   |   service = ssh: normal (0.0)
|   |   |   |   |   |   |   |   |   |   |   service = shell: normal (0.0)
|   |   |   |   |   |   |   |   |   |   |   service = imap4: normal (0.0)
|   |   |   |   |   |   |   |   |   |   |   service = tim_i: normal (0.0)
|   |   |   |   |   |   |   |   |   |   |   service = link: normal (0.0)
|   |   |   |   |   |   |   |   |   |   |   service = uucp: normal (0.0)
|   |   |   |   |   |   |   |   |   |   |   service = whois: normal (0.0)
|   |   |   |   |   |   |   |   |   |   |   service = mtp: normal (0.0)
|   |   |   |   |   |   |   |   |   |   |   service = Z39_50: normal (0.0)
|   |   |   |   |   |   |   |   |   |   |   service = supdup: normal (0.0)
|   |   |   |   |   |   |   |   |   |   |   service = login: normal (0.0)
|   |   |   |   |   |   |   |   |   |   |   service = http_443: normal (0.0)
|   |   |   |   |   |   |   |   |   |   |   service = bgp: normal (0.0)
|   |   |   |   |   |   |   |   |   |   |   service = uucp_path: normal (0.0)
|   |   |   |   |   |   |   |   |   |   |   service = sql_net: normal (0.0)
|   |   |   |   |   |   |   |   |   |   |   service = hostnames: normal (0.0)
|   |   |   |   |   |   |   |   |   |   |   service = iso_tsap: normal (0.0)
|   |   |   |   |   |   |   |   |   |   |   service = nnsp: normal (0.0)
|   |   |   |   |   |   |   |   |   |   |   service = csnet_ns: normal (0.0)
|   |   |   |   |   |   |   |   |   |   |   service = vmnet: normal (0.0)
|   |   |   |   |   |   |   |   |   |   |   service = kshell: normal (0.0)
|   |   |   |   |   |   |   |   |   |   |   service = sunrpc: normal (0.0)
|   |   |   |   |   |   |   |   |   |   |   service = efs: normal (0.0)
|   |   |   |   |   |   |   |   |   |   |   service = klogin: normal (0.0)
|   |   |   |   |   |   |   |   |   |   |   service = ldap: normal (0.0)
|   |   |   |   |   |   |   |   |   |   |   service = pop_2: normal (0.0)
|   |   |   |   |   |   |   |   |   |   |   service = netstat: normal (0.0)
|   |   |   |   |   |   |   |   |   |   |   service = daytime: normal (0.0)
|   |   |   |   |   |   |   |   |   |   |   service = exec: normal (0.0)
|   |   |   |   |   |   |   |   |   |   |   service = discard: normal (0.0)
|   |   |   |   |   |   |   |   |   |   |   service = netbios_dgm: normal (0.0)
|   |   |   |   |   |   |   |   |   |   |   service = systat: normal (0.0)
|   |   |   |   |   |   |   |   |   |   |   service = name: normal (0.0)
|   |   |   |   |   |   |   |   |   |   |   service = ctf: normal (0.0)
|   |   |   |   |   |   |   |   |   |   |   service = rje: normal (0.0)
|   |   |   |   |   |   |   |   |   |   |   service = netbios_ns: normal (0.0)
|   |   |   |   |   |   |   |   |   |   |   service = courier: normal (0.0)
|   |   |   |   |   |   |   |   |   |   |   service = echo: normal (0.0)
|   |   |   |   |   |   |   |   |   |   |   service = gopher: normal (0.0)
|   |   |   |   |   |   |   |   |   |   |   service = netbios_ssn: normal (0.0)
|   |   |   |   |   |   |   |   |   |   |   service = printer: normal (0.0)
|   |   |   |   |   |   |   |   |   |   |   service = nntp: normal (0.0)
|   |   |   |   |   |   |   |   |   |   |   service = http_2784: normal (0.0)
|   |   |   |   |   |   |   |   |   |   |   service = aol: normal (0.0)
|   |   |   |   |   |   |   |   |   |   |   service = pm_dump: normal (0.0)
|   |   |   |   |   |   |   |   |   |   |   service = http_8001: normal (0.0)
|   |   |   |   |   |   |   |   |   |   |   service = harvest: normal (0.0)
|   |   |   |   |   |   |   |   |   dst_host_srv_rerror_rate > 0.24: mscan (19.0)
|   |   |   |   |   |   |   count > 2
|   |   |   |   |   |   |   |   dst_host_same_srv_rate <= 0.84
|   |   |   |   |   |   |   |   |   dst_host_srv_rerror_rate <= 0.16
|   |   |   |   |   |   |   |   |   |   src_bytes <= 10
|   |   |   |   |   |   |   |   |   |   |   dst_bytes <= 0
|   |   |   |   |   |   |   |   |   |   |   |   diff_srv_rate <= 0.08: satan (297.0)
|   |   |   |   |   |   |   |   |   |   |   |   diff_srv_rate > 0.08
|   |   |   |   |   |   |   |   |   |   |   |   |   dst_host_same_srv_rate <= 0.25
|   |   |   |   |   |   |   |   |   |   |   |   |   |   same_srv_rate <= 0.9: satan (100.0/1.0)
|   |   |   |   |   |   |   |   |   |   |   |   |   |   same_srv_rate > 0.9
|   |   |   |   |   |   |   |   |   |   |   |   |   |   |   dst_host_diff_srv_rate <= 0.19: normal (2.0)
|   |   |   |   |   |   |   |   |   |   |   |   |   |   |   dst_host_diff_srv_rate > 0.19
|   |   |   |   |   |   |   |   |   |   |   |   |   |   |   |   dst_host_same_src_port_rate <= 0.97
|   |   |   |   |   |   |   |   |   |   |   |   |   |   |   |   |   dst_host_serror_rate <= 0.05: normal (2.0)
|   |   |   |   |   |   |   |   |   |   |   |   |   |   |   |   |   dst_host_serror_rate > 0.05: satan (2.0)
|   |   |   |   |   |   |   |   |   |   |   |   |   |   |   |   dst_host_same_src_port_rate > 0.97: satan (6.0)
|   |   |   |   |   |   |   |   |   |   |   |   |   dst_host_same_srv_rate > 0.25: normal (2.0)
|   |   |   |   |   |   |   |   |   |   |   dst_bytes > 0
|   |   |   |   |   |   |   |   |   |   |   |   dst_host_rerror_rate <= 0.81
|   |   |   |   |   |   |   |   |   |   |   |   |   dst_host_same_srv_rate <= 0.06: satan (26.0/2.0)
|   |   |   |   |   |   |   |   |   |   |   |   |   dst_host_same_srv_rate > 0.06: normal (6.0)
|   |   |   |   |   |   |   |   |   |   |   |   dst_host_rerror_rate > 0.81: saint (2.0)
|   |   |   |   |   |   |   |   |   |   src_bytes > 10
|   |   |   |   |   |   |   |   |   |   |   dst_host_same_srv_rate <= 0.09: satan (2.0/1.0)
|   |   |   |   |   |   |   |   |   |   |   dst_host_same_srv_rate > 0.09: normal (12.0)
|   |   |   |   |   |   |   |   |   dst_host_srv_rerror_rate > 0.16: mscan (24.0)
|   |   |   |   |   |   |   |   dst_host_same_srv_rate > 0.84
|   |   |   |   |   |   |   |   |   logged_in <= 0
|   |   |   |   |   |   |   |   |   |   srv_rerror_rate <= 0.01
|   |   |   |   |   |   |   |   |   |   |   dst_bytes <= 6: ipsweep (4.0/1.0)
|   |   |   |   |   |   |   |   |   |   |   dst_bytes > 6: normal (82.0/1.0)
|   |   |   |   |   |   |   |   |   |   srv_rerror_rate > 0.01: imap (2.0)
|   |   |   |   |   |   |   |   |   logged_in > 0: buffer_overflow (3.0)
|   |   |   |   |   |   duration > 2
|   |   |   |   |   |   |   duration <= 6111
|   |   |   |   |   |   |   |   src_bytes <= 24
|   |   |   |   |   |   |   |   |   dst_host_same_src_port_rate <= 0.85
|   |   |   |   |   |   |   |   |   |   dst_host_srv_rerror_rate <= 0.12
|   |   |   |   |   |   |   |   |   |   |   dst_host_diff_srv_rate <= 0.8
|   |   |   |   |   |   |   |   |   |   |   |   dst_host_same_srv_rate <= 0
|   |   |   |   |   |   |   |   |   |   |   |   |   logged_in <= 0: normal (3.0/1.0)
|   |   |   |   |   |   |   |   |   |   |   |   |   logged_in > 0: satan (2.0)
|   |   |   |   |   |   |   |   |   |   |   |   dst_host_same_srv_rate > 0: normal (55.0/1.0)
|   |   |   |   |   |   |   |   |   |   |   dst_host_diff_srv_rate > 0.8: ipsweep (7.0)
|   |   |   |   |   |   |   |   |   |   dst_host_srv_rerror_rate > 0.12: mscan (31.0/1.0)
|   |   |   |   |   |   |   |   |   dst_host_same_src_port_rate > 0.85: warezmaster (16.0)
|   |   |   |   |   |   |   |   src_bytes > 24
|   |   |   |   |   |   |   |   |   protocol_type = tcp: guess_passwd (563.0)
|   |   |   |   |   |   |   |   |   protocol_type = udp: normal (5.0)
|   |   |   |   |   |   |   |   |   protocol_type = icmp: guess_passwd (0.0)
|   |   |   |   |   |   |   duration > 6111: processtable (368.0)
|   |   |   |   |   src_bytes > 32
|   |   |   |   |   |   is_guest_login <= 0
|   |   |   |   |   |   |   num_failed_logins <= 0
|   |   |   |   |   |   |   |   dst_bytes <= 0
|   |   |   |   |   |   |   |   |   duration <= 202
|   |   |   |   |   |   |   |   |   |   dst_host_srv_diff_host_rate <= 0.08
|   |   |   |   |   |   |   |   |   |   |   service = http: normal (0.0)
|   |   |   |   |   |   |   |   |   |   |   service = domain_u: normal (304.0)
|   |   |   |   |   |   |   |   |   |   |   service = ftp_data
|   |   |   |   |   |   |   |   |   |   |   |   duration <= 3
|   |   |   |   |   |   |   |   |   |   |   |   |   src_bytes <= 353
|   |   |   |   |   |   |   |   |   |   |   |   |   |   src_bytes <= 326: normal (795.0/8.0)
|   |   |   |   |   |   |   |   |   |   |   |   |   |   src_bytes > 326: warezclient (67.0/1.0)
|   |   |   |   |   |   |   |   |   |   |   |   |   src_bytes > 353: normal (2777.0/10.0)
|   |   |   |   |   |   |   |   |   |   |   |   duration > 3
|   |   |   |   |   |   |   |   |   |   |   |   |   dst_host_srv_serror_rate <= 0: normal (20.0/4.0)
|   |   |   |   |   |   |   |   |   |   |   |   |   dst_host_srv_serror_rate > 0: warezclient (9.0)
|   |   |   |   |   |   |   |   |   |   |   service = private
|   |   |   |   |   |   |   |   |   |   |   |   dst_host_same_src_port_rate <= 0.11
|   |   |   |   |   |   |   |   |   |   |   |   |   src_bytes <= 102: snmpguess (232.0/3.0)
|   |   |   |   |   |   |   |   |   |   |   |   |   src_bytes > 102: normal (130.0/4.0)
|   |   |   |   |   |   |   |   |   |   |   |   dst_host_same_src_port_rate > 0.11
|   |   |   |   |   |   |   |   |   |   |   |   |   dst_host_count <= 250
|   |   |   |   |   |   |   |   |   |   |   |   |   |   dst_host_diff_srv_rate <= 0.1
|   |   |   |   |   |   |   |   |   |   |   |   |   |   |   dst_host_srv_count <= 3: normal (4.0/1.0)
|   |   |   |   |   |   |   |   |   |   |   |   |   |   |   dst_host_srv_count > 3: nmap (194.0/1.0)
|   |   |   |   |   |   |   |   |   |   |   |   |   |   dst_host_diff_srv_rate > 0.1: normal (2.0)
|   |   |   |   |   |   |   |   |   |   |   |   |   dst_host_count > 250: normal (5.0)
|   |   |   |   |   |   |   |   |   |   |   service = other
|   |   |   |   |   |   |   |   |   |   |   |   dst_host_srv_rerror_rate <= 0.28: normal (171.0/2.0)
|   |   |   |   |   |   |   |   |   |   |   |   dst_host_srv_rerror_rate > 0.28: httptunnel (8.0)
|   |   |   |   |   |   |   |   |   |   |   service = smtp: normal (0.0)
|   |   |   |   |   |   |   |   |   |   |   service = telnet: normal (0.0)
|   |   |   |   |   |   |   |   |   |   |   service = eco_i: normal (26.0)
|   |   |   |   |   |   |   |   |   |   |   service = X11: normal (0.0)
|   |   |   |   |   |   |   |   |   |   |   service = ntp_u: normal (0.0)
|   |   |   |   |   |   |   |   |   |   |   service = ftp: normal (0.0)
|   |   |   |   |   |   |   |   |   |   |   service = IRC: normal (0.0)
|   |   |   |   |   |   |   |   |   |   |   service = time: normal (0.0)
|   |   |   |   |   |   |   |   |   |   |   service = finger: normal (0.0)
|   |   |   |   |   |   |   |   |   |   |   service = urp_i
|   |   |   |   |   |   |   |   |   |   |   |   dst_host_diff_srv_rate <= 0.35
|   |   |   |   |   |   |   |   |   |   |   |   |   dst_host_diff_srv_rate <= 0: snmpguess (4.0/1.0)
|   |   |   |   |   |   |   |   |   |   |   |   |   dst_host_diff_srv_rate > 0: normal (255.0)
|   |   |   |   |   |   |   |   |   |   |   |   dst_host_diff_srv_rate > 0.35
|   |   |   |   |   |   |   |   |   |   |   |   |   src_bytes <= 109: satan (4.0)
|   |   |   |   |   |   |   |   |   |   |   |   |   src_bytes > 109: normal (2.0)
|   |   |   |   |   |   |   |   |   |   |   service = auth: normal (0.0)
|   |   |   |   |   |   |   |   |   |   |   service = ecr_i
|   |   |   |   |   |   |   |   |   |   |   |   src_bytes <= 296: normal (40.0)
|   |   |   |   |   |   |   |   |   |   |   |   src_bytes > 296
|   |   |   |   |   |   |   |   |   |   |   |   |   src_bytes <= 3720: smurf (2646.0)
|   |   |   |   |   |   |   |   |   |   |   |   |   src_bytes > 3720: normal (13.0)
|   |   |   |   |   |   |   |   |   |   |   service = domain: named (1.0)
|   |   |   |   |   |   |   |   |   |   |   service = pop_3: normal (0.0)
|   |   |   |   |   |   |   |   |   |   |   service = urh_i: normal (6.0)
|   |   |   |   |   |   |   |   |   |   |   service = red_i: normal (7.0)
|   |   |   |   |   |   |   |   |   |   |   service = remote_job: normal (0.0)
|   |   |   |   |   |   |   |   |   |   |   service = tftp_u: normal (0.0)
|   |   |   |   |   |   |   |   |   |   |   service = ssh: normal (0.0)
|   |   |   |   |   |   |   |   |   |   |   service = shell: normal (0.0)
|   |   |   |   |   |   |   |   |   |   |   service = imap4: normal (0.0)
|   |   |   |   |   |   |   |   |   |   |   service = tim_i
|   |   |   |   |   |   |   |   |   |   |   |   dst_host_diff_srv_rate <= 0.06: pod (8.0)
|   |   |   |   |   |   |   |   |   |   |   |   dst_host_diff_srv_rate > 0.06: normal (2.0)
|   |   |   |   |   |   |   |   |   |   |   service = link: normal (0.0)
|   |   |   |   |   |   |   |   |   |   |   service = uucp: normal (0.0)
|   |   |   |   |   |   |   |   |   |   |   service = whois: normal (0.0)
|   |   |   |   |   |   |   |   |   |   |   service = mtp: normal (0.0)
|   |   |   |   |   |   |   |   |   |   |   service = Z39_50: normal (0.0)
|   |   |   |   |   |   |   |   |   |   |   service = supdup: normal (0.0)
|   |   |   |   |   |   |   |   |   |   |   service = login: normal (0.0)
|   |   |   |   |   |   |   |   |   |   |   service = http_443: normal (0.0)
|   |   |   |   |   |   |   |   |   |   |   service = bgp: normal (0.0)
|   |   |   |   |   |   |   |   |   |   |   service = uucp_path: normal (0.0)
|   |   |   |   |   |   |   |   |   |   |   service = sql_net: normal (0.0)
|   |   |   |   |   |   |   |   |   |   |   service = hostnames: normal (0.0)
|   |   |   |   |   |   |   |   |   |   |   service = iso_tsap: normal (0.0)
|   |   |   |   |   |   |   |   |   |   |   service = nnsp: normal (0.0)
|   |   |   |   |   |   |   |   |   |   |   service = csnet_ns: normal (0.0)
|   |   |   |   |   |   |   |   |   |   |   service = vmnet: normal (0.0)
|   |   |   |   |   |   |   |   |   |   |   service = kshell: normal (0.0)
|   |   |   |   |   |   |   |   |   |   |   service = sunrpc: normal (0.0)
|   |   |   |   |   |   |   |   |   |   |   service = efs: normal (0.0)
|   |   |   |   |   |   |   |   |   |   |   service = klogin: normal (0.0)
|   |   |   |   |   |   |   |   |   |   |   service = ldap: normal (0.0)
|   |   |   |   |   |   |   |   |   |   |   service = pop_2: normal (0.0)
|   |   |   |   |   |   |   |   |   |   |   service = netstat: normal (0.0)
|   |   |   |   |   |   |   |   |   |   |   service = daytime: normal (0.0)
|   |   |   |   |   |   |   |   |   |   |   service = exec: normal (0.0)
|   |   |   |   |   |   |   |   |   |   |   service = discard: normal (0.0)
|   |   |   |   |   |   |   |   |   |   |   service = netbios_dgm: normal (0.0)
|   |   |   |   |   |   |   |   |   |   |   service = systat: normal (0.0)
|   |   |   |   |   |   |   |   |   |   |   service = name: normal (0.0)
|   |   |   |   |   |   |   |   |   |   |   service = ctf: normal (0.0)
|   |   |   |   |   |   |   |   |   |   |   service = rje: normal (0.0)
|   |   |   |   |   |   |   |   |   |   |   service = netbios_ns: normal (0.0)
|   |   |   |   |   |   |   |   |   |   |   service = courier: normal (0.0)
|   |   |   |   |   |   |   |   |   |   |   service = echo: normal (0.0)
|   |   |   |   |   |   |   |   |   |   |   service = gopher: normal (0.0)
|   |   |   |   |   |   |   |   |   |   |   service = netbios_ssn: normal (0.0)
|   |   |   |   |   |   |   |   |   |   |   service = printer: normal (0.0)
|   |   |   |   |   |   |   |   |   |   |   service = nntp: normal (0.0)
|   |   |   |   |   |   |   |   |   |   |   service = http_2784: normal (0.0)
|   |   |   |   |   |   |   |   |   |   |   service = aol: normal (0.0)
|   |   |   |   |   |   |   |   |   |   |   service = pm_dump: normal (0.0)
|   |   |   |   |   |   |   |   |   |   |   service = http_8001: normal (0.0)
|   |   |   |   |   |   |   |   |   |   |   service = harvest: normal (0.0)
|   |   |   |   |   |   |   |   |   |   dst_host_srv_diff_host_rate > 0.08
|   |   |   |   |   |   |   |   |   |   |   dst_host_same_src_port_rate <= 0.84
|   |   |   |   |   |   |   |   |   |   |   |   dst_host_srv_count <= 36: normal (142.0/1.0)
|   |   |   |   |   |   |   |   |   |   |   |   dst_host_srv_count > 36
|   |   |   |   |   |   |   |   |   |   |   |   |   dst_host_srv_count <= 43: warezclient (7.0)
|   |   |   |   |   |   |   |   |   |   |   |   |   dst_host_srv_count > 43: normal (5.0)
|   |   |   |   |   |   |   |   |   |   |   dst_host_same_src_port_rate > 0.84
|   |   |   |   |   |   |   |   |   |   |   |   num_root <= 0
|   |   |   |   |   |   |   |   |   |   |   |   |   dst_host_srv_diff_host_rate <= 0.09
|   |   |   |   |   |   |   |   |   |   |   |   |   |   dst_host_srv_count <= 39
|   |   |   |   |   |   |   |   |   |   |   |   |   |   |   src_bytes <= 358: warezclient (4.0/1.0)
|   |   |   |   |   |   |   |   |   |   |   |   |   |   |   src_bytes > 358: normal (5.0)
|   |   |   |   |   |   |   |   |   |   |   |   |   |   dst_host_srv_count > 39: warezclient (8.0)
|   |   |   |   |   |   |   |   |   |   |   |   |   dst_host_srv_diff_host_rate > 0.09: warezclient (273.0/1.0)
|   |   |   |   |   |   |   |   |   |   |   |   num_root > 0: normal (3.0)
|   |   |   |   |   |   |   |   |   duration > 202
|   |   |   |   |   |   |   |   |   |   logged_in <= 0: warezmaster (162.0/1.0)
|   |   |   |   |   |   |   |   |   |   logged_in > 0: warezclient (50.0/1.0)
|   |   |   |   |   |   |   |   dst_bytes > 0
|   |   |   |   |   |   |   |   |   src_bytes <= 2598
|   |   |   |   |   |   |   |   |   |   service = http
|   |   |   |   |   |   |   |   |   |   |   src_bytes <= 141
|   |   |   |   |   |   |   |   |   |   |   |   root_shell <= 0
|   |   |   |   |   |   |   |   |   |   |   |   |   src_bytes <= 86: apache2 (3.0)
|   |   |   |   |   |   |   |   |   |   |   |   |   src_bytes > 86: normal (29.0)
|   |   |   |   |   |   |   |   |   |   |   |   root_shell > 0: phf (3.0)
|   |   |   |   |   |   |   |   |   |   |   src_bytes > 141: normal (33107.0)
|   |   |   |   |   |   |   |   |   |   service = domain_u: normal (7286.0)
|   |   |   |   |   |   |   |   |   |   service = ftp_data: normal (0.0)
|   |   |   |   |   |   |   |   |   |   service = private
|   |   |   |   |   |   |   |   |   |   |   src_bytes <= 52
|   |   |   |   |   |   |   |   |   |   |   |   count <= 5: snmpguess (32.0)
|   |   |   |   |   |   |   |   |   |   |   |   count > 5: normal (109.0)
|   |   |   |   |   |   |   |   |   |   |   src_bytes > 52
|   |   |   |   |   |   |   |   |   |   |   |   dst_host_same_srv_rate <= 0.96: normal (262.0/3.0)
|   |   |   |   |   |   |   |   |   |   |   |   dst_host_same_srv_rate > 0.96
|   |   |   |   |   |   |   |   |   |   |   |   |   duration <= 0
|   |   |   |   |   |   |   |   |   |   |   |   |   |   srv_count <= 3
|   |   |   |   |   |   |   |   |   |   |   |   |   |   |   same_srv_rate <= 0.71
|   |   |   |   |   |   |   |   |   |   |   |   |   |   |   |   dst_host_same_src_port_rate <= 0: snmpgetattack (12.0/3.0)
|   |   |   |   |   |   |   |   |   |   |   |   |   |   |   |   dst_host_same_src_port_rate > 0
|   |   |   |   |   |   |   |   |   |   |   |   |   |   |   |   |   count <= 2: snmpgetattack (3.0/1.0)
|   |   |   |   |   |   |   |   |   |   |   |   |   |   |   |   |   count > 2: normal (3.0)
|   |   |   |   |   |   |   |   |   |   |   |   |   |   |   same_srv_rate > 0.71
|   |   |   |   |   |   |   |   |   |   |   |   |   |   |   |   dst_host_same_srv_rate <= 0.99
|   |   |   |   |   |   |   |   |   |   |   |   |   |   |   |   |   dst_host_diff_srv_rate <= 0.03
|   |   |   |   |   |   |   |   |   |   |   |   |   |   |   |   |   |   dst_host_count <= 252: normal (149.0/26.0)
|   |   |   |   |   |   |   |   |   |   |   |   |   |   |   |   |   |   dst_host_count > 252
|   |   |   |   |   |   |   |   |   |   |   |   |   |   |   |   |   |   |   srv_count <= 1
|   |   |   |   |   |   |   |   |   |   |   |   |   |   |   |   |   |   |   |   dst_bytes <= 146
|   |   |   |   |   |   |   |   |   |   |   |   |   |   |   |   |   |   |   |   |   dst_host_srv_count <= 250: snmpgetattack (7.0/2.0)
|   |   |   |   |   |   |   |   |   |   |   |   |   |   |   |   |   |   |   |   |   dst_host_srv_count > 250: normal (23.0/6.0)
|   |   |   |   |   |   |   |   |   |   |   |   |   |   |   |   |   |   |   |   dst_bytes > 146: snmpgetattack (9.0/2.0)
|   |   |   |   |   |   |   |   |   |   |   |   |   |   |   |   |   |   |   srv_count > 1: normal (32.0/13.0)
|   |   |   |   |   |   |   |   |   |   |   |   |   |   |   |   |   dst_host_diff_srv_rate > 0.03: snmpgetattack (5.0/1.0)
|   |   |   |   |   |   |   |   |   |   |   |   |   |   |   |   dst_host_same_srv_rate > 0.99
|   |   |   |   |   |   |   |   |   |   |   |   |   |   |   |   |   dst_bytes <= 145: normal (49.0/12.0)
|   |   |   |   |   |   |   |   |   |   |   |   |   |   |   |   |   dst_bytes > 145
|   |   |   |   |   |   |   |   |   |   |   |   |   |   |   |   |   |   dst_host_diff_srv_rate <= 0
|   |   |   |   |   |   |   |   |   |   |   |   |   |   |   |   |   |   |   count <= 2
|   |   |   |   |   |   |   |   |   |   |   |   |   |   |   |   |   |   |   |   dst_host_same_src_port_rate <= 0.03: snmpgetattack (29.0/6.0)
|   |   |   |   |   |   |   |   |   |   |   |   |   |   |   |   |   |   |   |   dst_host_same_src_port_rate > 0.03: normal (27.0/5.0)
|   |   |   |   |   |   |   |   |   |   |   |   |   |   |   |   |   |   |   count > 2: normal (5.0/1.0)
|   |   |   |   |   |   |   |   |   |   |   |   |   |   |   |   |   |   dst_host_diff_srv_rate > 0
|   |   |   |   |   |   |   |   |   |   |   |   |   |   |   |   |   |   |   dst_host_same_src_port_rate <= 0.01
|   |   |   |   |   |   |   |   |   |   |   |   |   |   |   |   |   |   |   |   dst_host_count <= 227: normal (3.0)
|   |   |   |   |   |   |   |   |   |   |   |   |   |   |   |   |   |   |   |   dst_host_count > 227: snmpgetattack (27.0/12.0)
|   |   |   |   |   |   |   |   |   |   |   |   |   |   |   |   |   |   |   dst_host_same_src_port_rate > 0.01: normal (3.0)
|   |   |   |   |   |   |   |   |   |   |   |   |   |   srv_count > 3: normal (294.0)
|   |   |   |   |   |   |   |   |   |   |   |   |   duration > 0: normal (37.0/1.0)
|   |   |   |   |   |   |   |   |   |   service = other
|   |   |   |   |   |   |   |   |   |   |   protocol_type = tcp: httptunnel (7.0)
|   |   |   |   |   |   |   |   |   |   |   protocol_type = udp
|   |   |   |   |   |   |   |   |   |   |   |   dst_host_same_src_port_rate <= 0.1: satan (3.0/2.0)
|   |   |   |   |   |   |   |   |   |   |   |   dst_host_same_src_port_rate > 0.1
|   |   |   |   |   |   |   |   |   |   |   |   |   dst_host_count <= 49
|   |   |   |   |   |   |   |   |   |   |   |   |   |   dst_host_srv_count <= 3: normal (20.0/1.0)
|   |   |   |   |   |   |   |   |   |   |   |   |   |   dst_host_srv_count > 3
|   |   |   |   |   |   |   |   |   |   |   |   |   |   |   src_bytes <= 331: snmpgetattack (6.0/1.0)
|   |   |   |   |   |   |   |   |   |   |   |   |   |   |   src_bytes > 331: normal (3.0/1.0)
|   |   |   |   |   |   |   |   |   |   |   |   |   dst_host_count > 49: normal (1250.0)
|   |   |   |   |   |   |   |   |   |   |   protocol_type = icmp: normal (0.0)
|   |   |   |   |   |   |   |   |   |   service = smtp
|   |   |   |   |   |   |   |   |   |   |   dst_host_rerror_rate <= 0.3: normal (4916.0)
|   |   |   |   |   |   |   |   |   |   |   dst_host_rerror_rate > 0.3
|   |   |   |   |   |   |   |   |   |   |   |   dst_host_rerror_rate <= 0.32: satan (6.0/1.0)
|   |   |   |   |   |   |   |   |   |   |   |   dst_host_rerror_rate > 0.32: normal (170.0/1.0)
|   |   |   |   |   |   |   |   |   |   service = telnet
|   |   |   |   |   |   |   |   |   |   |   num_shells <= 0
|   |   |   |   |   |   |   |   |   |   |   |   num_root <= 2
|   |   |   |   |   |   |   |   |   |   |   |   |   dst_host_srv_rerror_rate <= 0.19
|   |   |   |   |   |   |   |   |   |   |   |   |   |   dst_host_srv_count <= 208
|   |   |   |   |   |   |   |   |   |   |   |   |   |   |   dst_host_same_src_port_rate <= 0.15: normal (250.0/4.0)
|   |   |   |   |   |   |   |   |   |   |   |   |   |   |   dst_host_same_src_port_rate > 0.15
|   |   |   |   |   |   |   |   |   |   |   |   |   |   |   |   duration <= 15: normal (4.0)
|   |   |   |   |   |   |   |   |   |   |   |   |   |   |   |   duration > 15: loadmodule (3.0)
|   |   |   |   |   |   |   |   |   |   |   |   |   |   dst_host_srv_count > 208: guess_passwd (2.0)
|   |   |   |   |   |   |   |   |   |   |   |   |   dst_host_srv_rerror_rate > 0.19
|   |   |   |   |   |   |   |   |   |   |   |   |   |   dst_bytes <= 2739
|   |   |   |   |   |   |   |   |   |   |   |   |   |   |   dst_host_serror_rate <= 0.01: guess_passwd (11.0/1.0)
|   |   |   |   |   |   |   |   |   |   |   |   |   |   |   dst_host_serror_rate > 0.01: normal (2.0)
|   |   |   |   |   |   |   |   |   |   |   |   |   |   dst_bytes > 2739: normal (8.0)
|   |   |   |   |   |   |   |   |   |   |   |   num_root > 2
|   |   |   |   |   |   |   |   |   |   |   |   |   src_bytes <= 226: sendmail (3.0)
|   |   |   |   |   |   |   |   |   |   |   |   |   src_bytes > 226: rootkit (2.0/1.0)
|   |   |   |   |   |   |   |   |   |   |   num_shells > 0
|   |   |   |   |   |   |   |   |   |   |   |   hot <= 0: perl (4.0/1.0)
|   |   |   |   |   |   |   |   |   |   |   |   hot > 0: ps (2.0/1.0)
|   |   |   |   |   |   |   |   |   |   service = eco_i: normal (0.0)
|   |   |   |   |   |   |   |   |   |   service = X11: normal (8.0/1.0)
|   |   |   |   |   |   |   |   |   |   service = ntp_u: normal (115.0)
|   |   |   |   |   |   |   |   |   |   service = ftp
|   |   |   |   |   |   |   |   |   |   |   is_host_login <= 0
|   |   |   |   |   |   |   |   |   |   |   |   num_file_creations <= 0
|   |   |   |   |   |   |   |   |   |   |   |   |   dst_host_diff_srv_rate <= 0.04: rootkit (4.0)
|   |   |   |   |   |   |   |   |   |   |   |   |   dst_host_diff_srv_rate > 0.04: normal (4.0/1.0)
|   |   |   |   |   |   |   |   |   |   |   |   num_file_creations > 0
|   |   |   |   |   |   |   |   |   |   |   |   |   dst_host_diff_srv_rate <= 0.02: rootkit (2.0/1.0)
|   |   |   |   |   |   |   |   |   |   |   |   |   dst_host_diff_srv_rate > 0.02: ps (3.0)
|   |   |   |   |   |   |   |   |   |   |   is_host_login > 0
|   |   |   |   |   |   |   |   |   |   |   |   dst_host_diff_srv_rate <= 0.1: multihop (4.0/2.0)
|   |   |   |   |   |   |   |   |   |   |   |   dst_host_diff_srv_rate > 0.1
|   |   |   |   |   |   |   |   |   |   |   |   |   duration <= 21: xterm (2.0)
|   |   |   |   |   |   |   |   |   |   |   |   |   duration > 21: named (2.0)
|   |   |   |   |   |   |   |   |   |   service = IRC: normal (18.0/1.0)
|   |   |   |   |   |   |   |   |   |   service = time: normal (0.0)
|   |   |   |   |   |   |   |   |   |   service = finger: normal (0.0)
|   |   |   |   |   |   |   |   |   |   service = urp_i: normal (0.0)
|   |   |   |   |   |   |   |   |   |   service = auth: normal (0.0)
|   |   |   |   |   |   |   |   |   |   service = ecr_i: normal (0.0)
|   |   |   |   |   |   |   |   |   |   service = domain: normal (0.0)
|   |   |   |   |   |   |   |   |   |   service = pop_3
|   |   |   |   |   |   |   |   |   |   |   src_bytes <= 37
|   |   |   |   |   |   |   |   |   |   |   |   dst_bytes <= 183: normal (22.0)
|   |   |   |   |   |   |   |   |   |   |   |   dst_bytes > 183: guess_passwd (5.0)
|   |   |   |   |   |   |   |   |   |   |   src_bytes > 37: normal (28.0)
|   |   |   |   |   |   |   |   |   |   service = urh_i: normal (0.0)
|   |   |   |   |   |   |   |   |   |   service = red_i: normal (0.0)
|   |   |   |   |   |   |   |   |   |   service = remote_job: normal (0.0)
|   |   |   |   |   |   |   |   |   |   service = tftp_u: normal (0.0)
|   |   |   |   |   |   |   |   |   |   service = ssh: normal (5.0)
|   |   |   |   |   |   |   |   |   |   service = shell: normal (1.0)
|   |   |   |   |   |   |   |   |   |   service = imap4: normal (3.0/1.0)
|   |   |   |   |   |   |   |   |   |   service = tim_i: normal (0.0)
|   |   |   |   |   |   |   |   |   |   service = link: normal (0.0)
|   |   |   |   |   |   |   |   |   |   service = uucp: normal (0.0)
|   |   |   |   |   |   |   |   |   |   service = whois: normal (0.0)
|   |   |   |   |   |   |   |   |   |   service = mtp: normal (0.0)
|   |   |   |   |   |   |   |   |   |   service = Z39_50: normal (0.0)
|   |   |   |   |   |   |   |   |   |   service = supdup: normal (0.0)
|   |   |   |   |   |   |   |   |   |   service = login: ftp_write (1.0)
|   |   |   |   |   |   |   |   |   |   service = http_443: normal (0.0)
|   |   |   |   |   |   |   |   |   |   service = bgp: normal (0.0)
|   |   |   |   |   |   |   |   |   |   service = uucp_path: normal (0.0)
|   |   |   |   |   |   |   |   |   |   service = sql_net: normal (0.0)
|   |   |   |   |   |   |   |   |   |   service = hostnames: normal (0.0)
|   |   |   |   |   |   |   |   |   |   service = iso_tsap: normal (0.0)
|   |   |   |   |   |   |   |   |   |   service = nnsp: normal (0.0)
|   |   |   |   |   |   |   |   |   |   service = csnet_ns: normal (0.0)
|   |   |   |   |   |   |   |   |   |   service = vmnet: normal (0.0)
|   |   |   |   |   |   |   |   |   |   service = kshell: normal (0.0)
|   |   |   |   |   |   |   |   |   |   service = sunrpc: normal (0.0)
|   |   |   |   |   |   |   |   |   |   service = efs: normal (0.0)
|   |   |   |   |   |   |   |   |   |   service = klogin: normal (0.0)
|   |   |   |   |   |   |   |   |   |   service = ldap: normal (0.0)
|   |   |   |   |   |   |   |   |   |   service = pop_2: normal (0.0)
|   |   |   |   |   |   |   |   |   |   service = netstat: normal (0.0)
|   |   |   |   |   |   |   |   |   |   service = daytime: normal (0.0)
|   |   |   |   |   |   |   |   |   |   service = exec: normal (0.0)
|   |   |   |   |   |   |   |   |   |   service = discard: normal (0.0)
|   |   |   |   |   |   |   |   |   |   service = netbios_dgm: normal (0.0)
|   |   |   |   |   |   |   |   |   |   service = systat: normal (0.0)
|   |   |   |   |   |   |   |   |   |   service = name: normal (0.0)
|   |   |   |   |   |   |   |   |   |   service = ctf: normal (0.0)
|   |   |   |   |   |   |   |   |   |   service = rje: normal (0.0)
|   |   |   |   |   |   |   |   |   |   service = netbios_ns: normal (0.0)
|   |   |   |   |   |   |   |   |   |   service = courier: normal (0.0)
|   |   |   |   |   |   |   |   |   |   service = echo: normal (0.0)
|   |   |   |   |   |   |   |   |   |   service = gopher: normal (0.0)
|   |   |   |   |   |   |   |   |   |   service = netbios_ssn: normal (0.0)
|   |   |   |   |   |   |   |   |   |   service = printer: normal (0.0)
|   |   |   |   |   |   |   |   |   |   service = nntp: normal (0.0)
|   |   |   |   |   |   |   |   |   |   service = http_2784: normal (0.0)
|   |   |   |   |   |   |   |   |   |   service = aol: normal (0.0)
|   |   |   |   |   |   |   |   |   |   service = pm_dump: normal (0.0)
|   |   |   |   |   |   |   |   |   |   service = http_8001: normal (0.0)
|   |   |   |   |   |   |   |   |   |   service = harvest: normal (0.0)
|   |   |   |   |   |   |   |   |   src_bytes > 2598
|   |   |   |   |   |   |   |   |   |   src_bytes <= 2599: mailbomb (234.0)
|   |   |   |   |   |   |   |   |   |   src_bytes > 2599
|   |   |   |   |   |   |   |   |   |   |   num_root <= 0
|   |   |   |   |   |   |   |   |   |   |   |   logged_in <= 0
|   |   |   |   |   |   |   |   |   |   |   |   |   dst_host_same_src_port_rate <= 0.11
|   |   |   |   |   |   |   |   |   |   |   |   |   |   dst_host_same_src_port_rate <= 0: xlock (2.0)
|   |   |   |   |   |   |   |   |   |   |   |   |   |   dst_host_same_src_port_rate > 0: normal (8.0/1.0)
|   |   |   |   |   |   |   |   |   |   |   |   |   dst_host_same_src_port_rate > 0.11: named (4.0/1.0)
|   |   |   |   |   |   |   |   |   |   |   |   logged_in > 0
|   |   |   |   |   |   |   |   |   |   |   |   |   dst_host_srv_count <= 250: normal (757.0/2.0)
|   |   |   |   |   |   |   |   |   |   |   |   |   dst_host_srv_count > 250
|   |   |   |   |   |   |   |   |   |   |   |   |   |   dst_host_rerror_rate <= 0.01: normal (17.0)
|   |   |   |   |   |   |   |   |   |   |   |   |   |   dst_host_rerror_rate > 0.01: back (8.0)
|   |   |   |   |   |   |   |   |   |   |   num_root > 0: sendmail (3.0)
|   |   |   |   |   |   |   num_failed_logins > 0
|   |   |   |   |   |   |   |   dst_bytes <= 188
|   |   |   |   |   |   |   |   |   service = http: guess_passwd (0.0)
|   |   |   |   |   |   |   |   |   service = domain_u: guess_passwd (0.0)
|   |   |   |   |   |   |   |   |   service = ftp_data: guess_passwd (0.0)
|   |   |   |   |   |   |   |   |   service = private: guess_passwd (0.0)
|   |   |   |   |   |   |   |   |   service = other: guess_passwd (0.0)
|   |   |   |   |   |   |   |   |   service = smtp: guess_passwd (0.0)
|   |   |   |   |   |   |   |   |   service = telnet: guess_passwd (275.0/1.0)
|   |   |   |   |   |   |   |   |   service = eco_i: guess_passwd (0.0)
|   |   |   |   |   |   |   |   |   service = X11: guess_passwd (0.0)
|   |   |   |   |   |   |   |   |   service = ntp_u: guess_passwd (0.0)
|   |   |   |   |   |   |   |   |   service = ftp: normal (6.0)
|   |   |   |   |   |   |   |   |   service = IRC: guess_passwd (0.0)
|   |   |   |   |   |   |   |   |   service = time: guess_passwd (0.0)
|   |   |   |   |   |   |   |   |   service = finger: guess_passwd (0.0)
|   |   |   |   |   |   |   |   |   service = urp_i: guess_passwd (0.0)
|   |   |   |   |   |   |   |   |   service = auth: guess_passwd (0.0)
|   |   |   |   |   |   |   |   |   service = ecr_i: guess_passwd (0.0)
|   |   |   |   |   |   |   |   |   service = domain: guess_passwd (0.0)
|   |   |   |   |   |   |   |   |   service = pop_3: guess_passwd (0.0)
|   |   |   |   |   |   |   |   |   service = urh_i: guess_passwd (0.0)
|   |   |   |   |   |   |   |   |   service = red_i: guess_passwd (0.0)
|   |   |   |   |   |   |   |   |   service = remote_job: guess_passwd (0.0)
|   |   |   |   |   |   |   |   |   service = tftp_u: guess_passwd (0.0)
|   |   |   |   |   |   |   |   |   service = ssh: guess_passwd (0.0)
|   |   |   |   |   |   |   |   |   service = shell: guess_passwd (0.0)
|   |   |   |   |   |   |   |   |   service = imap4: guess_passwd (0.0)
|   |   |   |   |   |   |   |   |   service = tim_i: guess_passwd (0.0)
|   |   |   |   |   |   |   |   |   service = link: guess_passwd (0.0)
|   |   |   |   |   |   |   |   |   service = uucp: guess_passwd (0.0)
|   |   |   |   |   |   |   |   |   service = whois: guess_passwd (0.0)
|   |   |   |   |   |   |   |   |   service = mtp: guess_passwd (0.0)
|   |   |   |   |   |   |   |   |   service = Z39_50: guess_passwd (0.0)
|   |   |   |   |   |   |   |   |   service = supdup: guess_passwd (0.0)
|   |   |   |   |   |   |   |   |   service = login: guess_passwd (0.0)
|   |   |   |   |   |   |   |   |   service = http_443: guess_passwd (0.0)
|   |   |   |   |   |   |   |   |   service = bgp: guess_passwd (0.0)
|   |   |   |   |   |   |   |   |   service = uucp_path: guess_passwd (0.0)
|   |   |   |   |   |   |   |   |   service = sql_net: guess_passwd (0.0)
|   |   |   |   |   |   |   |   |   service = hostnames: guess_passwd (0.0)
|   |   |   |   |   |   |   |   |   service = iso_tsap: guess_passwd (0.0)
|   |   |   |   |   |   |   |   |   service = nnsp: guess_passwd (0.0)
|   |   |   |   |   |   |   |   |   service = csnet_ns: guess_passwd (0.0)
|   |   |   |   |   |   |   |   |   service = vmnet: guess_passwd (0.0)
|   |   |   |   |   |   |   |   |   service = kshell: guess_passwd (0.0)
|   |   |   |   |   |   |   |   |   service = sunrpc: guess_passwd (0.0)
|   |   |   |   |   |   |   |   |   service = efs: guess_passwd (0.0)
|   |   |   |   |   |   |   |   |   service = klogin: guess_passwd (0.0)
|   |   |   |   |   |   |   |   |   service = ldap: guess_passwd (0.0)
|   |   |   |   |   |   |   |   |   service = pop_2: guess_passwd (0.0)
|   |   |   |   |   |   |   |   |   service = netstat: guess_passwd (0.0)
|   |   |   |   |   |   |   |   |   service = daytime: guess_passwd (0.0)
|   |   |   |   |   |   |   |   |   service = exec: guess_passwd (0.0)
|   |   |   |   |   |   |   |   |   service = discard: guess_passwd (0.0)
|   |   |   |   |   |   |   |   |   service = netbios_dgm: guess_passwd (0.0)
|   |   |   |   |   |   |   |   |   service = systat: guess_passwd (0.0)
|   |   |   |   |   |   |   |   |   service = name: guess_passwd (0.0)
|   |   |   |   |   |   |   |   |   service = ctf: guess_passwd (0.0)
|   |   |   |   |   |   |   |   |   service = rje: guess_passwd (0.0)
|   |   |   |   |   |   |   |   |   service = netbios_ns: guess_passwd (0.0)
|   |   |   |   |   |   |   |   |   service = courier: guess_passwd (0.0)
|   |   |   |   |   |   |   |   |   service = echo: guess_passwd (0.0)
|   |   |   |   |   |   |   |   |   service = gopher: guess_passwd (0.0)
|   |   |   |   |   |   |   |   |   service = netbios_ssn: guess_passwd (0.0)
|   |   |   |   |   |   |   |   |   service = printer: guess_passwd (0.0)
|   |   |   |   |   |   |   |   |   service = nntp: guess_passwd (0.0)
|   |   |   |   |   |   |   |   |   service = http_2784: guess_passwd (0.0)
|   |   |   |   |   |   |   |   |   service = aol: guess_passwd (0.0)
|   |   |   |   |   |   |   |   |   service = pm_dump: guess_passwd (0.0)
|   |   |   |   |   |   |   |   |   service = http_8001: guess_passwd (0.0)
|   |   |   |   |   |   |   |   |   service = harvest: guess_passwd (0.0)
|   |   |   |   |   |   |   |   dst_bytes > 188: normal (39.0/3.0)
|   |   |   |   |   |   is_guest_login > 0
|   |   |   |   |   |   |   src_bytes <= 171
|   |   |   |   |   |   |   |   num_access_files <= 0
|   |   |   |   |   |   |   |   |   duration <= 236
|   |   |   |   |   |   |   |   |   |   num_file_creations <= 0: normal (2.0/1.0)
|   |   |   |   |   |   |   |   |   |   num_file_creations > 0
|   |   |   |   |   |   |   |   |   |   |   duration <= 160: warezmaster (3.0/1.0)
|   |   |   |   |   |   |   |   |   |   |   duration > 160: multihop (2.0)
|   |   |   |   |   |   |   |   |   duration > 236: warezmaster (376.0)
|   |   |   |   |   |   |   |   num_access_files > 0: ftp_write (2.0)
|   |   |   |   |   |   |   src_bytes > 171
|   |   |   |   |   |   |   |   duration <= 12: warezclient (218.0)
|   |   |   |   |   |   |   |   duration > 12
|   |   |   |   |   |   |   |   |   duration <= 2945: normal (719.0/1.0)
|   |   |   |   |   |   |   |   |   duration > 2945: warezclient (23.0)
|   |   |   |   num_compromised > 0
|   |   |   |   |   src_bytes <= 50248
|   |   |   |   |   |   urgent <= 0
|   |   |   |   |   |   |   num_shells <= 0
|   |   |   |   |   |   |   |   dst_bytes <= 35: satan (3.0)
|   |   |   |   |   |   |   |   dst_bytes > 35
|   |   |   |   |   |   |   |   |   hot <= 2
|   |   |   |   |   |   |   |   |   |   src_bytes <= 1567: normal (216.0/3.0)
|   |   |   |   |   |   |   |   |   |   src_bytes > 1567
|   |   |   |   |   |   |   |   |   |   |   duration <= 2476
|   |   |   |   |   |   |   |   |   |   |   |   num_root <= 5: buffer_overflow (5.0)
|   |   |   |   |   |   |   |   |   |   |   |   num_root > 5: normal (2.0/1.0)
|   |   |   |   |   |   |   |   |   |   |   duration > 2476: normal (19.0)
|   |   |   |   |   |   |   |   |   hot > 2
|   |   |   |   |   |   |   |   |   |   service = http: normal (9.0)
|   |   |   |   |   |   |   |   |   |   service = domain_u: buffer_overflow (0.0)
|   |   |   |   |   |   |   |   |   |   service = ftp_data: buffer_overflow (0.0)
|   |   |   |   |   |   |   |   |   |   service = private: buffer_overflow (0.0)
|   |   |   |   |   |   |   |   |   |   service = other: buffer_overflow (0.0)
|   |   |   |   |   |   |   |   |   |   service = smtp: buffer_overflow (0.0)
|   |   |   |   |   |   |   |   |   |   service = telnet
|   |   |   |   |   |   |   |   |   |   |   duration <= 1667: buffer_overflow (19.0/1.0)
|   |   |   |   |   |   |   |   |   |   |   duration > 1667: normal (4.0)
|   |   |   |   |   |   |   |   |   |   service = eco_i: buffer_overflow (0.0)
|   |   |   |   |   |   |   |   |   |   service = X11: buffer_overflow (0.0)
|   |   |   |   |   |   |   |   |   |   service = ntp_u: buffer_overflow (0.0)
|   |   |   |   |   |   |   |   |   |   service = ftp: buffer_overflow (0.0)
|   |   |   |   |   |   |   |   |   |   service = IRC: buffer_overflow (0.0)
|   |   |   |   |   |   |   |   |   |   service = time: buffer_overflow (0.0)
|   |   |   |   |   |   |   |   |   |   service = finger: buffer_overflow (0.0)
|   |   |   |   |   |   |   |   |   |   service = urp_i: buffer_overflow (0.0)
|   |   |   |   |   |   |   |   |   |   service = auth: buffer_overflow (0.0)
|   |   |   |   |   |   |   |   |   |   service = ecr_i: buffer_overflow (0.0)
|   |   |   |   |   |   |   |   |   |   service = domain: buffer_overflow (0.0)
|   |   |   |   |   |   |   |   |   |   service = pop_3: buffer_overflow (0.0)
|   |   |   |   |   |   |   |   |   |   service = urh_i: buffer_overflow (0.0)
|   |   |   |   |   |   |   |   |   |   service = red_i: buffer_overflow (0.0)
|   |   |   |   |   |   |   |   |   |   service = remote_job: buffer_overflow (0.0)
|   |   |   |   |   |   |   |   |   |   service = tftp_u: buffer_overflow (0.0)
|   |   |   |   |   |   |   |   |   |   service = ssh: buffer_overflow (0.0)
|   |   |   |   |   |   |   |   |   |   service = shell: buffer_overflow (0.0)
|   |   |   |   |   |   |   |   |   |   service = imap4: buffer_overflow (0.0)
|   |   |   |   |   |   |   |   |   |   service = tim_i: buffer_overflow (0.0)
|   |   |   |   |   |   |   |   |   |   service = link: buffer_overflow (0.0)
|   |   |   |   |   |   |   |   |   |   service = uucp: buffer_overflow (0.0)
|   |   |   |   |   |   |   |   |   |   service = whois: buffer_overflow (0.0)
|   |   |   |   |   |   |   |   |   |   service = mtp: buffer_overflow (0.0)
|   |   |   |   |   |   |   |   |   |   service = Z39_50: buffer_overflow (0.0)
|   |   |   |   |   |   |   |   |   |   service = supdup: buffer_overflow (0.0)
|   |   |   |   |   |   |   |   |   |   service = login: buffer_overflow (0.0)
|   |   |   |   |   |   |   |   |   |   service = http_443: buffer_overflow (0.0)
|   |   |   |   |   |   |   |   |   |   service = bgp: buffer_overflow (0.0)
|   |   |   |   |   |   |   |   |   |   service = uucp_path: buffer_overflow (0.0)
|   |   |   |   |   |   |   |   |   |   service = sql_net: buffer_overflow (0.0)
|   |   |   |   |   |   |   |   |   |   service = hostnames: buffer_overflow (0.0)
|   |   |   |   |   |   |   |   |   |   service = iso_tsap: buffer_overflow (0.0)
|   |   |   |   |   |   |   |   |   |   service = nnsp: buffer_overflow (0.0)
|   |   |   |   |   |   |   |   |   |   service = csnet_ns: buffer_overflow (0.0)
|   |   |   |   |   |   |   |   |   |   service = vmnet: buffer_overflow (0.0)
|   |   |   |   |   |   |   |   |   |   service = kshell: buffer_overflow (0.0)
|   |   |   |   |   |   |   |   |   |   service = sunrpc: buffer_overflow (0.0)
|   |   |   |   |   |   |   |   |   |   service = efs: buffer_overflow (0.0)
|   |   |   |   |   |   |   |   |   |   service = klogin: buffer_overflow (0.0)
|   |   |   |   |   |   |   |   |   |   service = ldap: buffer_overflow (0.0)
|   |   |   |   |   |   |   |   |   |   service = pop_2: buffer_overflow (0.0)
|   |   |   |   |   |   |   |   |   |   service = netstat: buffer_overflow (0.0)
|   |   |   |   |   |   |   |   |   |   service = daytime: buffer_overflow (0.0)
|   |   |   |   |   |   |   |   |   |   service = exec: buffer_overflow (0.0)
|   |   |   |   |   |   |   |   |   |   service = discard: buffer_overflow (0.0)
|   |   |   |   |   |   |   |   |   |   service = netbios_dgm: buffer_overflow (0.0)
|   |   |   |   |   |   |   |   |   |   service = systat: buffer_overflow (0.0)
|   |   |   |   |   |   |   |   |   |   service = name: buffer_overflow (0.0)
|   |   |   |   |   |   |   |   |   |   service = ctf: buffer_overflow (0.0)
|   |   |   |   |   |   |   |   |   |   service = rje: buffer_overflow (0.0)
|   |   |   |   |   |   |   |   |   |   service = netbios_ns: buffer_overflow (0.0)
|   |   |   |   |   |   |   |   |   |   service = courier: buffer_overflow (0.0)
|   |   |   |   |   |   |   |   |   |   service = echo: buffer_overflow (0.0)
|   |   |   |   |   |   |   |   |   |   service = gopher: buffer_overflow (0.0)
|   |   |   |   |   |   |   |   |   |   service = netbios_ssn: buffer_overflow (0.0)
|   |   |   |   |   |   |   |   |   |   service = printer: buffer_overflow (0.0)
|   |   |   |   |   |   |   |   |   |   service = nntp: buffer_overflow (0.0)
|   |   |   |   |   |   |   |   |   |   service = http_2784: buffer_overflow (0.0)
|   |   |   |   |   |   |   |   |   |   service = aol: buffer_overflow (0.0)
|   |   |   |   |   |   |   |   |   |   service = pm_dump: buffer_overflow (0.0)
|   |   |   |   |   |   |   |   |   |   service = http_8001: buffer_overflow (0.0)
|   |   |   |   |   |   |   |   |   |   service = harvest: buffer_overflow (0.0)
|   |   |   |   |   |   |   num_shells > 0
|   |   |   |   |   |   |   |   num_shells <= 1: buffer_overflow (3.0/2.0)
|   |   |   |   |   |   |   |   num_shells > 1
|   |   |   |   |   |   |   |   |   dst_host_same_srv_rate <= 0.57: normal (3.0/1.0)
|   |   |   |   |   |   |   |   |   dst_host_same_srv_rate > 0.57: loadmodule (3.0/1.0)
|   |   |   |   |   |   urgent > 0
|   |   |   |   |   |   |   duration <= 276: xterm (4.0/1.0)
|   |   |   |   |   |   |   duration > 276: normal (3.0)
|   |   |   |   |   src_bytes > 50248: back (925.0)
|   |   |   wrong_fragment > 0
|   |   |   |   protocol_type = tcp: teardrop (0.0)
