=== Run information ===

Scheme:       weka.classifiers.meta.RandomSubSpace -P 0.5 -S 1 -num-slots 1 -I 10 -W weka.classifiers.trees.REPTree -- -M 2 -V 0.001 -N 3 -S 1 -L -1 -I 0.0
Relation:     train-80-weka.filters.unsupervised.attribute.Remove-R43
Instances:    118798
Attributes:   42
              duration
              protocol_type
              service
              flag
              src_bytes
              dst_bytes
              land
              wrong_fragment
              urgent
              hot
              num_failed_logins
              logged_in
              num_compromised
              root_shell
              su_attempted
              num_root
              num_file_creations
              num_shells
              num_access_files
              num_outbound_cmds
              is_host_login
              is_guest_login
              count
              srv_count
              serror_rate
              srv_serror_rate
              rerror_rate
              srv_rerror_rate
              same_srv_rate
              diff_srv_rate
              srv_diff_host_rate
              dst_host_count
              dst_host_srv_count
              dst_host_same_srv_rate
              dst_host_diff_srv_rate
              dst_host_same_src_port_rate
              dst_host_srv_diff_host_rate
              dst_host_serror_rate
              dst_host_srv_serror_rate
              dst_host_rerror_rate
              dst_host_srv_rerror_rate
              outcome
Test mode:    user supplied test set:  size unknown (reading incrementally)

=== Classifier model (full training set) ===

All the base classifiers: 

FilteredClassifier using weka.classifiers.trees.REPTree -M 2 -V 0.001 -N 3 -S -8883823 -L -1 -I 0.0 on data filtered through weka.filters.unsupervised.attribute.Remove -V -R 5,14,37,9,12,2,4,28,26,16,38,23,18,25,8,40,29,6,13,17,22,42

Filtered Header
@relation 'train-80-weka.filters.unsupervised.attribute.Remove-R43-weka.filters.unsupervised.attribute.Remove-V-R5,14,37,9,12,2,4,28,26,16,38,23,18,25,8,40,29,6,13,17,22,42'

@attribute src_bytes numeric
@attribute root_shell numeric
@attribute dst_host_srv_diff_host_rate numeric
@attribute urgent numeric
@attribute logged_in numeric
@attribute protocol_type {tcp,udp,icmp}
@attribute flag {REJ,SF,RSTO,S0,S3,RSTR,S1,S2,OTH,RSTOS0,SH}
@attribute srv_rerror_rate numeric
@attribute srv_serror_rate numeric
@attribute num_root numeric
@attribute dst_host_serror_rate numeric
@attribute count numeric
@attribute num_shells numeric
@attribute serror_rate numeric
@attribute wrong_fragment numeric
@attribute dst_host_rerror_rate numeric
@attribute same_srv_rate numeric
@attribute dst_bytes numeric
@attribute num_compromised numeric
@attribute num_file_creations numeric
@attribute is_guest_login numeric
@attribute outcome {normal,neptune,warezclient,ipsweep,portsweep,teardrop,nmap,satan,smurf,pod,back,guess_passwd,ftp_write,multihop,rootkit,buffer_overflow,imap,warezmaster,phf,land,loadmodule,spy,perl,saint,mscan,apache2,snmpgetattack,processtable,httptunnel,ps,snmpguess,mailbomb,named,sendmail,xterm,worm,xlock,xsnoop,sqlattack,udpstorm}

@data


Classifier Model

REPTree
============

flag = REJ
|   count < 24.5
|   |   same_srv_rate < 0.74
|   |   |   count < 2.5
|   |   |   |   dst_host_srv_diff_host_rate < 0.01 : portsweep (202/26) [103/14]
|   |   |   |   dst_host_srv_diff_host_rate >= 0.01 : mscan (18/1) [10/0]
|   |   |   count >= 2.5
|   |   |   |   count < 5.5
|   |   |   |   |   dst_host_srv_diff_host_rate < 0.01
|   |   |   |   |   |   dst_host_rerror_rate < 0.06 : satan (5/3) [10/4]
|   |   |   |   |   |   dst_host_rerror_rate >= 0.06 : mscan (42/12) [26/4]
|   |   |   |   |   dst_host_srv_diff_host_rate >= 0.01 : mscan (53/1) [21/0]
|   |   |   |   count >= 5.5
|   |   |   |   |   dst_host_rerror_rate < 0.24 : satan (31/2) [16/0]
|   |   |   |   |   dst_host_rerror_rate >= 0.24
|   |   |   |   |   |   dst_host_rerror_rate < 0.91 : portsweep (8/1) [4/1]
|   |   |   |   |   |   dst_host_rerror_rate >= 0.91 : neptune (17/0) [5/0]
|   |   same_srv_rate >= 0.74
|   |   |   dst_host_srv_diff_host_rate < 0.86
|   |   |   |   dst_host_srv_diff_host_rate < 0.01
|   |   |   |   |   dst_host_rerror_rate < 0.2
|   |   |   |   |   |   srv_rerror_rate < 0.93 : mscan (8/2) [1/0]
|   |   |   |   |   |   srv_rerror_rate >= 0.93
|   |   |   |   |   |   |   dst_host_serror_rate < 0.01
|   |   |   |   |   |   |   |   count < 1.5
|   |   |   |   |   |   |   |   |   dst_host_rerror_rate < 0.03
|   |   |   |   |   |   |   |   |   |   dst_host_rerror_rate < 0.01 : normal (3/1) [1/0]
|   |   |   |   |   |   |   |   |   |   dst_host_rerror_rate >= 0.01 : httptunnel (7/3) [5/2]
|   |   |   |   |   |   |   |   |   dst_host_rerror_rate >= 0.03 : httptunnel (59/13) [25/8]
|   |   |   |   |   |   |   |   count >= 1.5 : normal (4/0) [3/0]
|   |   |   |   |   |   |   dst_host_serror_rate >= 0.01 : normal (10/0) [6/0]
|   |   |   |   |   dst_host_rerror_rate >= 0.2
|   |   |   |   |   |   dst_host_rerror_rate < 0.89
|   |   |   |   |   |   |   dst_host_rerror_rate < 0.7
|   |   |   |   |   |   |   |   dst_host_serror_rate < 0.09
|   |   |   |   |   |   |   |   |   srv_rerror_rate < 0.96 : mscan (2/0) [2/0]
|   |   |   |   |   |   |   |   |   srv_rerror_rate >= 0.96
|   |   |   |   |   |   |   |   |   |   dst_host_serror_rate < 0.03
|   |   |   |   |   |   |   |   |   |   |   dst_host_rerror_rate < 0.26 : normal (7/3) [3/1]
|   |   |   |   |   |   |   |   |   |   |   dst_host_rerror_rate >= 0.26
|   |   |   |   |   |   |   |   |   |   |   |   dst_host_rerror_rate < 0.65
|   |   |   |   |   |   |   |   |   |   |   |   |   dst_host_rerror_rate < 0.61
|   |   |   |   |   |   |   |   |   |   |   |   |   |   dst_host_rerror_rate < 0.54
|   |   |   |   |   |   |   |   |   |   |   |   |   |   |   dst_host_serror_rate < 0.01 : normal (18/6) [7/5]
|   |   |   |   |   |   |   |   |   |   |   |   |   |   |   dst_host_serror_rate >= 0.01 : mscan (2/0) [1/0]
|   |   |   |   |   |   |   |   |   |   |   |   |   |   dst_host_rerror_rate >= 0.54
|   |   |   |   |   |   |   |   |   |   |   |   |   |   |   dst_host_rerror_rate < 0.56 : portsweep (2/0) [1/0]
|   |   |   |   |   |   |   |   |   |   |   |   |   |   |   dst_host_rerror_rate >= 0.56 : normal (5/1) [2/2]
|   |   |   |   |   |   |   |   |   |   |   |   |   dst_host_rerror_rate >= 0.61 : mscan (4/1) [0/0]
|   |   |   |   |   |   |   |   |   |   |   |   dst_host_rerror_rate >= 0.65 : normal (7/2) [6/2]
|   |   |   |   |   |   |   |   |   |   dst_host_serror_rate >= 0.03 : normal (5/0) [3/0]
|   |   |   |   |   |   |   |   dst_host_serror_rate >= 0.09 : portsweep (4/1) [0/0]
|   |   |   |   |   |   |   dst_host_rerror_rate >= 0.7 : normal (78/19) [38/9]
|   |   |   |   |   |   dst_host_rerror_rate >= 0.89
|   |   |   |   |   |   |   dst_host_rerror_rate < 0.96 : ipsweep (57/14) [30/3]
|   |   |   |   |   |   |   dst_host_rerror_rate >= 0.96
|   |   |   |   |   |   |   |   count < 1.5
|   |   |   |   |   |   |   |   |   dst_host_rerror_rate < 0.99 : portsweep (4/2) [8/4]
|   |   |   |   |   |   |   |   |   dst_host_rerror_rate >= 0.99 : normal (31/6) [15/2]
|   |   |   |   |   |   |   |   count >= 1.5
|   |   |   |   |   |   |   |   |   count < 2.5 : normal (2/1) [2/0]
|   |   |   |   |   |   |   |   |   count >= 2.5 : neptune (5/0) [2/0]
|   |   |   |   dst_host_srv_diff_host_rate >= 0.01
|   |   |   |   |   dst_host_rerror_rate < 0.95
|   |   |   |   |   |   dst_host_srv_diff_host_rate < 0.08
|   |   |   |   |   |   |   dst_host_rerror_rate < 0.74 : normal (74/7) [33/1]
|   |   |   |   |   |   |   dst_host_rerror_rate >= 0.74 : mscan (55/13) [13/1]
|   |   |   |   |   |   dst_host_srv_diff_host_rate >= 0.08 : normal (140/2) [73/3]
|   |   |   |   |   dst_host_rerror_rate >= 0.95 : normal (1081/6) [517/3]
|   |   |   dst_host_srv_diff_host_rate >= 0.86 : ipsweep (139/0) [73/0]
|   count >= 24.5
|   |   dst_host_rerror_rate < 0.98
|   |   |   same_srv_rate < 0.01
|   |   |   |   serror_rate < 0.01
|   |   |   |   |   count < 351.5
|   |   |   |   |   |   dst_host_rerror_rate < 0.43 : satan (5/0) [1/0]
|   |   |   |   |   |   dst_host_rerror_rate >= 0.43 : portsweep (14/3) [10/1]
|   |   |   |   |   count >= 351.5 : normal (6/0) [3/0]
|   |   |   |   serror_rate >= 0.01
|   |   |   |   |   dst_host_rerror_rate < 0.93
|   |   |   |   |   |   count < 237.5
|   |   |   |   |   |   |   dst_host_serror_rate < 0.11
|   |   |   |   |   |   |   |   dst_host_rerror_rate < 0.88
|   |   |   |   |   |   |   |   |   serror_rate < 0.13 : satan (210/3) [103/4]
|   |   |   |   |   |   |   |   |   serror_rate >= 0.13 : saint (3/0) [2/0]
|   |   |   |   |   |   |   |   dst_host_rerror_rate >= 0.88 : portsweep (3/0) [1/1]
|   |   |   |   |   |   |   dst_host_serror_rate >= 0.11 : neptune (7/2) [4/2]
|   |   |   |   |   |   count >= 237.5
|   |   |   |   |   |   |   serror_rate < 0.11
|   |   |   |   |   |   |   |   count < 443.5 : satan (259/1) [126/1]
|   |   |   |   |   |   |   |   count >= 443.5
|   |   |   |   |   |   |   |   |   dst_host_serror_rate < 0.07 : saint (5/1) [5/2]
|   |   |   |   |   |   |   |   |   dst_host_serror_rate >= 0.07
|   |   |   |   |   |   |   |   |   |   count < 487.5 : satan (41/0) [14/0]
|   |   |   |   |   |   |   |   |   |   count >= 487.5
|   |   |   |   |   |   |   |   |   |   |   count < 491.5
|   |   |   |   |   |   |   |   |   |   |   |   serror_rate < 0.08 : satan (7/2) [2/0]
|   |   |   |   |   |   |   |   |   |   |   |   serror_rate >= 0.08 : saint (2/0) [1/0]
|   |   |   |   |   |   |   |   |   |   |   count >= 491.5
|   |   |   |   |   |   |   |   |   |   |   |   count < 510.5 : satan (66/0) [25/0]
|   |   |   |   |   |   |   |   |   |   |   |   count >= 510.5
|   |   |   |   |   |   |   |   |   |   |   |   |   serror_rate < 0.08 : satan (15/0) [14/1]
|   |   |   |   |   |   |   |   |   |   |   |   |   serror_rate >= 0.08
|   |   |   |   |   |   |   |   |   |   |   |   |   |   dst_host_rerror_rate < 0.86 : satan (11/0) [8/0]
|   |   |   |   |   |   |   |   |   |   |   |   |   |   dst_host_rerror_rate >= 0.86
|   |   |   |   |   |   |   |   |   |   |   |   |   |   |   serror_rate < 0.1
|   |   |   |   |   |   |   |   |   |   |   |   |   |   |   |   dst_host_serror_rate < 0.11 : satan (6/2) [4/0]
|   |   |   |   |   |   |   |   |   |   |   |   |   |   |   |   dst_host_serror_rate >= 0.11 : saint (3/0) [3/0]
|   |   |   |   |   |   |   |   |   |   |   |   |   |   |   serror_rate >= 0.1 : satan (4/0) [1/0]
|   |   |   |   |   |   |   serror_rate >= 0.11 : satan (292/0) [161/1]
|   |   |   |   |   dst_host_rerror_rate >= 0.93
|   |   |   |   |   |   serror_rate < 0.07
|   |   |   |   |   |   |   serror_rate < 0.04 : satan (52/3) [29/2]
|   |   |   |   |   |   |   serror_rate >= 0.04
|   |   |   |   |   |   |   |   count < 503.5
|   |   |   |   |   |   |   |   |   dst_host_serror_rate < 0.01 : satan (2/0) [1/0]
|   |   |   |   |   |   |   |   |   dst_host_serror_rate >= 0.01
|   |   |   |   |   |   |   |   |   |   dst_host_rerror_rate < 0.95
|   |   |   |   |   |   |   |   |   |   |   count < 476 : saint (16/1) [6/2]
|   |   |   |   |   |   |   |   |   |   |   count >= 476
|   |   |   |   |   |   |   |   |   |   |   |   count < 481 : satan (2/0) [0/0]
|   |   |   |   |   |   |   |   |   |   |   |   count >= 481
|   |   |   |   |   |   |   |   |   |   |   |   |   count < 484 : saint (3/0) [3/2]
|   |   |   |   |   |   |   |   |   |   |   |   |   count >= 484
|   |   |   |   |   |   |   |   |   |   |   |   |   |   count < 490 : satan (3/0) [3/0]
|   |   |   |   |   |   |   |   |   |   |   |   |   |   count >= 490 : saint (5/1) [2/0]
|   |   |   |   |   |   |   |   |   |   dst_host_rerror_rate >= 0.95 : saint (16/0) [11/1]
|   |   |   |   |   |   |   |   count >= 503.5
|   |   |   |   |   |   |   |   |   count < 509.5 : satan (16/2) [6/2]
|   |   |   |   |   |   |   |   |   count >= 509.5
|   |   |   |   |   |   |   |   |   |   serror_rate < 0.06
|   |   |   |   |   |   |   |   |   |   |   dst_host_serror_rate < 0.04 : satan (9/3) [3/0]
|   |   |   |   |   |   |   |   |   |   |   dst_host_serror_rate >= 0.04 : saint (14/5) [6/1]
|   |   |   |   |   |   |   |   |   |   serror_rate >= 0.06 : satan (10/2) [2/0]
|   |   |   |   |   |   serror_rate >= 0.07
|   |   |   |   |   |   |   count < 428.5 : saint (11/5) [2/0]
|   |   |   |   |   |   |   count >= 428.5
|   |   |   |   |   |   |   |   count < 491.5
|   |   |   |   |   |   |   |   |   count < 489 : satan (45/1) [19/1]
|   |   |   |   |   |   |   |   |   count >= 489
|   |   |   |   |   |   |   |   |   |   dst_host_serror_rate < 0.05 : satan (2/0) [1/0]
|   |   |   |   |   |   |   |   |   |   dst_host_serror_rate >= 0.05 : saint (2/0) [2/0]
|   |   |   |   |   |   |   |   count >= 491.5 : satan (52/0) [24/1]
|   |   |   same_srv_rate >= 0.01
|   |   |   |   count < 82
|   |   |   |   |   dst_host_rerror_rate < 0.33 : satan (48/1) [33/1]
|   |   |   |   |   dst_host_rerror_rate >= 0.33
|   |   |   |   |   |   same_srv_rate < 0.04 : portsweep (24/5) [5/0]
|   |   |   |   |   |   same_srv_rate >= 0.04
|   |   |   |   |   |   |   srv_rerror_rate < 0.94 : normal (15/0) [4/0]
|   |   |   |   |   |   |   srv_rerror_rate >= 0.94 : neptune (5/1) [3/1]
|   |   |   |   count >= 82
|   |   |   |   |   count < 380 : neptune (71/0) [34/0]
|   |   |   |   |   count >= 380 : satan (6/0) [1/0]
|   |   dst_host_rerror_rate >= 0.98
|   |   |   count < 302.5 : neptune (4466/3) [2157/6]
|   |   |   count >= 302.5
|   |   |   |   count < 447 : portsweep (48/0) [23/0]
|   |   |   |   count >= 447 : satan (45/1) [21/1]
flag = SF
|   protocol_type = tcp
|   |   src_bytes < 164.5
|   |   |   dst_host_rerror_rate < 0.01
|   |   |   |   is_guest_login < 0.5
|   |   |   |   |   src_bytes < 12.5
|   |   |   |   |   |   src_bytes < 11.5
|   |   |   |   |   |   |   dst_bytes < 1988 : normal (474/22) [222/9]
|   |   |   |   |   |   |   dst_bytes >= 1988
|   |   |   |   |   |   |   |   dst_bytes < 172625
|   |   |   |   |   |   |   |   |   logged_in < 0.5
|   |   |   |   |   |   |   |   |   |   dst_host_srv_diff_host_rate < 0.15 : normal (22/1) [17/2]
|   |   |   |   |   |   |   |   |   |   dst_host_srv_diff_host_rate >= 0.15 : buffer_overflow (2/1) [1/0]
|   |   |   |   |   |   |   |   |   logged_in >= 0.5
|   |   |   |   |   |   |   |   |   |   dst_host_srv_diff_host_rate < 0.04 : buffer_overflow (6/0) [1/0]
|   |   |   |   |   |   |   |   |   |   dst_host_srv_diff_host_rate >= 0.04 : normal (4/1) [2/1]
|   |   |   |   |   |   |   |   dst_bytes >= 172625 : warezmaster (15/4) [7/1]
|   |   |   |   |   |   src_bytes >= 11.5
|   |   |   |   |   |   |   logged_in < 0.5
|   |   |   |   |   |   |   |   dst_host_srv_diff_host_rate < 0.08
|   |   |   |   |   |   |   |   |   dst_host_srv_diff_host_rate < 0.01
|   |   |   |   |   |   |   |   |   |   dst_host_serror_rate < 0.05 : warezmaster (35/9) [17/1]
|   |   |   |   |   |   |   |   |   |   dst_host_serror_rate >= 0.05 : normal (4/0) [2/0]
|   |   |   |   |   |   |   |   |   dst_host_srv_diff_host_rate >= 0.01 : normal (23/4) [6/0]
|   |   |   |   |   |   |   |   dst_host_srv_diff_host_rate >= 0.08
|   |   |   |   |   |   |   |   |   dst_bytes < 70 : warezmaster (92/1) [31/0]
|   |   |   |   |   |   |   |   |   dst_bytes >= 70 : normal (2/0) [3/0]
|   |   |   |   |   |   |   logged_in >= 0.5 : normal (104/2) [39/0]
|   |   |   |   |   src_bytes >= 12.5
|   |   |   |   |   |   src_bytes < 33.5
|   |   |   |   |   |   |   dst_bytes < 67
|   |   |   |   |   |   |   |   src_bytes < 29.5 : normal (107/0) [48/0]
|   |   |   |   |   |   |   |   src_bytes >= 29.5 : warezclient (3/0) [2/0]
|   |   |   |   |   |   |   dst_bytes >= 67
|   |   |   |   |   |   |   |   src_bytes < 19.5 : normal (3/0) [3/0]
|   |   |   |   |   |   |   |   src_bytes >= 19.5 : guess_passwd (134/1) [75/2]
|   |   |   |   |   |   src_bytes >= 33.5
|   |   |   |   |   |   |   logged_in < 0.5
|   |   |   |   |   |   |   |   src_bytes < 112.5 : normal (92/1) [44/3]
|   |   |   |   |   |   |   |   src_bytes >= 112.5
|   |   |   |   |   |   |   |   |   src_bytes < 130 : guess_passwd (18/0) [11/0]
|   |   |   |   |   |   |   |   |   src_bytes >= 130 : normal (11/1) [6/1]
|   |   |   |   |   |   |   logged_in >= 0.5
|   |   |   |   |   |   |   |   num_file_creations < 0.5
|   |   |   |   |   |   |   |   |   src_bytes < 51.5
|   |   |   |   |   |   |   |   |   |   src_bytes < 50
|   |   |   |   |   |   |   |   |   |   |   dst_bytes < 172 : normal (73/0) [30/0]
|   |   |   |   |   |   |   |   |   |   |   dst_bytes >= 172
|   |   |   |   |   |   |   |   |   |   |   |   src_bytes < 45.5 : guess_passwd (4/2) [3/0]
|   |   |   |   |   |   |   |   |   |   |   |   src_bytes >= 45.5 : normal (20/0) [14/0]
|   |   |   |   |   |   |   |   |   |   src_bytes >= 50 : phf (2/0) [1/0]
|   |   |   |   |   |   |   |   |   src_bytes >= 51.5
|   |   |   |   |   |   |   |   |   |   dst_bytes < 650.5
|   |   |   |   |   |   |   |   |   |   |   dst_bytes < 638.5
|   |   |   |   |   |   |   |   |   |   |   |   dst_bytes < 502 : normal (201/1) [98/1]
|   |   |   |   |   |   |   |   |   |   |   |   dst_bytes >= 502
|   |   |   |   |   |   |   |   |   |   |   |   |   dst_host_srv_diff_host_rate < 0.01 : rootkit (2/1) [3/2]
|   |   |   |   |   |   |   |   |   |   |   |   |   dst_host_srv_diff_host_rate >= 0.01 : normal (24/0) [7/0]
|   |   |   |   |   |   |   |   |   |   |   dst_bytes >= 638.5 : rootkit (2/1) [1/1]
|   |   |   |   |   |   |   |   |   |   dst_bytes >= 650.5 : normal (648/1) [321/2]
|   |   |   |   |   |   |   |   num_file_creations >= 0.5 : ps (5/3) [2/1]
|   |   |   |   is_guest_login >= 0.5
|   |   |   |   |   src_bytes < 152.5 : guess_passwd (54/3) [26/2]
|   |   |   |   |   src_bytes >= 152.5 : warezmaster (104/0) [46/0]
|   |   |   dst_host_rerror_rate >= 0.01
|   |   |   |   src_bytes < 24.5
|   |   |   |   |   src_bytes < 2.5
|   |   |   |   |   |   dst_host_serror_rate < 0.13
|   |   |   |   |   |   |   dst_host_rerror_rate < 0.07 : normal (31/0) [6/2]
|   |   |   |   |   |   |   dst_host_rerror_rate >= 0.07
|   |   |   |   |   |   |   |   dst_bytes < 13.5
|   |   |   |   |   |   |   |   |   dst_host_rerror_rate < 0.71 : mscan (18/5) [10/0]
|   |   |   |   |   |   |   |   |   dst_host_rerror_rate >= 0.71 : ipsweep (20/0) [8/0]
|   |   |   |   |   |   |   |   dst_bytes >= 13.5
|   |   |   |   |   |   |   |   |   same_srv_rate < 0.63 : mscan (5/0) [1/0]
|   |   |   |   |   |   |   |   |   same_srv_rate >= 0.63
|   |   |   |   |   |   |   |   |   |   logged_in < 0.5 : processtable (41/1) [23/5]
|   |   |   |   |   |   |   |   |   |   logged_in >= 0.5 : ipsweep (5/0) [3/0]
|   |   |   |   |   |   dst_host_serror_rate >= 0.13 : processtable (212/1) [100/1]
|   |   |   |   |   src_bytes >= 2.5
|   |   |   |   |   |   count < 2.5
|   |   |   |   |   |   |   src_bytes < 23 : normal (100/7) [48/5]
|   |   |   |   |   |   |   src_bytes >= 23 : mscan (5/0) [5/0]
|   |   |   |   |   |   count >= 2.5
|   |   |   |   |   |   |   src_bytes < 10.5 : satan (34/2) [14/2]
|   |   |   |   |   |   |   src_bytes >= 10.5
|   |   |   |   |   |   |   |   src_bytes < 13.5 : normal (3/1) [1/0]
|   |   |   |   |   |   |   |   src_bytes >= 13.5 : mscan (30/0) [12/1]
|   |   |   |   src_bytes >= 24.5
|   |   |   |   |   is_guest_login < 0.5
|   |   |   |   |   |   dst_bytes < 188.5
|   |   |   |   |   |   |   dst_bytes < 76.5 : normal (54/3) [25/2]
|   |   |   |   |   |   |   dst_bytes >= 76.5
|   |   |   |   |   |   |   |   dst_host_srv_diff_host_rate < 0.16
|   |   |   |   |   |   |   |   |   dst_host_rerror_rate < 0.19 : guess_passwd (430/2) [204/0]
|   |   |   |   |   |   |   |   |   dst_host_rerror_rate >= 0.19 : normal (3/1) [7/2]
|   |   |   |   |   |   |   |   dst_host_srv_diff_host_rate >= 0.16 : normal (5/0) [4/0]
|   |   |   |   |   |   dst_bytes >= 188.5
|   |   |   |   |   |   |   src_bytes < 46
|   |   |   |   |   |   |   |   src_bytes < 39.5 : guess_passwd (3/2) [2/0]
|   |   |   |   |   |   |   |   src_bytes >= 39.5
|   |   |   |   |   |   |   |   |   count < 5.5 : mscan (7/0) [7/1]
|   |   |   |   |   |   |   |   |   count >= 5.5 : satan (2/0) [1/0]
|   |   |   |   |   |   |   src_bytes >= 46
|   |   |   |   |   |   |   |   src_bytes < 120.5
|   |   |   |   |   |   |   |   |   src_bytes < 117 : normal (23/0) [15/1]
|   |   |   |   |   |   |   |   |   src_bytes >= 117 : guess_passwd (8/3) [4/0]
|   |   |   |   |   |   |   |   src_bytes >= 120.5 : normal (58/0) [37/0]
|   |   |   |   |   is_guest_login >= 0.5 : warezmaster (149/4) [82/1]
|   |   src_bytes >= 164.5
|   |   |   src_bytes < 52185
|   |   |   |   src_bytes < 333.5
|   |   |   |   |   num_file_creations < 0.5
|   |   |   |   |   |   dst_bytes < 8.5
|   |   |   |   |   |   |   src_bytes < 245.5 : normal (290/1) [149/0]
|   |   |   |   |   |   |   src_bytes >= 245.5
|   |   |   |   |   |   |   |   src_bytes < 250.5 : warezclient (14/1) [8/2]
|   |   |   |   |   |   |   |   src_bytes >= 250.5 : normal (94/2) [56/3]
|   |   |   |   |   |   dst_bytes >= 8.5
|   |   |   |   |   |   |   logged_in < 0.5
|   |   |   |   |   |   |   |   src_bytes < 245 : httptunnel (7/0) [1/0]
|   |   |   |   |   |   |   |   src_bytes >= 245 : normal (2/0) [2/1]
|   |   |   |   |   |   |   logged_in >= 0.5
|   |   |   |   |   |   |   |   src_bytes < 168.5
|   |   |   |   |   |   |   |   |   is_guest_login < 0.5 : normal (119/1) [55/0]
|   |   |   |   |   |   |   |   |   is_guest_login >= 0.5 : warezmaster (7/0) [1/0]
|   |   |   |   |   |   |   |   src_bytes >= 168.5 : normal (19662/3) [9915/3]
|   |   |   |   |   num_file_creations >= 0.5 : normal (12/8) [6/4]
|   |   |   |   src_bytes >= 333.5
|   |   |   |   |   src_bytes < 334.5
|   |   |   |   |   |   dst_bytes < 130 : warezclient (221/0) [125/2]
|   |   |   |   |   |   dst_bytes >= 130 : normal (96/0) [40/0]
|   |   |   |   |   src_bytes >= 334.5
|   |   |   |   |   |   is_guest_login < 0.5
|   |   |   |   |   |   |   dst_host_rerror_rate < 0.03
|   |   |   |   |   |   |   |   dst_host_srv_diff_host_rate < 0.1
|   |   |   |   |   |   |   |   |   root_shell < 0.5
|   |   |   |   |   |   |   |   |   |   num_root < 0.5 : normal (7070/15) [3437/12]
|   |   |   |   |   |   |   |   |   |   num_root >= 0.5
|   |   |   |   |   |   |   |   |   |   |   dst_bytes < 732 : normal (123/1) [58/0]
|   |   |   |   |   |   |   |   |   |   |   dst_bytes >= 732
|   |   |   |   |   |   |   |   |   |   |   |   dst_bytes < 4810.5 : sendmail (2/0) [1/0]
|   |   |   |   |   |   |   |   |   |   |   |   dst_bytes >= 4810.5 : normal (17/3) [7/3]
|   |   |   |   |   |   |   |   |   root_shell >= 0.5
|   |   |   |   |   |   |   |   |   |   dst_bytes < 35581.5
|   |   |   |   |   |   |   |   |   |   |   src_bytes < 1303.5 : normal (9/4) [3/0]
|   |   |   |   |   |   |   |   |   |   |   src_bytes >= 1303.5 : buffer_overflow (13/2) [6/1]
|   |   |   |   |   |   |   |   |   |   dst_bytes >= 35581.5 : normal (22/0) [13/1]
|   |   |   |   |   |   |   |   dst_host_srv_diff_host_rate >= 0.1
|   |   |   |   |   |   |   |   |   dst_bytes < 99
|   |   |   |   |   |   |   |   |   |   logged_in < 0.5 : normal (16/1) [2/0]
|   |   |   |   |   |   |   |   |   |   logged_in >= 0.5
|   |   |   |   |   |   |   |   |   |   |   src_bytes < 790.5 : normal (4/0) [6/0]
|   |   |   |   |   |   |   |   |   |   |   src_bytes >= 790.5
|   |   |   |   |   |   |   |   |   |   |   |   src_bytes < 7609 : warezclient (28/1) [11/3]
|   |   |   |   |   |   |   |   |   |   |   |   src_bytes >= 7609 : normal (2/0) [2/0]
|   |   |   |   |   |   |   |   |   dst_bytes >= 99 : normal (38/4) [31/2]
|   |   |   |   |   |   |   dst_host_rerror_rate >= 0.03
|   |   |   |   |   |   |   |   src_bytes < 2590.5
|   |   |   |   |   |   |   |   |   src_bytes < 1557.5 : normal (336/3) [148/1]
|   |   |   |   |   |   |   |   |   src_bytes >= 1557.5
|   |   |   |   |   |   |   |   |   |   root_shell < 0.5
|   |   |   |   |   |   |   |   |   |   |   src_bytes < 1711.5
|   |   |   |   |   |   |   |   |   |   |   |   src_bytes < 1700.5 : normal (7/0) [9/0]
|   |   |   |   |   |   |   |   |   |   |   |   src_bytes >= 1700.5 : satan (3/0) [3/0]
|   |   |   |   |   |   |   |   |   |   |   src_bytes >= 1711.5 : normal (42/0) [25/0]
|   |   |   |   |   |   |   |   |   |   root_shell >= 0.5 : buffer_overflow (3/1) [0/0]
|   |   |   |   |   |   |   |   src_bytes >= 2590.5
|   |   |   |   |   |   |   |   |   src_bytes < 2603.5 : mailbomb (156/0) [78/0]
|   |   |   |   |   |   |   |   |   src_bytes >= 2603.5 : normal (104/5) [53/4]
|   |   |   |   |   |   is_guest_login >= 0.5
|   |   |   |   |   |   |   dst_bytes < 2568.5
|   |   |   |   |   |   |   |   src_bytes < 965 : normal (57/3) [26/3]
|   |   |   |   |   |   |   |   src_bytes >= 965 : warezclient (168/0) [68/0]
|   |   |   |   |   |   |   dst_bytes >= 2568.5 : normal (271/0) [130/0]
|   |   |   src_bytes >= 52185
|   |   |   |   src_bytes < 54614.5 : back (623/0) [310/0]
|   |   |   |   src_bytes >= 54614.5
|   |   |   |   |   logged_in < 0.5
|   |   |   |   |   |   src_bytes < 289215
|   |   |   |   |   |   |   src_bytes < 269809 : normal (23/4) [15/0]
|   |   |   |   |   |   |   src_bytes >= 269809 : warezmaster (116/0) [71/0]
|   |   |   |   |   |   src_bytes >= 289215 : normal (51/1) [26/1]
|   |   |   |   |   logged_in >= 0.5
|   |   |   |   |   |   src_bytes < 4568364 : normal (188/0) [97/0]
|   |   |   |   |   |   src_bytes >= 4568364
|   |   |   |   |   |   |   src_bytes < 5400163 : warezclient (33/0) [17/0]
|   |   |   |   |   |   |   src_bytes >= 5400163 : normal (5/0) [3/0]
|   protocol_type = udp
|   |   src_bytes < 28.5
|   |   |   wrong_fragment < 0.5
|   |   |   |   src_bytes < 5.5
|   |   |   |   |   count < 38.5
|   |   |   |   |   |   dst_bytes < 0.5 : satan (550/19) [294/10]
|   |   |   |   |   |   dst_bytes >= 0.5
|   |   |   |   |   |   |   dst_host_serror_rate < 0.08
|   |   |   |   |   |   |   |   same_srv_rate < 0.1 : satan (20/1) [13/2]
|   |   |   |   |   |   |   |   same_srv_rate >= 0.1 : normal (16/1) [9/3]
|   |   |   |   |   |   |   dst_host_serror_rate >= 0.08 : satan (35/0) [16/0]
|   |   |   |   |   count >= 38.5
|   |   |   |   |   |   same_srv_rate < 0.01 : satan (121/0) [54/1]
|   |   |   |   |   |   same_srv_rate >= 0.01
|   |   |   |   |   |   |   same_srv_rate < 0.51
|   |   |   |   |   |   |   |   count < 64.5
|   |   |   |   |   |   |   |   |   same_srv_rate < 0.04 : satan (34/1) [14/1]
|   |   |   |   |   |   |   |   |   same_srv_rate >= 0.04
|   |   |   |   |   |   |   |   |   |   dst_bytes < 0.5
|   |   |   |   |   |   |   |   |   |   |   same_srv_rate < 0.06
|   |   |   |   |   |   |   |   |   |   |   |   dst_host_rerror_rate < 0.34 : normal (5/1) [1/0]
|   |   |   |   |   |   |   |   |   |   |   |   dst_host_rerror_rate >= 0.34 : satan (4/0) [1/0]
|   |   |   |   |   |   |   |   |   |   |   same_srv_rate >= 0.06
|   |   |   |   |   |   |   |   |   |   |   |   dst_host_rerror_rate < 0.01 : satan (25/0) [14/1]
|   |   |   |   |   |   |   |   |   |   |   |   dst_host_rerror_rate >= 0.01
|   |   |   |   |   |   |   |   |   |   |   |   |   dst_host_rerror_rate < 0.14
|   |   |   |   |   |   |   |   |   |   |   |   |   |   count < 45.5 : satan (4/1) [1/0]
|   |   |   |   |   |   |   |   |   |   |   |   |   |   count >= 45.5 : normal (3/0) [0/0]
|   |   |   |   |   |   |   |   |   |   |   |   |   dst_host_rerror_rate >= 0.14
|   |   |   |   |   |   |   |   |   |   |   |   |   |   dst_host_rerror_rate < 0.47 : satan (17/0) [11/0]
|   |   |   |   |   |   |   |   |   |   |   |   |   |   dst_host_rerror_rate >= 0.47
|   |   |   |   |   |   |   |   |   |   |   |   |   |   |   dst_host_rerror_rate < 0.76 : normal (4/2) [2/0]
|   |   |   |   |   |   |   |   |   |   |   |   |   |   |   dst_host_rerror_rate >= 0.76 : satan (5/0) [1/0]
|   |   |   |   |   |   |   |   |   |   dst_bytes >= 0.5 : normal (4/0) [1/0]
|   |   |   |   |   |   |   |   count >= 64.5
|   |   |   |   |   |   |   |   |   dst_host_rerror_rate < 0.01
|   |   |   |   |   |   |   |   |   |   count < 105 : satan (18/2) [15/4]
|   |   |   |   |   |   |   |   |   |   count >= 105
|   |   |   |   |   |   |   |   |   |   |   count < 152 : normal (10/0) [5/0]
|   |   |   |   |   |   |   |   |   |   |   count >= 152
|   |   |   |   |   |   |   |   |   |   |   |   count < 327.5 : satan (6/1) [3/0]
|   |   |   |   |   |   |   |   |   |   |   |   count >= 327.5 : normal (2/0) [1/0]
|   |   |   |   |   |   |   |   |   dst_host_rerror_rate >= 0.01 : normal (20/2) [11/2]
|   |   |   |   |   |   |   same_srv_rate >= 0.51 : satan (105/0) [38/1]
|   |   |   |   src_bytes >= 5.5 : normal (46/2) [15/2]
|   |   |   wrong_fragment >= 0.5
|   |   |   |   dst_host_serror_rate < 0.14 : teardrop (491/12) [251/10]
|   |   |   |   dst_host_serror_rate >= 0.14 : normal (8/3) [2/0]
|   |   src_bytes >= 28.5
|   |   |   dst_bytes < 2
|   |   |   |   src_bytes < 177
|   |   |   |   |   src_bytes < 62
|   |   |   |   |   |   src_bytes < 38 : normal (257/0) [126/1]
|   |   |   |   |   |   src_bytes >= 38 : snmpguess (156/3) [77/1]
|   |   |   |   |   src_bytes >= 62
|   |   |   |   |   |   src_bytes < 101
|   |   |   |   |   |   |   src_bytes < 98.5 : normal (45/0) [16/0]
|   |   |   |   |   |   |   src_bytes >= 98.5 : nmap (21/2) [16/3]
|   |   |   |   |   |   src_bytes >= 101 : normal (318/3) [157/1]
|   |   |   |   src_bytes >= 177 : nmap (104/4) [67/2]
|   |   |   dst_bytes >= 2
|   |   |   |   dst_bytes < 145.5
|   |   |   |   |   count < 4.5
|   |   |   |   |   |   dst_bytes < 51.5
|   |   |   |   |   |   |   dst_bytes < 42.5 : normal (210/1) [96/3]
|   |   |   |   |   |   |   dst_bytes >= 42.5
|   |   |   |   |   |   |   |   count < 1.5 : normal (93/1) [46/1]
|   |   |   |   |   |   |   |   count >= 1.5
|   |   |   |   |   |   |   |   |   same_srv_rate < 0.71 : normal (36/0) [22/0]
|   |   |   |   |   |   |   |   |   same_srv_rate >= 0.71
|   |   |   |   |   |   |   |   |   |   src_bytes < 44.5
|   |   |   |   |   |   |   |   |   |   |   dst_bytes < 43.5
|   |   |   |   |   |   |   |   |   |   |   |   count < 2.5 : normal (4/0) [1/1]
|   |   |   |   |   |   |   |   |   |   |   |   count >= 2.5 : snmpguess (3/1) [1/0]
|   |   |   |   |   |   |   |   |   |   |   dst_bytes >= 43.5 : normal (34/1) [20/2]
|   |   |   |   |   |   |   |   |   |   src_bytes >= 44.5
|   |   |   |   |   |   |   |   |   |   |   src_bytes < 62
|   |   |   |   |   |   |   |   |   |   |   |   src_bytes < 48.5 : normal (32/13) [8/2]
|   |   |   |   |   |   |   |   |   |   |   |   src_bytes >= 48.5 : snmpguess (3/0) [4/1]
|   |   |   |   |   |   |   |   |   |   |   src_bytes >= 62 : normal (13/0) [4/0]
|   |   |   |   |   |   dst_bytes >= 51.5 : normal (1197/19) [570/4]
|   |   |   |   |   count >= 4.5 : normal (4653/1) [2483/0]
|   |   |   |   dst_bytes >= 145.5 : normal (579/77) [294/42]
|   protocol_type = icmp
|   |   src_bytes < 19
|   |   |   dst_host_srv_diff_host_rate < 0.45
|   |   |   |   src_bytes < 13 : nmap (562/21) [256/9]
|   |   |   |   src_bytes >= 13 : ipsweep (169/0) [85/0]
|   |   |   dst_host_srv_diff_host_rate >= 0.45 : ipsweep (1570/1) [771/1]
|   |   src_bytes >= 19
|   |   |   src_bytes < 345.5
|   |   |   |   src_bytes < 25
|   |   |   |   |   dst_host_srv_diff_host_rate < 0.13 : satan (16/3) [8/0]
|   |   |   |   |   dst_host_srv_diff_host_rate >= 0.13 : saint (53/0) [23/0]
|   |   |   |   src_bytes >= 25
|   |   |   |   |   same_srv_rate < 0.95 : normal (411/0) [197/0]
|   |   |   |   |   same_srv_rate >= 0.95
|   |   |   |   |   |   src_bytes < 33 : normal (224/0) [127/0]
|   |   |   |   |   |   src_bytes >= 33
|   |   |   |   |   |   |   src_bytes < 50.5
|   |   |   |   |   |   |   |   src_bytes < 36.5 : normal (14/2) [5/1]
|   |   |   |   |   |   |   |   src_bytes >= 36.5 : satan (3/0) [1/0]
|   |   |   |   |   |   |   src_bytes >= 50.5 : normal (82/0) [34/0]
|   |   |   src_bytes >= 345.5
|   |   |   |   src_bytes < 1256
|   |   |   |   |   count < 3.5
|   |   |   |   |   |   src_bytes < 786 : pod (10/4) [4/2]
|   |   |   |   |   |   src_bytes >= 786 : smurf (11/0) [2/0]
|   |   |   |   |   count >= 3.5 : smurf (1751/0) [881/0]
|   |   |   |   src_bytes >= 1256
|   |   |   |   |   src_bytes < 3944 : pod (129/7) [69/6]
|   |   |   |   |   src_bytes >= 3944 : normal (18/0) [7/0]
flag = RSTO
|   count < 8.5
|   |   dst_host_rerror_rate < 0.15
|   |   |   same_srv_rate < 0.75
|   |   |   |   src_bytes < 0.5 : mscan (10/2) [2/1]
|   |   |   |   src_bytes >= 0.5 : normal (3/0) [1/0]
|   |   |   same_srv_rate >= 0.75
|   |   |   |   dst_bytes < 26.5 : normal (77/0) [37/2]
|   |   |   |   dst_bytes >= 26.5
|   |   |   |   |   dst_bytes < 219.5
|   |   |   |   |   |   src_bytes < 60 : normal (2/1) [1/0]
|   |   |   |   |   |   src_bytes >= 60 : guess_passwd (11/0) [6/0]
|   |   |   |   |   dst_bytes >= 219.5 : normal (23/1) [9/1]
|   |   dst_host_rerror_rate >= 0.15
|   |   |   src_bytes < 21
|   |   |   |   dst_bytes < 1.5
|   |   |   |   |   dst_host_srv_diff_host_rate < 0.01 : portsweep (13/0) [10/4]
|   |   |   |   |   dst_host_srv_diff_host_rate >= 0.01 : normal (11/0) [6/0]
|   |   |   |   dst_bytes >= 1.5
|   |   |   |   |   dst_host_rerror_rate < 0.98 : mscan (186/2) [93/2]
|   |   |   |   |   dst_host_rerror_rate >= 0.98 : ipsweep (14/2) [7/0]
|   |   |   src_bytes >= 21
|   |   |   |   dst_host_serror_rate < 0.02 : normal (9/3) [4/1]
|   |   |   |   dst_host_serror_rate >= 0.02 : guess_passwd (27/0) [9/0]
|   count >= 8.5
|   |   dst_host_rerror_rate < 0.93
|   |   |   src_bytes < 3
|   |   |   |   same_srv_rate < 0.07 : portsweep (11/1) [2/0]
|   |   |   |   same_srv_rate >= 0.07 : neptune (4/0) [7/3]
|   |   |   src_bytes >= 3 : satan (3/1) [3/1]
|   |   dst_host_rerror_rate >= 0.93 : neptune (866/1) [397/1]
flag = S0
|   dst_host_serror_rate < 0.74
|   |   count < 6.5
|   |   |   srv_serror_rate < 0.75 : normal (140/0) [87/0]
|   |   |   srv_serror_rate >= 0.75
|   |   |   |   dst_host_rerror_rate < 0.8
|   |   |   |   |   count < 1.5 : normal (8/5) [3/1]
|   |   |   |   |   count >= 1.5 : neptune (3/0) [7/2]
|   |   |   |   dst_host_rerror_rate >= 0.8
|   |   |   |   |   dst_host_srv_diff_host_rate < 0.01 : portsweep (7/0) [6/0]
|   |   |   |   |   dst_host_srv_diff_host_rate >= 0.01 : normal (7/0) [0/0]
|   |   count >= 6.5
|   |   |   same_srv_rate < 0.63
|   |   |   |   count < 312.5
|   |   |   |   |   count < 91.5 : portsweep (12/0) [6/2]
|   |   |   |   |   count >= 91.5
|   |   |   |   |   |   same_srv_rate < 0.01
|   |   |   |   |   |   |   dst_host_rerror_rate < 0.57
|   |   |   |   |   |   |   |   serror_rate < 0.84 : portsweep (10/1) [5/0]
|   |   |   |   |   |   |   |   serror_rate >= 0.84 : neptune (9/0) [3/0]
|   |   |   |   |   |   |   dst_host_rerror_rate >= 0.57 : satan (9/4) [2/0]
|   |   |   |   |   |   same_srv_rate >= 0.01 : neptune (46/0) [12/0]
|   |   |   |   count >= 312.5 : satan (85/10) [44/5]
|   |   |   same_srv_rate >= 0.63
|   |   |   |   dst_host_rerror_rate < 0.14 : neptune (10/1) [10/3]
|   |   |   |   dst_host_rerror_rate >= 0.14 : apache2 (114/0) [60/0]
|   dst_host_serror_rate >= 0.74
|   |   count < 1.5
|   |   |   dst_host_srv_diff_host_rate < 0.01 : neptune (43/13) [23/4]
|   |   |   dst_host_srv_diff_host_rate >= 0.01
|   |   |   |   dst_host_srv_diff_host_rate < 0.04 : mscan (73/4) [44/2]
|   |   |   |   dst_host_srv_diff_host_rate >= 0.04
|   |   |   |   |   dst_host_srv_diff_host_rate < 0.3 : normal (12/3) [7/1]
|   |   |   |   |   dst_host_srv_diff_host_rate >= 0.3 : land (17/8) [3/1]
|   |   count >= 1.5
|   |   |   dst_host_rerror_rate < 0.12 : neptune (18904/4) [9568/1]
|   |   |   dst_host_rerror_rate >= 0.12
|   |   |   |   count < 115 : apache2 (10/0) [6/1]
|   |   |   |   count >= 115 : neptune (14/0) [12/0]
flag = S3
|   src_bytes < 5 : processtable (112/1) [64/0]
|   src_bytes >= 5
|   |   srv_rerror_rate < 0.53
|   |   |   src_bytes < 139.5 : guess_passwd (9/4) [1/0]
|   |   |   src_bytes >= 139.5 : normal (32/1) [7/0]
|   |   srv_rerror_rate >= 0.53 : apache2 (4/0) [0/0]
flag = RSTR
|   src_bytes < 3.5
|   |   dst_host_rerror_rate < 0.95
|   |   |   dst_host_rerror_rate < 0.92 : portsweep (536/11) [284/5]
|   |   |   dst_host_rerror_rate >= 0.92
|   |   |   |   count < 18 : portsweep (20/4) [8/1]
|   |   |   |   count >= 18 : normal (9/4) [2/0]
|   |   dst_host_rerror_rate >= 0.95 : portsweep (654/0) [317/2]
|   src_bytes >= 3.5
|   |   dst_bytes < 8.5 : apache2 (266/6) [133/3]
|   |   dst_bytes >= 8.5
|   |   |   src_bytes < 14800.5 : normal (83/5) [50/3]
|   |   |   src_bytes >= 14800.5 : back (70/0) [38/0]
flag = S1 : normal (211/10) [97/3]
flag = S2
|   src_bytes < 33396 : normal (63/3) [38/4]
|   src_bytes >= 33396 : back (6/0) [1/0]
flag = OTH
|   dst_host_rerror_rate < 0.13 : normal (8/1) [2/0]
|   dst_host_rerror_rate >= 0.13 : portsweep (24/0) [11/0]
flag = RSTOS0 : portsweep (52/1) [24/1]
flag = SH
|   srv_rerror_rate < 0.01 : nmap (173/1) [93/0]
|   srv_rerror_rate >= 0.01 : imap (3/0) [1/0]

Size of the tree : 561

FilteredClassifier using weka.classifiers.trees.REPTree -M 2 -V 0.001 -N 3 -S 856707140 -L -1 -I 0.0 on data filtered through weka.filters.unsupervised.attribute.Remove -V -R 41,6,2,32,19,11,5,16,28,25,26,30,10,33,23,21,7,9,29,1,27,42

Filtered Header
@relation 'train-80-weka.filters.unsupervised.attribute.Remove-R43-weka.filters.unsupervised.attribute.Remove-V-R41,6,2,32,19,11,5,16,28,25,26,30,10,33,23,21,7,9,29,1,27,42'

@attribute dst_host_srv_rerror_rate numeric
@attribute dst_bytes numeric
@attribute protocol_type {tcp,udp,icmp}
@attribute dst_host_count numeric
@attribute num_access_files numeric
@attribute num_failed_logins numeric
@attribute src_bytes numeric
@attribute num_root numeric
@attribute srv_rerror_rate numeric
@attribute serror_rate numeric
@attribute srv_serror_rate numeric
@attribute diff_srv_rate numeric
@attribute hot numeric
@attribute dst_host_srv_count numeric
@attribute count numeric
@attribute is_host_login numeric
@attribute land numeric
@attribute urgent numeric
@attribute same_srv_rate numeric
@attribute duration numeric
@attribute rerror_rate numeric
@attribute outcome {normal,neptune,warezclient,ipsweep,portsweep,teardrop,nmap,satan,smurf,pod,back,guess_passwd,ftp_write,multihop,rootkit,buffer_overflow,imap,warezmaster,phf,land,loadmodule,spy,perl,saint,mscan,apache2,snmpgetattack,processtable,httptunnel,ps,snmpguess,mailbomb,named,sendmail,xterm,worm,xlock,xsnoop,sqlattack,udpstorm}

@data


Classifier Model

REPTree
============

src_bytes < 8.5
|   count < 4.5
|   |   protocol_type = tcp
|   |   |   dst_host_srv_count < 2.5
|   |   |   |   dst_host_count < 71.5
|   |   |   |   |   serror_rate < 0.17
|   |   |   |   |   |   dst_host_count < 7.5
|   |   |   |   |   |   |   dst_bytes < 602.5
|   |   |   |   |   |   |   |   dst_host_count < 1.5 : normal (9/1) [2/0]
|   |   |   |   |   |   |   |   dst_host_count >= 1.5
|   |   |   |   |   |   |   |   |   duration < 1.5
|   |   |   |   |   |   |   |   |   |   dst_host_srv_rerror_rate < 0.25 : normal (4/1) [1/0]
|   |   |   |   |   |   |   |   |   |   dst_host_srv_rerror_rate >= 0.25
|   |   |   |   |   |   |   |   |   |   |   dst_bytes < 7.5
|   |   |   |   |   |   |   |   |   |   |   |   dst_host_count < 4.5 : normal (5/0) [2/0]
|   |   |   |   |   |   |   |   |   |   |   |   dst_host_count >= 4.5 : ipsweep (9/4) [4/0]
|   |   |   |   |   |   |   |   |   |   |   dst_bytes >= 7.5 : ipsweep (6/0) [1/0]
|   |   |   |   |   |   |   |   |   duration >= 1.5 : ipsweep (9/0) [6/1]
|   |   |   |   |   |   |   dst_bytes >= 602.5 : warezmaster (4/2) [3/2]
|   |   |   |   |   |   dst_host_count >= 7.5
|   |   |   |   |   |   |   dst_bytes < 9.5 : ipsweep (223/19) [118/8]
|   |   |   |   |   |   |   dst_bytes >= 9.5 : normal (8/1) [7/2]
|   |   |   |   |   serror_rate >= 0.17
|   |   |   |   |   |   land < 0.5 : nmap (50/4) [34/10]
|   |   |   |   |   |   land >= 0.5 : land (6/2) [2/0]
|   |   |   |   dst_host_count >= 71.5
|   |   |   |   |   serror_rate < 0.63
|   |   |   |   |   |   dst_bytes < 7.5 : portsweep (1393/34) [703/25]
|   |   |   |   |   |   dst_bytes >= 7.5 : normal (31/9) [9/2]
|   |   |   |   |   serror_rate >= 0.63
|   |   |   |   |   |   dst_host_count < 253 : nmap (116/5) [59/0]
|   |   |   |   |   |   dst_host_count >= 253
|   |   |   |   |   |   |   count < 1.5 : nmap (26/11) [16/8]
|   |   |   |   |   |   |   count >= 1.5 : neptune (20/2) [6/1]
|   |   |   dst_host_srv_count >= 2.5
|   |   |   |   dst_host_count < 253.5
|   |   |   |   |   dst_host_srv_count < 101.5
|   |   |   |   |   |   dst_host_srv_count < 47.5
|   |   |   |   |   |   |   srv_serror_rate < 0.63
|   |   |   |   |   |   |   |   dst_bytes < 2563.5
|   |   |   |   |   |   |   |   |   diff_srv_rate < 0.71
|   |   |   |   |   |   |   |   |   |   dst_host_srv_rerror_rate < 0.29
|   |   |   |   |   |   |   |   |   |   |   src_bytes < 2.5
|   |   |   |   |   |   |   |   |   |   |   |   dst_host_srv_count < 9.5 : normal (22/11) [9/5]
|   |   |   |   |   |   |   |   |   |   |   |   dst_host_srv_count >= 9.5
|   |   |   |   |   |   |   |   |   |   |   |   |   dst_bytes < 9.5 : normal (51/0) [28/4]
|   |   |   |   |   |   |   |   |   |   |   |   |   dst_bytes >= 9.5
|   |   |   |   |   |   |   |   |   |   |   |   |   |   dst_host_srv_rerror_rate < 0.03 : normal (2/0) [2/0]
|   |   |   |   |   |   |   |   |   |   |   |   |   |   dst_host_srv_rerror_rate >= 0.03 : ipsweep (2/0) [1/0]
|   |   |   |   |   |   |   |   |   |   |   src_bytes >= 2.5 : normal (142/1) [67/0]
|   |   |   |   |   |   |   |   |   |   dst_host_srv_rerror_rate >= 0.29
|   |   |   |   |   |   |   |   |   |   |   dst_host_count < 44.5 : normal (130/0) [70/1]
|   |   |   |   |   |   |   |   |   |   |   dst_host_count >= 44.5
|   |   |   |   |   |   |   |   |   |   |   |   dst_host_count < 128.5
|   |   |   |   |   |   |   |   |   |   |   |   |   dst_host_srv_count < 24.5
|   |   |   |   |   |   |   |   |   |   |   |   |   |   count < 2 : httptunnel (15/3) [4/2]
|   |   |   |   |   |   |   |   |   |   |   |   |   |   count >= 2 : normal (2/0) [1/0]
|   |   |   |   |   |   |   |   |   |   |   |   |   dst_host_srv_count >= 24.5 : mscan (4/1) [4/2]
|   |   |   |   |   |   |   |   |   |   |   |   dst_host_count >= 128.5
|   |   |   |   |   |   |   |   |   |   |   |   |   srv_rerror_rate < 0.93 : mscan (3/0) [2/0]
|   |   |   |   |   |   |   |   |   |   |   |   |   srv_rerror_rate >= 0.93
|   |   |   |   |   |   |   |   |   |   |   |   |   |   dst_host_srv_count < 26 : normal (8/1) [5/3]
|   |   |   |   |   |   |   |   |   |   |   |   |   |   dst_host_srv_count >= 26 : mscan (2/0) [1/0]
|   |   |   |   |   |   |   |   |   diff_srv_rate >= 0.71
|   |   |   |   |   |   |   |   |   |   dst_host_srv_rerror_rate < 0.04 : normal (9/0) [2/0]
|   |   |   |   |   |   |   |   |   |   dst_host_srv_rerror_rate >= 0.04 : mscan (20/1) [8/0]
|   |   |   |   |   |   |   |   dst_bytes >= 2563.5 : warezmaster (15/6) [13/6]
|   |   |   |   |   |   |   srv_serror_rate >= 0.63
|   |   |   |   |   |   |   |   count < 1.5
|   |   |   |   |   |   |   |   |   land < 0.5 : normal (18/10) [7/4]
|   |   |   |   |   |   |   |   |   land >= 0.5 : land (7/1) [8/3]
|   |   |   |   |   |   |   |   count >= 1.5 : neptune (18/3) [11/1]
|   |   |   |   |   |   dst_host_srv_count >= 47.5
|   |   |   |   |   |   |   dst_host_count < 19.5
|   |   |   |   |   |   |   |   srv_rerror_rate < 0.95
|   |   |   |   |   |   |   |   |   dst_bytes < 48.5
|   |   |   |   |   |   |   |   |   |   dst_host_srv_count < 92 : mscan (16/1) [11/0]
|   |   |   |   |   |   |   |   |   |   dst_host_srv_count >= 92 : normal (2/0) [1/0]
|   |   |   |   |   |   |   |   |   dst_bytes >= 48.5
|   |   |   |   |   |   |   |   |   |   dst_bytes < 2552.5 : ipsweep (3/1) [1/0]
|   |   |   |   |   |   |   |   |   |   dst_bytes >= 2552.5 : buffer_overflow (2/0) [1/0]
|   |   |   |   |   |   |   |   srv_rerror_rate >= 0.95
|   |   |   |   |   |   |   |   |   dst_host_srv_rerror_rate < 0.04 : ipsweep (3/0) [2/1]
|   |   |   |   |   |   |   |   |   dst_host_srv_rerror_rate >= 0.04
|   |   |   |   |   |   |   |   |   |   diff_srv_rate < 0.5 : normal (75/2) [59/2]
|   |   |   |   |   |   |   |   |   |   diff_srv_rate >= 0.5 : mscan (2/0) [1/0]
|   |   |   |   |   |   |   dst_host_count >= 19.5
|   |   |   |   |   |   |   |   dst_bytes < 65.5
|   |   |   |   |   |   |   |   |   dst_bytes < 6
|   |   |   |   |   |   |   |   |   |   srv_serror_rate < 0.75
|   |   |   |   |   |   |   |   |   |   |   same_srv_rate < 0.58 : mscan (64/2) [22/0]
|   |   |   |   |   |   |   |   |   |   |   same_srv_rate >= 0.58
|   |   |   |   |   |   |   |   |   |   |   |   dst_host_count < 145.5
|   |   |   |   |   |   |   |   |   |   |   |   |   srv_rerror_rate < 0.1 : normal (10/0) [2/0]
|   |   |   |   |   |   |   |   |   |   |   |   |   srv_rerror_rate >= 0.1
|   |   |   |   |   |   |   |   |   |   |   |   |   |   srv_rerror_rate < 0.92 : mscan (21/0) [15/0]
|   |   |   |   |   |   |   |   |   |   |   |   |   |   srv_rerror_rate >= 0.92
|   |   |   |   |   |   |   |   |   |   |   |   |   |   |   dst_host_srv_count < 53
|   |   |   |   |   |   |   |   |   |   |   |   |   |   |   |   dst_host_count < 69.5
|   |   |   |   |   |   |   |   |   |   |   |   |   |   |   |   |   dst_host_count < 29 : mscan (2/0) [1/0]
|   |   |   |   |   |   |   |   |   |   |   |   |   |   |   |   |   dst_host_count >= 29 : normal (4/1) [1/0]
|   |   |   |   |   |   |   |   |   |   |   |   |   |   |   |   dst_host_count >= 69.5 : mscan (7/0) [0/0]
|   |   |   |   |   |   |   |   |   |   |   |   |   |   |   dst_host_srv_count >= 53
|   |   |   |   |   |   |   |   |   |   |   |   |   |   |   |   dst_host_srv_rerror_rate < 0.97
|   |   |   |   |   |   |   |   |   |   |   |   |   |   |   |   |   dst_host_srv_rerror_rate < 0.64 : normal (4/1) [3/1]
|   |   |   |   |   |   |   |   |   |   |   |   |   |   |   |   |   dst_host_srv_rerror_rate >= 0.64 : mscan (3/1) [1/0]
|   |   |   |   |   |   |   |   |   |   |   |   |   |   |   |   dst_host_srv_rerror_rate >= 0.97 : normal (20/0) [11/1]
|   |   |   |   |   |   |   |   |   |   |   |   dst_host_count >= 145.5 : mscan (24/5) [11/4]
|   |   |   |   |   |   |   |   |   |   srv_serror_rate >= 0.75
|   |   |   |   |   |   |   |   |   |   |   count < 1.5
|   |   |   |   |   |   |   |   |   |   |   |   dst_host_srv_count < 83.5
|   |   |   |   |   |   |   |   |   |   |   |   |   dst_host_srv_rerror_rate < 0.05 : neptune (3/1) [1/0]
|   |   |   |   |   |   |   |   |   |   |   |   |   dst_host_srv_rerror_rate >= 0.05 : mscan (10/0) [6/1]
|   |   |   |   |   |   |   |   |   |   |   |   dst_host_srv_count >= 83.5 : mscan (37/0) [20/0]
|   |   |   |   |   |   |   |   |   |   |   count >= 1.5 : neptune (5/0) [2/0]
|   |   |   |   |   |   |   |   |   dst_bytes >= 6 : mscan (110/0) [50/1]
|   |   |   |   |   |   |   |   dst_bytes >= 65.5 : normal (17/0) [7/0]
|   |   |   |   |   dst_host_srv_count >= 101.5
|   |   |   |   |   |   dst_host_srv_count < 138.5
|   |   |   |   |   |   |   serror_rate < 0.75
|   |   |   |   |   |   |   |   dst_host_count < 160
|   |   |   |   |   |   |   |   |   dst_host_srv_rerror_rate < 0.29
|   |   |   |   |   |   |   |   |   |   dst_host_count < 6.5 : ipsweep (5/1) [1/0]
|   |   |   |   |   |   |   |   |   |   dst_host_count >= 6.5 : normal (21/0) [7/0]
|   |   |   |   |   |   |   |   |   dst_host_srv_rerror_rate >= 0.29 : normal (71/0) [38/2]
|   |   |   |   |   |   |   |   dst_host_count >= 160 : normal (16/5) [4/1]
|   |   |   |   |   |   |   serror_rate >= 0.75
|   |   |   |   |   |   |   |   dst_host_srv_rerror_rate < 0.44 : neptune (10/0) [6/0]
|   |   |   |   |   |   |   |   dst_host_srv_rerror_rate >= 0.44 : normal (4/0) [4/0]
|   |   |   |   |   |   dst_host_srv_count >= 138.5 : normal (1167/1) [552/1]
|   |   |   |   dst_host_count >= 253.5
|   |   |   |   |   dst_host_srv_rerror_rate < 0.3
|   |   |   |   |   |   dst_bytes < 7.5
|   |   |   |   |   |   |   srv_serror_rate < 0.75
|   |   |   |   |   |   |   |   diff_srv_rate < 0.5 : normal (37/3) [27/2]
|   |   |   |   |   |   |   |   diff_srv_rate >= 0.5
|   |   |   |   |   |   |   |   |   dst_host_srv_rerror_rate < 0.05 : mscan (3/1) [2/1]
|   |   |   |   |   |   |   |   |   dst_host_srv_rerror_rate >= 0.05 : portsweep (2/0) [0/0]
|   |   |   |   |   |   |   srv_serror_rate >= 0.75
|   |   |   |   |   |   |   |   dst_host_srv_count < 80 : neptune (90/1) [40/0]
|   |   |   |   |   |   |   |   dst_host_srv_count >= 80 : mscan (3/0) [2/1]
|   |   |   |   |   |   dst_bytes >= 7.5
|   |   |   |   |   |   |   dst_bytes < 51.5 : processtable (369/5) [183/2]
|   |   |   |   |   |   |   dst_bytes >= 51.5 : normal (51/2) [12/1]
|   |   |   |   |   dst_host_srv_rerror_rate >= 0.3
|   |   |   |   |   |   dst_bytes < 1.5
|   |   |   |   |   |   |   diff_srv_rate < 0.71
|   |   |   |   |   |   |   |   srv_rerror_rate < 0.96 : mscan (17/6) [1/1]
|   |   |   |   |   |   |   |   srv_rerror_rate >= 0.96
|   |   |   |   |   |   |   |   |   dst_host_srv_count < 53
|   |   |   |   |   |   |   |   |   |   dst_host_srv_rerror_rate < 0.95 : httptunnel (23/1) [11/3]
|   |   |   |   |   |   |   |   |   |   dst_host_srv_rerror_rate >= 0.95
|   |   |   |   |   |   |   |   |   |   |   dst_host_srv_count < 14.5
|   |   |   |   |   |   |   |   |   |   |   |   dst_host_srv_count < 7.5 : normal (10/4) [8/5]
|   |   |   |   |   |   |   |   |   |   |   |   dst_host_srv_count >= 7.5 : httptunnel (10/1) [6/1]
|   |   |   |   |   |   |   |   |   |   |   dst_host_srv_count >= 14.5 : mscan (14/7) [12/6]
|   |   |   |   |   |   |   |   |   dst_host_srv_count >= 53 : normal (13/3) [6/0]
|   |   |   |   |   |   |   diff_srv_rate >= 0.71
|   |   |   |   |   |   |   |   rerror_rate < 0.58
|   |   |   |   |   |   |   |   |   dst_host_srv_count < 48
|   |   |   |   |   |   |   |   |   |   count < 2.5 : httptunnel (5/1) [5/0]
|   |   |   |   |   |   |   |   |   |   count >= 2.5 : mscan (2/0) [1/0]
|   |   |   |   |   |   |   |   |   dst_host_srv_count >= 48 : mscan (4/0) [1/0]
|   |   |   |   |   |   |   |   rerror_rate >= 0.58 : mscan (28/0) [19/0]
|   |   |   |   |   |   dst_bytes >= 1.5 : mscan (81/1) [37/1]
|   |   protocol_type = udp : satan (75/3) [28/3]
|   |   protocol_type = icmp
|   |   |   dst_host_count < 2.5
|   |   |   |   dst_host_srv_count < 132.5
|   |   |   |   |   dst_host_srv_count < 40.5 : ipsweep (369/23) [227/23]
|   |   |   |   |   dst_host_srv_count >= 40.5
|   |   |   |   |   |   dst_host_srv_count < 42.5
|   |   |   |   |   |   |   dst_host_count < 1.5 : ipsweep (17/5) [3/1]
|   |   |   |   |   |   |   dst_host_count >= 1.5
|   |   |   |   |   |   |   |   dst_host_srv_count < 41.5 : nmap (8/2) [2/0]
|   |   |   |   |   |   |   |   dst_host_srv_count >= 41.5 : ipsweep (10/3) [3/1]
|   |   |   |   |   |   dst_host_srv_count >= 42.5
|   |   |   |   |   |   |   dst_host_srv_count < 60.5 : ipsweep (194/11) [99/8]
|   |   |   |   |   |   |   dst_host_srv_count >= 60.5
|   |   |   |   |   |   |   |   dst_host_srv_count < 61.5
|   |   |   |   |   |   |   |   |   dst_host_count < 1.5 : ipsweep (24/9) [4/4]
|   |   |   |   |   |   |   |   |   dst_host_count >= 1.5 : nmap (14/5) [5/2]
|   |   |   |   |   |   |   |   dst_host_srv_count >= 61.5
|   |   |   |   |   |   |   |   |   dst_host_srv_count < 72.5 : ipsweep (139/9) [52/5]
|   |   |   |   |   |   |   |   |   dst_host_srv_count >= 72.5
|   |   |   |   |   |   |   |   |   |   dst_host_srv_count < 81.5
|   |   |   |   |   |   |   |   |   |   |   dst_host_srv_count < 79.5 : ipsweep (66/9) [33/3]
|   |   |   |   |   |   |   |   |   |   |   dst_host_srv_count >= 79.5
|   |   |   |   |   |   |   |   |   |   |   |   dst_host_srv_count < 80.5
|   |   |   |   |   |   |   |   |   |   |   |   |   dst_host_count < 1.5 : nmap (6/0) [2/0]
|   |   |   |   |   |   |   |   |   |   |   |   |   dst_host_count >= 1.5 : ipsweep (18/6) [4/1]
|   |   |   |   |   |   |   |   |   |   |   |   dst_host_srv_count >= 80.5 : ipsweep (21/4) [6/0]
|   |   |   |   |   |   |   |   |   |   dst_host_srv_count >= 81.5 : ipsweep (405/48) [204/23]
|   |   |   |   dst_host_srv_count >= 132.5 : ipsweep (350/118) [186/46]
|   |   |   dst_host_count >= 2.5
|   |   |   |   dst_host_srv_count < 5.5
|   |   |   |   |   count < 1.5 : nmap (7/2) [10/2]
|   |   |   |   |   count >= 1.5 : ipsweep (4/0) [1/0]
|   |   |   |   dst_host_srv_count >= 5.5 : nmap (264/2) [126/1]
|   count >= 4.5
|   |   diff_srv_rate < 0.36
|   |   |   src_bytes < 0.5
|   |   |   |   dst_host_srv_count < 101.5
|   |   |   |   |   duration < 0.5 : neptune (24110/4) [12063/5]
|   |   |   |   |   duration >= 0.5 : portsweep (4/0) [3/1]
|   |   |   |   dst_host_srv_count >= 101.5
|   |   |   |   |   srv_serror_rate < 0.36
|   |   |   |   |   |   dst_host_count < 247 : normal (116/0) [46/0]
|   |   |   |   |   |   dst_host_count >= 247
|   |   |   |   |   |   |   dst_host_srv_rerror_rate < 0.14 : normal (9/0) [5/0]
|   |   |   |   |   |   |   dst_host_srv_rerror_rate >= 0.14 : apache2 (11/0) [7/0]
|   |   |   |   |   srv_serror_rate >= 0.36
|   |   |   |   |   |   dst_host_srv_rerror_rate < 0.07 : neptune (61/0) [30/0]
|   |   |   |   |   |   dst_host_srv_rerror_rate >= 0.07 : apache2 (108/0) [63/0]
|   |   |   src_bytes >= 0.5
|   |   |   |   diff_srv_rate < 0.11
|   |   |   |   |   dst_host_count < 72 : normal (2/1) [3/1]
|   |   |   |   |   dst_host_count >= 72 : satan (349/2) [160/0]
|   |   |   |   diff_srv_rate >= 0.11
|   |   |   |   |   same_srv_rate < 0.9
|   |   |   |   |   |   count < 58.5 : satan (250/13) [139/7]
|   |   |   |   |   |   count >= 58.5 : normal (5/0) [4/1]
|   |   |   |   |   same_srv_rate >= 0.9
|   |   |   |   |   |   same_srv_rate < 0.92 : satan (3/1) [2/0]
|   |   |   |   |   |   same_srv_rate >= 0.92
|   |   |   |   |   |   |   diff_srv_rate < 0.14 : satan (5/2) [1/0]
|   |   |   |   |   |   |   diff_srv_rate >= 0.14 : normal (5/0) [3/2]
|   |   diff_srv_rate >= 0.36
|   |   |   diff_srv_rate < 0.89
|   |   |   |   rerror_rate < 0.18
|   |   |   |   |   serror_rate < 0.5
|   |   |   |   |   |   dst_host_srv_count < 2.5 : satan (152/10) [90/12]
|   |   |   |   |   |   dst_host_srv_count >= 2.5
|   |   |   |   |   |   |   count < 21 : satan (17/4) [8/2]
|   |   |   |   |   |   |   count >= 21 : normal (29/1) [21/1]
|   |   |   |   |   serror_rate >= 0.5 : neptune (134/0) [68/0]
|   |   |   |   rerror_rate >= 0.18
|   |   |   |   |   count < 9
|   |   |   |   |   |   diff_srv_rate < 0.7 : neptune (7/4) [5/3]
|   |   |   |   |   |   diff_srv_rate >= 0.7 : mscan (14/0) [8/0]
|   |   |   |   |   count >= 9
|   |   |   |   |   |   dst_host_count < 182
|   |   |   |   |   |   |   duration < 2 : portsweep (13/1) [2/0]
|   |   |   |   |   |   |   duration >= 2 : normal (8/0) [2/0]
|   |   |   |   |   |   dst_host_count >= 182 : portsweep (219/0) [122/1]
|   |   |   diff_srv_rate >= 0.89
|   |   |   |   rerror_rate < 0.91
|   |   |   |   |   dst_host_srv_count < 1.5 : satan (832/11) [392/7]
|   |   |   |   |   dst_host_srv_count >= 1.5
|   |   |   |   |   |   protocol_type = tcp : satan (16/2) [6/2]
|   |   |   |   |   |   protocol_type = udp : normal (10/1) [3/0]
|   |   |   |   |   |   protocol_type = icmp : satan (0/0) [0/0]
|   |   |   |   rerror_rate >= 0.91
|   |   |   |   |   count < 427
|   |   |   |   |   |   dst_host_count < 61.5 : portsweep (5/2) [1/0]
|   |   |   |   |   |   dst_host_count >= 61.5
|   |   |   |   |   |   |   serror_rate < 0.06 : satan (217/0) [124/0]
|   |   |   |   |   |   |   serror_rate >= 0.06
|   |   |   |   |   |   |   |   count < 311
|   |   |   |   |   |   |   |   |   count < 186.5 : satan (30/1) [23/0]
|   |   |   |   |   |   |   |   |   count >= 186.5
|   |   |   |   |   |   |   |   |   |   rerror_rate < 0.92 : satan (3/1) [2/0]
|   |   |   |   |   |   |   |   |   |   rerror_rate >= 0.92 : saint (5/0) [1/0]
|   |   |   |   |   |   |   |   count >= 311 : satan (75/1) [40/3]
|   |   |   |   |   count >= 427
|   |   |   |   |   |   rerror_rate < 0.94
|   |   |   |   |   |   |   serror_rate < 0.04 : saint (3/0) [3/0]
|   |   |   |   |   |   |   serror_rate >= 0.04
|   |   |   |   |   |   |   |   count < 444.5
|   |   |   |   |   |   |   |   |   serror_rate < 0.08
|   |   |   |   |   |   |   |   |   |   rerror_rate < 0.93 : saint (5/0) [3/0]
|   |   |   |   |   |   |   |   |   |   rerror_rate >= 0.93 : satan (8/1) [6/0]
|   |   |   |   |   |   |   |   |   serror_rate >= 0.08 : satan (15/0) [3/0]
|   |   |   |   |   |   |   |   count >= 444.5 : satan (171/12) [85/6]
|   |   |   |   |   |   rerror_rate >= 0.94
|   |   |   |   |   |   |   count < 445.5 : saint (16/0) [6/0]
|   |   |   |   |   |   |   count >= 445.5
|   |   |   |   |   |   |   |   serror_rate < 0.03 : satan (40/0) [29/0]
|   |   |   |   |   |   |   |   serror_rate >= 0.03
|   |   |   |   |   |   |   |   |   diff_srv_rate < 0.99 : satan (11/0) [5/0]
|   |   |   |   |   |   |   |   |   diff_srv_rate >= 0.99
|   |   |   |   |   |   |   |   |   |   count < 461 : satan (7/0) [7/2]
|   |   |   |   |   |   |   |   |   |   count >= 461
|   |   |   |   |   |   |   |   |   |   |   count < 506.5
|   |   |   |   |   |   |   |   |   |   |   |   count < 481.5 : satan (15/4) [7/2]
|   |   |   |   |   |   |   |   |   |   |   |   count >= 481.5 : saint (32/10) [18/6]
|   |   |   |   |   |   |   |   |   |   |   count >= 506.5 : satan (49/16) [26/8]
src_bytes >= 8.5
|   protocol_type = tcp
|   |   src_bytes < 20963.5
|   |   |   src_bytes < 166.5
|   |   |   |   hot < 1.5
|   |   |   |   |   dst_bytes < 219.5
|   |   |   |   |   |   dst_bytes < 43.5
|   |   |   |   |   |   |   dst_host_count < 11.5
|   |   |   |   |   |   |   |   src_bytes < 12.5
|   |   |   |   |   |   |   |   |   src_bytes < 11.5 : normal (20/5) [5/1]
|   |   |   |   |   |   |   |   |   src_bytes >= 11.5
|   |   |   |   |   |   |   |   |   |   dst_host_srv_count < 43.5 : warezmaster (93/0) [45/2]
|   |   |   |   |   |   |   |   |   |   dst_host_srv_count >= 43.5 : normal (4/0) [6/0]
|   |   |   |   |   |   |   |   src_bytes >= 12.5 : normal (44/4) [11/1]
|   |   |   |   |   |   |   dst_host_count >= 11.5
|   |   |   |   |   |   |   |   src_bytes < 12.5
|   |   |   |   |   |   |   |   |   src_bytes < 11.5
|   |   |   |   |   |   |   |   |   |   duration < 0.5 : normal (132/1) [53/1]
|   |   |   |   |   |   |   |   |   |   duration >= 0.5
|   |   |   |   |   |   |   |   |   |   |   dst_bytes < 31.5 : satan (3/1) [1/0]
|   |   |   |   |   |   |   |   |   |   |   dst_bytes >= 31.5 : normal (18/0) [9/0]
|   |   |   |   |   |   |   |   |   src_bytes >= 11.5
|   |   |   |   |   |   |   |   |   |   dst_host_srv_count < 26.5
|   |   |   |   |   |   |   |   |   |   |   dst_host_srv_count < 3.5 : warezmaster (2/0) [2/0]
|   |   |   |   |   |   |   |   |   |   |   dst_host_srv_count >= 3.5 : normal (35/12) [25/7]
|   |   |   |   |   |   |   |   |   |   dst_host_srv_count >= 26.5
|   |   |   |   |   |   |   |   |   |   |   dst_host_count < 243.5
|   |   |   |   |   |   |   |   |   |   |   |   dst_host_count < 15.5
|   |   |   |   |   |   |   |   |   |   |   |   |   dst_host_count < 12.5 : normal (2/0) [0/0]
|   |   |   |   |   |   |   |   |   |   |   |   |   dst_host_count >= 12.5 : warezmaster (3/1) [1/0]
|   |   |   |   |   |   |   |   |   |   |   |   dst_host_count >= 15.5 : normal (95/4) [46/4]
|   |   |   |   |   |   |   |   |   |   |   dst_host_count >= 243.5 : normal (11/3) [6/1]
|   |   |   |   |   |   |   |   src_bytes >= 12.5 : normal (328/3) [157/2]
|   |   |   |   |   |   dst_bytes >= 43.5
|   |   |   |   |   |   |   dst_host_srv_count < 16.5
|   |   |   |   |   |   |   |   dst_bytes < 173.5
|   |   |   |   |   |   |   |   |   dst_bytes < 124.5
|   |   |   |   |   |   |   |   |   |   dst_host_count < 110.5 : guess_passwd (9/0) [4/1]
|   |   |   |   |   |   |   |   |   |   dst_host_count >= 110.5
|   |   |   |   |   |   |   |   |   |   |   src_bytes < 43.5 : satan (3/1) [2/1]
|   |   |   |   |   |   |   |   |   |   |   src_bytes >= 43.5 : normal (3/1) [1/0]
|   |   |   |   |   |   |   |   |   dst_bytes >= 124.5 : normal (127/6) [53/1]
|   |   |   |   |   |   |   |   dst_bytes >= 173.5
|   |   |   |   |   |   |   |   |   count < 2.5
|   |   |   |   |   |   |   |   |   |   src_bytes < 102.5
|   |   |   |   |   |   |   |   |   |   |   dst_bytes < 215.5 : normal (14/4) [4/0]
|   |   |   |   |   |   |   |   |   |   |   dst_bytes >= 215.5 : guess_passwd (13/0) [12/2]
|   |   |   |   |   |   |   |   |   |   src_bytes >= 102.5 : guess_passwd (27/0) [16/0]
|   |   |   |   |   |   |   |   |   count >= 2.5
|   |   |   |   |   |   |   |   |   |   dst_bytes < 189 : satan (3/0) [0/0]
|   |   |   |   |   |   |   |   |   |   dst_bytes >= 189 : mscan (4/1) [4/2]
|   |   |   |   |   |   |   dst_host_srv_count >= 16.5
|   |   |   |   |   |   |   |   src_bytes < 24.5
|   |   |   |   |   |   |   |   |   dst_host_srv_rerror_rate < 0.19 : normal (5/1) [2/0]
|   |   |   |   |   |   |   |   |   dst_host_srv_rerror_rate >= 0.19 : mscan (17/0) [13/0]
|   |   |   |   |   |   |   |   src_bytes >= 24.5
|   |   |   |   |   |   |   |   |   dst_bytes < 188.5
|   |   |   |   |   |   |   |   |   |   src_bytes < 141
|   |   |   |   |   |   |   |   |   |   |   serror_rate < 0.75 : guess_passwd (617/4) [310/4]
|   |   |   |   |   |   |   |   |   |   |   serror_rate >= 0.75
|   |   |   |   |   |   |   |   |   |   |   |   dst_host_srv_rerror_rate < 0.01 : normal (3/0) [2/0]
|   |   |   |   |   |   |   |   |   |   |   |   dst_host_srv_rerror_rate >= 0.01 : guess_passwd (2/0) [1/0]
|   |   |   |   |   |   |   |   |   |   src_bytes >= 141 : normal (6/0) [1/0]
|   |   |   |   |   |   |   |   |   dst_bytes >= 188.5 : normal (18/3) [14/1]
|   |   |   |   |   dst_bytes >= 219.5
|   |   |   |   |   |   src_bytes < 45
|   |   |   |   |   |   |   src_bytes < 18.5 : normal (50/0) [27/0]
|   |   |   |   |   |   |   src_bytes >= 18.5 : mscan (33/12) [8/1]
|   |   |   |   |   |   src_bytes >= 45
|   |   |   |   |   |   |   hot < 0.5
|   |   |   |   |   |   |   |   duration < 9.5 : normal (791/2) [389/1]
|   |   |   |   |   |   |   |   duration >= 9.5
|   |   |   |   |   |   |   |   |   duration < 24
|   |   |   |   |   |   |   |   |   |   dst_host_srv_rerror_rate < 0.01 : normal (42/1) [20/1]
|   |   |   |   |   |   |   |   |   |   dst_host_srv_rerror_rate >= 0.01
|   |   |   |   |   |   |   |   |   |   |   duration < 13.5 : guess_passwd (7/2) [4/1]
|   |   |   |   |   |   |   |   |   |   |   duration >= 13.5 : normal (8/0) [0/0]
|   |   |   |   |   |   |   |   |   duration >= 24 : normal (110/2) [53/4]
|   |   |   |   |   |   |   hot >= 0.5
|   |   |   |   |   |   |   |   dst_bytes < 565
|   |   |   |   |   |   |   |   |   dst_bytes < 319.5 : multihop (4/2) [0/0]
|   |   |   |   |   |   |   |   |   dst_bytes >= 319.5
|   |   |   |   |   |   |   |   |   |   dst_bytes < 341.5 : ps (3/1) [1/0]
|   |   |   |   |   |   |   |   |   |   dst_bytes >= 341.5 : rootkit (2/1) [2/1]
|   |   |   |   |   |   |   |   dst_bytes >= 565 : normal (18/2) [6/1]
|   |   |   |   hot >= 1.5
|   |   |   |   |   duration < 167.5 : normal (31/10) [14/5]
|   |   |   |   |   duration >= 167.5 : warezmaster (265/0) [119/1]
|   |   |   src_bytes >= 166.5
|   |   |   |   dst_host_srv_count < 140.5
|   |   |   |   |   dst_host_count < 13.5
|   |   |   |   |   |   dst_bytes < 64
|   |   |   |   |   |   |   src_bytes < 353.5
|   |   |   |   |   |   |   |   src_bytes < 326.5
|   |   |   |   |   |   |   |   |   src_bytes < 245.5 : normal (36/0) [29/0]
|   |   |   |   |   |   |   |   |   src_bytes >= 245.5
|   |   |   |   |   |   |   |   |   |   src_bytes < 249 : warezclient (13/0) [5/0]
|   |   |   |   |   |   |   |   |   |   src_bytes >= 249 : normal (12/0) [5/0]
|   |   |   |   |   |   |   |   src_bytes >= 326.5 : warezclient (209/0) [99/1]
|   |   |   |   |   |   |   src_bytes >= 353.5
|   |   |   |   |   |   |   |   duration < 2 : normal (152/9) [64/0]
|   |   |   |   |   |   |   |   duration >= 2 : warezclient (30/1) [14/3]
|   |   |   |   |   |   dst_bytes >= 64
|   |   |   |   |   |   |   duration < 30.5 : normal (370/1) [187/1]
|   |   |   |   |   |   |   duration >= 30.5
|   |   |   |   |   |   |   |   hot < 2.5
|   |   |   |   |   |   |   |   |   dst_bytes < 4971.5
|   |   |   |   |   |   |   |   |   |   src_bytes < 832 : normal (4/2) [3/0]
|   |   |   |   |   |   |   |   |   |   src_bytes >= 832 : buffer_overflow (3/2) [2/1]
|   |   |   |   |   |   |   |   |   dst_bytes >= 4971.5 : normal (35/2) [18/2]
|   |   |   |   |   |   |   |   hot >= 2.5
|   |   |   |   |   |   |   |   |   hot < 5.5 : buffer_overflow (15/3) [4/1]
|   |   |   |   |   |   |   |   |   hot >= 5.5 : normal (7/2) [5/0]
|   |   |   |   |   dst_host_count >= 13.5
|   |   |   |   |   |   hot < 26.5
|   |   |   |   |   |   |   dst_host_count < 250.5
|   |   |   |   |   |   |   |   src_bytes < 334.5
|   |   |   |   |   |   |   |   |   src_bytes < 333.5 : normal (881/8) [442/5]
|   |   |   |   |   |   |   |   |   src_bytes >= 333.5
|   |   |   |   |   |   |   |   |   |   dst_bytes < 138.5 : warezclient (14/0) [10/0]
|   |   |   |   |   |   |   |   |   |   dst_bytes >= 138.5 : normal (4/0) [2/0]
|   |   |   |   |   |   |   |   src_bytes >= 334.5
|   |   |   |   |   |   |   |   |   dst_bytes < 374.5 : normal (2465/1) [1266/4]
|   |   |   |   |   |   |   |   |   dst_bytes >= 374.5
|   |   |   |   |   |   |   |   |   |   dst_bytes < 376.5 : satan (6/2) [2/0]
|   |   |   |   |   |   |   |   |   |   dst_bytes >= 376.5 : normal (408/4) [210/5]
|   |   |   |   |   |   |   dst_host_count >= 250.5
|   |   |   |   |   |   |   |   duration < 0.5
|   |   |   |   |   |   |   |   |   dst_host_srv_rerror_rate < 0.45
|   |   |   |   |   |   |   |   |   |   src_bytes < 338
|   |   |   |   |   |   |   |   |   |   |   src_bytes < 331 : normal (70/1) [37/0]
|   |   |   |   |   |   |   |   |   |   |   src_bytes >= 331 : warezclient (9/0) [4/0]
|   |   |   |   |   |   |   |   |   |   src_bytes >= 338 : normal (750/3) [365/2]
|   |   |   |   |   |   |   |   |   dst_host_srv_rerror_rate >= 0.45 : httptunnel (8/0) [4/0]
|   |   |   |   |   |   |   |   duration >= 0.5
|   |   |   |   |   |   |   |   |   dst_bytes < 308
|   |   |   |   |   |   |   |   |   |   dst_bytes < 292 : normal (8/3) [8/4]
|   |   |   |   |   |   |   |   |   |   dst_bytes >= 292 : mailbomb (67/0) [40/0]
|   |   |   |   |   |   |   |   |   dst_bytes >= 308
|   |   |   |   |   |   |   |   |   |   duration < 4901.5
|   |   |   |   |   |   |   |   |   |   |   num_root < 0.5 : normal (260/7) [140/4]
|   |   |   |   |   |   |   |   |   |   |   num_root >= 0.5
|   |   |   |   |   |   |   |   |   |   |   |   dst_bytes < 15996
|   |   |   |   |   |   |   |   |   |   |   |   |   duration < 58
|   |   |   |   |   |   |   |   |   |   |   |   |   |   dst_host_srv_count < 13.5 : sendmail (3/1) [4/1]
|   |   |   |   |   |   |   |   |   |   |   |   |   |   dst_host_srv_count >= 13.5 : normal (2/0) [0/0]
|   |   |   |   |   |   |   |   |   |   |   |   |   duration >= 58 : buffer_overflow (6/2) [2/2]
|   |   |   |   |   |   |   |   |   |   |   |   dst_bytes >= 15996 : normal (15/4) [2/0]
|   |   |   |   |   |   |   |   |   |   duration >= 4901.5
|   |   |   |   |   |   |   |   |   |   |   dst_bytes < 5807.5 : warezclient (16/1) [6/0]
|   |   |   |   |   |   |   |   |   |   |   dst_bytes >= 5807.5 : normal (29/0) [15/0]
|   |   |   |   |   |   hot >= 26.5
|   |   |   |   |   |   |   dst_bytes < 3299 : warezclient (140/0) [77/0]
|   |   |   |   |   |   |   dst_bytes >= 3299 : normal (127/0) [67/0]
|   |   |   |   dst_host_srv_count >= 140.5
|   |   |   |   |   src_bytes < 2463.5
|   |   |   |   |   |   duration < 751.5 : normal (22636/0) [11274/1]
|   |   |   |   |   |   duration >= 751.5 : apache2 (8/1) [5/3]
|   |   |   |   |   src_bytes >= 2463.5
|   |   |   |   |   |   dst_bytes < 306.5
|   |   |   |   |   |   |   dst_bytes < 290
|   |   |   |   |   |   |   |   dst_host_srv_rerror_rate < 0.07
|   |   |   |   |   |   |   |   |   src_bytes < 2657.5 : mailbomb (8/2) [2/0]
|   |   |   |   |   |   |   |   |   src_bytes >= 2657.5 : normal (11/0) [3/0]
|   |   |   |   |   |   |   |   dst_host_srv_rerror_rate >= 0.07 : apache2 (11/0) [8/0]
|   |   |   |   |   |   |   dst_bytes >= 290 : mailbomb (83/0) [36/0]
|   |   |   |   |   |   dst_bytes >= 306.5 : normal (271/1) [117/1]
|   |   src_bytes >= 20963.5
|   |   |   dst_bytes < 1370.5
|   |   |   |   duration < 154 : normal (321/3) [172/1]
|   |   |   |   duration >= 154
|   |   |   |   |   src_bytes < 192691 : apache2 (252/0) [114/0]
|   |   |   |   |   src_bytes >= 192691
|   |   |   |   |   |   src_bytes < 1391838 : warezmaster (116/0) [71/0]
|   |   |   |   |   |   src_bytes >= 1391838
|   |   |   |   |   |   |   src_bytes < 11058090 : warezclient (35/0) [17/0]
|   |   |   |   |   |   |   src_bytes >= 11058090 : portsweep (4/0) [1/0]
|   |   |   dst_bytes >= 1370.5
|   |   |   |   dst_bytes < 12189.5 : back (701/1) [348/0]
|   |   |   |   dst_bytes >= 12189.5 : normal (36/6) [18/1]
|   protocol_type = udp
|   |   src_bytes < 28.5
|   |   |   src_bytes < 26 : normal (38/3) [17/1]
|   |   |   src_bytes >= 26
|   |   |   |   dst_host_count < 73 : normal (7/1) [7/2]
|   |   |   |   dst_host_count >= 73
|   |   |   |   |   dst_bytes < 58
|   |   |   |   |   |   diff_srv_rate < 0.01
|   |   |   |   |   |   |   count < 17.5 : teardrop (67/0) [45/0]
|   |   |   |   |   |   |   count >= 17.5
|   |   |   |   |   |   |   |   dst_host_srv_count < 90.5
|   |   |   |   |   |   |   |   |   dst_host_count < 107
|   |   |   |   |   |   |   |   |   |   dst_host_srv_count < 61.5 : teardrop (7/0) [7/1]
|   |   |   |   |   |   |   |   |   |   dst_host_srv_count >= 61.5 : normal (2/0) [2/0]
|   |   |   |   |   |   |   |   |   dst_host_count >= 107 : teardrop (245/9) [102/3]
|   |   |   |   |   |   |   |   dst_host_srv_count >= 90.5 : teardrop (60/0) [36/3]
|   |   |   |   |   |   diff_srv_rate >= 0.01 : teardrop (111/0) [56/0]
|   |   |   |   |   dst_bytes >= 58 : normal (2/0) [1/0]
|   |   src_bytes >= 28.5
|   |   |   dst_bytes < 2
|   |   |   |   dst_host_srv_count < 252.5
|   |   |   |   |   src_bytes < 177
|   |   |   |   |   |   src_bytes < 101
|   |   |   |   |   |   |   src_bytes < 98.5 : normal (302/0) [140/2]
|   |   |   |   |   |   |   src_bytes >= 98.5 : nmap (30/4) [7/1]
|   |   |   |   |   |   src_bytes >= 101 : normal (307/1) [136/1]
|   |   |   |   |   src_bytes >= 177
|   |   |   |   |   |   dst_host_count < 251 : nmap (103/1) [63/0]
|   |   |   |   |   |   dst_host_count >= 251 : normal (2/0) [2/0]
|   |   |   |   dst_host_srv_count >= 252.5
|   |   |   |   |   src_bytes < 62 : snmpguess (153/1) [78/2]
|   |   |   |   |   src_bytes >= 62 : normal (26/1) [11/1]
|   |   |   dst_bytes >= 2
|   |   |   |   dst_bytes < 145.5
|   |   |   |   |   count < 4.5
|   |   |   |   |   |   dst_host_srv_count < 252.5 : normal (1488/3) [744/7]
|   |   |   |   |   |   dst_host_srv_count >= 252.5
|   |   |   |   |   |   |   dst_bytes < 50.5
|   |   |   |   |   |   |   |   dst_bytes < 42.5 : normal (26/2) [8/0]
|   |   |   |   |   |   |   |   dst_bytes >= 42.5
|   |   |   |   |   |   |   |   |   count < 3.5
|   |   |   |   |   |   |   |   |   |   src_bytes < 37 : normal (2/0) [1/0]
|   |   |   |   |   |   |   |   |   |   src_bytes >= 37 : snmpguess (24/5) [11/3]
|   |   |   |   |   |   |   |   |   count >= 3.5 : normal (7/1) [3/1]
|   |   |   |   |   |   |   dst_bytes >= 50.5 : normal (58/12) [25/4]
|   |   |   |   |   count >= 4.5 : normal (4670/0) [2466/1]
|   |   |   |   dst_bytes >= 145.5 : normal (583/81) [290/38]
|   protocol_type = icmp
|   |   src_bytes < 345.5
|   |   |   src_bytes < 25
|   |   |   |   src_bytes < 19 : ipsweep (372/0) [157/0]
|   |   |   |   src_bytes >= 19
|   |   |   |   |   dst_host_srv_count < 5.5 : satan (16/1) [8/2]
|   |   |   |   |   dst_host_srv_count >= 5.5 : saint (57/0) [19/0]
|   |   |   src_bytes >= 25
|   |   |   |   dst_host_count < 18.5
|   |   |   |   |   src_bytes < 33 : normal (29/0) [15/0]
|   |   |   |   |   src_bytes >= 33
|   |   |   |   |   |   src_bytes < 50.5
|   |   |   |   |   |   |   dst_host_count < 7.5 : satan (3/0) [1/0]
|   |   |   |   |   |   |   dst_host_count >= 7.5 : snmpguess (2/0) [1/0]
|   |   |   |   |   |   src_bytes >= 50.5 : normal (3/0) [4/0]
|   |   |   |   dst_host_count >= 18.5 : normal (709/0) [331/0]
|   |   src_bytes >= 345.5
|   |   |   src_bytes < 1256
|   |   |   |   dst_host_srv_count < 3.5
|   |   |   |   |   src_bytes < 798 : pod (11/5) [2/0]
|   |   |   |   |   src_bytes >= 798 : smurf (8/0) [6/0]
|   |   |   |   dst_host_srv_count >= 3.5 : smurf (1755/0) [877/0]
|   |   |   src_bytes >= 1256
|   |   |   |   src_bytes < 3944 : pod (130/7) [68/6]
|   |   |   |   src_bytes >= 3944 : normal (15/0) [10/0]

Size of the tree : 540

FilteredClassifier using weka.classifiers.trees.REPTree -M 2 -V 0.001 -N 3 -S 965360494 -L -1 -I 0.0 on data filtered through weka.filters.unsupervised.attribute.Remove -V -R 25,23,9,32,28,20,33,8,5,11,7,10,4,2,13,21,31,15,41,24,35,42

Filtered Header
@relation 'train-80-weka.filters.unsupervised.attribute.Remove-R43-weka.filters.unsupervised.attribute.Remove-V-R25,23,9,32,28,20,33,8,5,11,7,10,4,2,13,21,31,15,41,24,35,42'

@attribute serror_rate numeric
@attribute count numeric
@attribute urgent numeric
@attribute dst_host_count numeric
@attribute srv_rerror_rate numeric
@attribute num_outbound_cmds numeric
@attribute dst_host_srv_count numeric
@attribute wrong_fragment numeric
@attribute src_bytes numeric
@attribute num_failed_logins numeric
@attribute land numeric
@attribute hot numeric
@attribute flag {REJ,SF,RSTO,S0,S3,RSTR,S1,S2,OTH,RSTOS0,SH}
@attribute protocol_type {tcp,udp,icmp}
@attribute num_compromised numeric
@attribute is_host_login numeric
@attribute srv_diff_host_rate numeric
@attribute su_attempted numeric
@attribute dst_host_srv_rerror_rate numeric
@attribute srv_count numeric
@attribute dst_host_diff_srv_rate numeric
@attribute outcome {normal,neptune,warezclient,ipsweep,portsweep,teardrop,nmap,satan,smurf,pod,back,guess_passwd,ftp_write,multihop,rootkit,buffer_overflow,imap,warezmaster,phf,land,loadmodule,spy,perl,saint,mscan,apache2,snmpgetattack,processtable,httptunnel,ps,snmpguess,mailbomb,named,sendmail,xterm,worm,xlock,xsnoop,sqlattack,udpstorm}

@data


Classifier Model

REPTree
============

flag = REJ
|   count < 20.5
|   |   dst_host_srv_count < 2.5
|   |   |   dst_host_count < 74
|   |   |   |   dst_host_diff_srv_rate < 0.88 : normal (19/6) [5/1]
|   |   |   |   dst_host_diff_srv_rate >= 0.88 : ipsweep (198/1) [105/0]
|   |   |   dst_host_count >= 74
|   |   |   |   count < 3.5
|   |   |   |   |   dst_host_diff_srv_rate < 0.08
|   |   |   |   |   |   dst_host_srv_count < 1.5 : portsweep (14/7) [8/3]
|   |   |   |   |   |   dst_host_srv_count >= 1.5
|   |   |   |   |   |   |   srv_count < 1.5 : httptunnel (3/0) [2/1]
|   |   |   |   |   |   |   srv_count >= 1.5 : normal (2/1) [2/1]
|   |   |   |   |   dst_host_diff_srv_rate >= 0.08 : portsweep (212/5) [110/3]
|   |   |   |   count >= 3.5
|   |   |   |   |   dst_host_diff_srv_rate < 0.06 : portsweep (6/2) [1/0]
|   |   |   |   |   dst_host_diff_srv_rate >= 0.06 : satan (30/2) [19/0]
|   |   dst_host_srv_count >= 2.5
|   |   |   dst_host_diff_srv_rate < 0.01
|   |   |   |   dst_host_srv_rerror_rate < 0.29
|   |   |   |   |   dst_host_srv_count < 125
|   |   |   |   |   |   dst_host_count < 1.5 : ipsweep (8/1) [3/1]
|   |   |   |   |   |   dst_host_count >= 1.5 : normal (4/1) [2/0]
|   |   |   |   |   dst_host_srv_count >= 125 : normal (62/0) [33/0]
|   |   |   |   dst_host_srv_rerror_rate >= 0.29 : normal (1217/0) [626/0]
|   |   |   dst_host_diff_srv_rate >= 0.01
|   |   |   |   srv_diff_host_rate < 0.37
|   |   |   |   |   count < 2.5
|   |   |   |   |   |   dst_host_srv_count < 51.5
|   |   |   |   |   |   |   dst_host_diff_srv_rate < 0.03 : httptunnel (42/1) [20/1]
|   |   |   |   |   |   |   dst_host_diff_srv_rate >= 0.03
|   |   |   |   |   |   |   |   dst_host_srv_rerror_rate < 0.74 : httptunnel (8/1) [3/1]
|   |   |   |   |   |   |   |   dst_host_srv_rerror_rate >= 0.74 : normal (39/4) [15/3]
|   |   |   |   |   |   dst_host_srv_count >= 51.5 : normal (48/1) [28/4]
|   |   |   |   |   count >= 2.5
|   |   |   |   |   |   dst_host_diff_srv_rate < 0.04
|   |   |   |   |   |   |   dst_host_srv_count < 8 : normal (3/0) [2/0]
|   |   |   |   |   |   |   dst_host_srv_count >= 8 : mscan (5/2) [6/0]
|   |   |   |   |   |   dst_host_diff_srv_rate >= 0.04 : neptune (18/2) [6/0]
|   |   |   |   srv_diff_host_rate >= 0.37
|   |   |   |   |   dst_host_srv_count < 131.5
|   |   |   |   |   |   srv_count < 3.5
|   |   |   |   |   |   |   count < 1.5
|   |   |   |   |   |   |   |   dst_host_count < 75.5
|   |   |   |   |   |   |   |   |   dst_host_diff_srv_rate < 0.22 : normal (10/0) [1/1]
|   |   |   |   |   |   |   |   |   dst_host_diff_srv_rate >= 0.22 : mscan (2/0) [1/0]
|   |   |   |   |   |   |   |   dst_host_count >= 75.5
|   |   |   |   |   |   |   |   |   dst_host_diff_srv_rate < 0.48
|   |   |   |   |   |   |   |   |   |   dst_host_srv_count < 56.5 : mscan (16/0) [6/0]
|   |   |   |   |   |   |   |   |   |   dst_host_srv_count >= 56.5 : normal (4/2) [4/0]
|   |   |   |   |   |   |   |   |   dst_host_diff_srv_rate >= 0.48 : normal (4/0) [0/0]
|   |   |   |   |   |   |   count >= 1.5 : mscan (26/0) [10/0]
|   |   |   |   |   |   srv_count >= 3.5 : mscan (122/0) [67/0]
|   |   |   |   |   dst_host_srv_count >= 131.5 : normal (13/0) [0/0]
|   count >= 20.5
|   |   dst_host_diff_srv_rate < 0.13
|   |   |   dst_host_srv_count < 61.5
|   |   |   |   count < 47.5
|   |   |   |   |   dst_host_srv_count < 1.5 : portsweep (10/4) [7/0]
|   |   |   |   |   dst_host_srv_count >= 1.5 : neptune (33/0) [14/0]
|   |   |   |   count >= 47.5 : neptune (4448/1) [2221/4]
|   |   |   dst_host_srv_count >= 61.5 : normal (27/0) [12/0]
|   |   dst_host_diff_srv_rate >= 0.13
|   |   |   serror_rate < 0.01
|   |   |   |   srv_count < 1.5
|   |   |   |   |   count < 110.5
|   |   |   |   |   |   dst_host_count < 63
|   |   |   |   |   |   |   count < 77.5 : portsweep (3/0) [1/0]
|   |   |   |   |   |   |   count >= 77.5 : neptune (3/0) [0/0]
|   |   |   |   |   |   dst_host_count >= 63
|   |   |   |   |   |   |   dst_host_diff_srv_rate < 0.24
|   |   |   |   |   |   |   |   count < 39 : satan (6/0) [1/0]
|   |   |   |   |   |   |   |   count >= 39 : portsweep (10/1) [10/0]
|   |   |   |   |   |   |   dst_host_diff_srv_rate >= 0.24 : satan (31/1) [17/1]
|   |   |   |   |   count >= 110.5
|   |   |   |   |   |   count < 469.5 : portsweep (46/0) [44/1]
|   |   |   |   |   |   count >= 469.5 : satan (13/0) [6/0]
|   |   |   |   srv_count >= 1.5 : neptune (23/1) [11/0]
|   |   |   serror_rate >= 0.01
|   |   |   |   serror_rate < 0.07
|   |   |   |   |   count < 430.5 : satan (276/2) [137/4]
|   |   |   |   |   count >= 430.5
|   |   |   |   |   |   count < 444.5 : saint (27/5) [11/4]
|   |   |   |   |   |   count >= 444.5
|   |   |   |   |   |   |   serror_rate < 0.04 : satan (34/1) [22/3]
|   |   |   |   |   |   |   serror_rate >= 0.04
|   |   |   |   |   |   |   |   serror_rate < 0.04
|   |   |   |   |   |   |   |   |   count < 485 : saint (8/1) [2/0]
|   |   |   |   |   |   |   |   |   count >= 485 : satan (26/10) [11/2]
|   |   |   |   |   |   |   |   serror_rate >= 0.04
|   |   |   |   |   |   |   |   |   count < 460 : satan (12/0) [1/0]
|   |   |   |   |   |   |   |   |   count >= 460
|   |   |   |   |   |   |   |   |   |   count < 495.5
|   |   |   |   |   |   |   |   |   |   |   count < 489.5
|   |   |   |   |   |   |   |   |   |   |   |   count < 482.5
|   |   |   |   |   |   |   |   |   |   |   |   |   count < 481.5 : satan (7/2) [8/0]
|   |   |   |   |   |   |   |   |   |   |   |   |   count >= 481.5 : saint (6/1) [1/0]
|   |   |   |   |   |   |   |   |   |   |   |   count >= 482.5 : satan (7/1) [4/2]
|   |   |   |   |   |   |   |   |   |   |   count >= 489.5
|   |   |   |   |   |   |   |   |   |   |   |   count < 490.5 : saint (3/0) [1/0]
|   |   |   |   |   |   |   |   |   |   |   |   count >= 490.5 : satan (6/3) [3/1]
|   |   |   |   |   |   |   |   |   |   count >= 495.5 : satan (56/14) [17/2]
|   |   |   |   serror_rate >= 0.07
|   |   |   |   |   dst_host_diff_srv_rate < 0.45 : saint (6/2) [5/3]
|   |   |   |   |   dst_host_diff_srv_rate >= 0.45
|   |   |   |   |   |   serror_rate < 0.11
|   |   |   |   |   |   |   serror_rate < 0.08 : satan (259/16) [137/11]
|   |   |   |   |   |   |   serror_rate >= 0.08
|   |   |   |   |   |   |   |   dst_host_diff_srv_rate < 0.69 : satan (13/2) [4/0]
|   |   |   |   |   |   |   |   dst_host_diff_srv_rate >= 0.69
|   |   |   |   |   |   |   |   |   count < 488.5 : satan (142/0) [59/1]
|   |   |   |   |   |   |   |   |   count >= 488.5
|   |   |   |   |   |   |   |   |   |   count < 492 : saint (2/0) [3/0]
|   |   |   |   |   |   |   |   |   |   count >= 492 : satan (73/1) [32/0]
|   |   |   |   |   |   serror_rate >= 0.11 : satan (301/0) [151/2]
flag = SF
|   protocol_type = tcp
|   |   src_bytes < 164.5
|   |   |   src_bytes < 6.5
|   |   |   |   dst_host_count < 254
|   |   |   |   |   dst_host_diff_srv_rate < 0.41
|   |   |   |   |   |   dst_host_srv_rerror_rate < 0.14
|   |   |   |   |   |   |   dst_host_count < 17.5
|   |   |   |   |   |   |   |   dst_host_count < 4.5
|   |   |   |   |   |   |   |   |   count < 1.5 : normal (17/6) [6/5]
|   |   |   |   |   |   |   |   |   count >= 1.5 : buffer_overflow (13/7) [3/2]
|   |   |   |   |   |   |   |   dst_host_count >= 4.5 : normal (37/12) [19/2]
|   |   |   |   |   |   |   dst_host_count >= 17.5 : normal (116/9) [62/4]
|   |   |   |   |   |   dst_host_srv_rerror_rate >= 0.14 : mscan (15/1) [6/1]
|   |   |   |   |   dst_host_diff_srv_rate >= 0.41 : ipsweep (29/6) [17/2]
|   |   |   |   dst_host_count >= 254
|   |   |   |   |   count < 1.5
|   |   |   |   |   |   dst_host_srv_rerror_rate < 0.3
|   |   |   |   |   |   |   dst_host_srv_rerror_rate < 0.01
|   |   |   |   |   |   |   |   dst_host_srv_count < 172
|   |   |   |   |   |   |   |   |   dst_host_diff_srv_rate < 0.39 : normal (11/0) [9/2]
|   |   |   |   |   |   |   |   |   dst_host_diff_srv_rate >= 0.39 : processtable (13/0) [7/1]
|   |   |   |   |   |   |   |   dst_host_srv_count >= 172 : processtable (24/0) [12/0]
|   |   |   |   |   |   |   dst_host_srv_rerror_rate >= 0.01 : processtable (215/1) [96/2]
|   |   |   |   |   |   dst_host_srv_rerror_rate >= 0.3 : mscan (4/0) [1/0]
|   |   |   |   |   count >= 1.5
|   |   |   |   |   |   src_bytes < 3
|   |   |   |   |   |   |   srv_rerror_rate < 0.34 : normal (17/3) [6/2]
|   |   |   |   |   |   |   srv_rerror_rate >= 0.34 : mscan (6/1) [3/1]
|   |   |   |   |   |   src_bytes >= 3 : satan (36/3) [17/2]
|   |   |   src_bytes >= 6.5
|   |   |   |   hot < 1.5
|   |   |   |   |   src_bytes < 24.5
|   |   |   |   |   |   dst_host_srv_rerror_rate < 0.3
|   |   |   |   |   |   |   dst_host_count < 13.5
|   |   |   |   |   |   |   |   src_bytes < 11.5 : normal (38/4) [15/2]
|   |   |   |   |   |   |   |   src_bytes >= 11.5
|   |   |   |   |   |   |   |   |   src_bytes < 12.5
|   |   |   |   |   |   |   |   |   |   dst_host_srv_count < 43.5 : warezmaster (100/2) [43/1]
|   |   |   |   |   |   |   |   |   |   dst_host_srv_count >= 43.5 : normal (7/0) [6/1]
|   |   |   |   |   |   |   |   |   src_bytes >= 12.5 : normal (12/0) [5/0]
|   |   |   |   |   |   |   dst_host_count >= 13.5 : normal (600/27) [295/17]
|   |   |   |   |   |   dst_host_srv_rerror_rate >= 0.3 : mscan (39/1) [16/2]
|   |   |   |   |   src_bytes >= 24.5
|   |   |   |   |   |   src_bytes < 33.5
|   |   |   |   |   |   |   dst_host_srv_count < 105.5
|   |   |   |   |   |   |   |   count < 1.5
|   |   |   |   |   |   |   |   |   dst_host_diff_srv_rate < 0.25
|   |   |   |   |   |   |   |   |   |   dst_host_count < 7 : guess_passwd (6/2) [2/1]
|   |   |   |   |   |   |   |   |   |   dst_host_count >= 7
|   |   |   |   |   |   |   |   |   |   |   dst_host_count < 224 : guess_passwd (97/3) [52/3]
|   |   |   |   |   |   |   |   |   |   |   dst_host_count >= 224
|   |   |   |   |   |   |   |   |   |   |   |   src_bytes < 28 : normal (3/0) [1/0]
|   |   |   |   |   |   |   |   |   |   |   |   src_bytes >= 28 : guess_passwd (8/0) [6/1]
|   |   |   |   |   |   |   |   |   dst_host_diff_srv_rate >= 0.25 : normal (5/2) [3/0]
|   |   |   |   |   |   |   |   count >= 1.5 : normal (18/4) [6/2]
|   |   |   |   |   |   |   dst_host_srv_count >= 105.5 : guess_passwd (333/0) [172/2]
|   |   |   |   |   |   src_bytes >= 33.5
|   |   |   |   |   |   |   num_failed_logins < 0.5
|   |   |   |   |   |   |   |   dst_host_srv_rerror_rate < 0.01
|   |   |   |   |   |   |   |   |   hot < 0.5
|   |   |   |   |   |   |   |   |   |   src_bytes < 56
|   |   |   |   |   |   |   |   |   |   |   count < 4 : normal (114/4) [56/5]
|   |   |   |   |   |   |   |   |   |   |   count >= 4
|   |   |   |   |   |   |   |   |   |   |   |   src_bytes < 46
|   |   |   |   |   |   |   |   |   |   |   |   |   serror_rate < 0.01 : mscan (6/1) [9/1]
|   |   |   |   |   |   |   |   |   |   |   |   |   serror_rate >= 0.01 : satan (4/1) [2/1]
|   |   |   |   |   |   |   |   |   |   |   |   src_bytes >= 46 : normal (19/1) [11/0]
|   |   |   |   |   |   |   |   |   |   src_bytes >= 56 : normal (980/8) [492/2]
|   |   |   |   |   |   |   |   |   hot >= 0.5
|   |   |   |   |   |   |   |   |   |   dst_host_srv_count < 186 : multihop (10/8) [4/3]
|   |   |   |   |   |   |   |   |   |   dst_host_srv_count >= 186 : normal (7/0) [10/0]
|   |   |   |   |   |   |   |   dst_host_srv_rerror_rate >= 0.01 : normal (66/14) [29/2]
|   |   |   |   |   |   |   num_failed_logins >= 0.5
|   |   |   |   |   |   |   |   src_bytes < 103.5 : normal (22/2) [10/0]
|   |   |   |   |   |   |   |   src_bytes >= 103.5
|   |   |   |   |   |   |   |   |   dst_host_diff_srv_rate < 0.05 : guess_passwd (184/0) [92/3]
|   |   |   |   |   |   |   |   |   dst_host_diff_srv_rate >= 0.05 : normal (4/1) [3/1]
|   |   |   |   hot >= 1.5
|   |   |   |   |   dst_host_diff_srv_rate < 0.01 : normal (14/2) [8/4]
|   |   |   |   |   dst_host_diff_srv_rate >= 0.01 : warezmaster (264/7) [119/3]
|   |   src_bytes >= 164.5
|   |   |   src_bytes < 52220.5
|   |   |   |   dst_host_srv_count < 142.5
|   |   |   |   |   dst_host_count < 10.5
|   |   |   |   |   |   src_bytes < 333.5
|   |   |   |   |   |   |   src_bytes < 245.5 : normal (144/2) [77/1]
|   |   |   |   |   |   |   src_bytes >= 245.5
|   |   |   |   |   |   |   |   src_bytes < 247 : warezclient (12/0) [7/2]
|   |   |   |   |   |   |   |   src_bytes >= 247 : normal (87/2) [48/1]
|   |   |   |   |   |   src_bytes >= 333.5
|   |   |   |   |   |   |   src_bytes < 337.5 : warezclient (194/0) [87/2]
|   |   |   |   |   |   |   src_bytes >= 337.5
|   |   |   |   |   |   |   |   num_compromised < 0.5
|   |   |   |   |   |   |   |   |   dst_host_srv_count < 63
|   |   |   |   |   |   |   |   |   |   dst_host_srv_count < 8.5 : normal (83/7) [45/4]
|   |   |   |   |   |   |   |   |   |   dst_host_srv_count >= 8.5
|   |   |   |   |   |   |   |   |   |   |   src_bytes < 813 : normal (26/0) [10/0]
|   |   |   |   |   |   |   |   |   |   |   src_bytes >= 813
|   |   |   |   |   |   |   |   |   |   |   |   dst_host_diff_srv_rate < 0.1
|   |   |   |   |   |   |   |   |   |   |   |   |   src_bytes < 943.5 : warezclient (14/0) [8/3]
|   |   |   |   |   |   |   |   |   |   |   |   |   src_bytes >= 943.5
|   |   |   |   |   |   |   |   |   |   |   |   |   |   src_bytes < 6988.5 : normal (7/0) [4/0]
|   |   |   |   |   |   |   |   |   |   |   |   |   |   src_bytes >= 6988.5
|   |   |   |   |   |   |   |   |   |   |   |   |   |   |   src_bytes < 7162.5 : warezclient (12/0) [9/0]
|   |   |   |   |   |   |   |   |   |   |   |   |   |   |   src_bytes >= 7162.5 : normal (3/0) [3/0]
|   |   |   |   |   |   |   |   |   |   |   |   dst_host_diff_srv_rate >= 0.1 : normal (9/1) [2/0]
|   |   |   |   |   |   |   |   |   dst_host_srv_count >= 63 : normal (110/0) [55/1]
|   |   |   |   |   |   |   |   num_compromised >= 0.5
|   |   |   |   |   |   |   |   |   num_compromised < 7.5 : buffer_overflow (10/1) [9/2]
|   |   |   |   |   |   |   |   |   num_compromised >= 7.5 : normal (6/2) [3/2]
|   |   |   |   |   dst_host_count >= 10.5
|   |   |   |   |   |   hot < 26.5
|   |   |   |   |   |   |   dst_host_diff_srv_rate < 0.14
|   |   |   |   |   |   |   |   dst_host_srv_rerror_rate < 0.24
|   |   |   |   |   |   |   |   |   hot < 0.5
|   |   |   |   |   |   |   |   |   |   dst_host_count < 17.5
|   |   |   |   |   |   |   |   |   |   |   srv_count < 2.5
|   |   |   |   |   |   |   |   |   |   |   |   dst_host_srv_count < 18 : normal (16/0) [8/2]
|   |   |   |   |   |   |   |   |   |   |   |   dst_host_srv_count >= 18
|   |   |   |   |   |   |   |   |   |   |   |   |   dst_host_srv_count < 61
|   |   |   |   |   |   |   |   |   |   |   |   |   |   src_bytes < 311.5 : normal (2/0) [3/1]
|   |   |   |   |   |   |   |   |   |   |   |   |   |   src_bytes >= 311.5 : warezclient (27/2) [14/1]
|   |   |   |   |   |   |   |   |   |   |   |   |   dst_host_srv_count >= 61 : normal (12/0) [2/0]
|   |   |   |   |   |   |   |   |   |   |   srv_count >= 2.5 : normal (106/0) [45/0]
|   |   |   |   |   |   |   |   |   |   dst_host_count >= 17.5
|   |   |   |   |   |   |   |   |   |   |   dst_host_srv_count < 3.5 : normal (170/11) [97/7]
|   |   |   |   |   |   |   |   |   |   |   dst_host_srv_count >= 3.5
|   |   |   |   |   |   |   |   |   |   |   |   dst_host_count < 221.5 : normal (2859/2) [1420/1]
|   |   |   |   |   |   |   |   |   |   |   |   dst_host_count >= 221.5
|   |   |   |   |   |   |   |   |   |   |   |   |   src_bytes < 334.5
|   |   |   |   |   |   |   |   |   |   |   |   |   |   src_bytes < 331 : normal (87/1) [50/0]
|   |   |   |   |   |   |   |   |   |   |   |   |   |   src_bytes >= 331 : warezclient (15/2) [6/0]
|   |   |   |   |   |   |   |   |   |   |   |   |   src_bytes >= 334.5 : normal (985/6) [482/3]
|   |   |   |   |   |   |   |   |   hot >= 0.5
|   |   |   |   |   |   |   |   |   |   dst_host_count < 253.5 : normal (225/3) [124/7]
|   |   |   |   |   |   |   |   |   |   dst_host_count >= 253.5
|   |   |   |   |   |   |   |   |   |   |   dst_host_srv_count < 36 : warezclient (25/13) [11/3]
|   |   |   |   |   |   |   |   |   |   |   dst_host_srv_count >= 36
|   |   |   |   |   |   |   |   |   |   |   |   dst_host_srv_count < 73
|   |   |   |   |   |   |   |   |   |   |   |   |   src_bytes < 195.5 : warezmaster (2/0) [1/0]
|   |   |   |   |   |   |   |   |   |   |   |   |   src_bytes >= 195.5 : normal (69/0) [26/0]
|   |   |   |   |   |   |   |   |   |   |   |   dst_host_srv_count >= 73 : warezclient (6/3) [3/2]
|   |   |   |   |   |   |   |   dst_host_srv_rerror_rate >= 0.24
|   |   |   |   |   |   |   |   |   dst_host_srv_count < 31
|   |   |   |   |   |   |   |   |   |   dst_host_srv_count < 9.5 : normal (7/2) [2/0]
|   |   |   |   |   |   |   |   |   |   dst_host_srv_count >= 9.5
|   |   |   |   |   |   |   |   |   |   |   dst_host_count < 57 : normal (2/1) [1/0]
|   |   |   |   |   |   |   |   |   |   |   dst_host_count >= 57 : httptunnel (11/1) [5/0]
|   |   |   |   |   |   |   |   |   dst_host_srv_count >= 31 : normal (18/1) [5/0]
|   |   |   |   |   |   |   dst_host_diff_srv_rate >= 0.14
|   |   |   |   |   |   |   |   src_bytes < 2588
|   |   |   |   |   |   |   |   |   src_bytes < 1707 : normal (362/5) [175/5]
|   |   |   |   |   |   |   |   |   src_bytes >= 1707
|   |   |   |   |   |   |   |   |   |   src_bytes < 1724.5 : satan (4/0) [3/1]
|   |   |   |   |   |   |   |   |   |   src_bytes >= 1724.5 : normal (38/1) [20/0]
|   |   |   |   |   |   |   |   src_bytes >= 2588
|   |   |   |   |   |   |   |   |   src_bytes < 2622.5 : mailbomb (76/0) [33/0]
|   |   |   |   |   |   |   |   |   src_bytes >= 2622.5
|   |   |   |   |   |   |   |   |   |   num_compromised < 1.5 : normal (96/0) [51/0]
|   |   |   |   |   |   |   |   |   |   num_compromised >= 1.5 : buffer_overflow (4/2) [1/0]
|   |   |   |   |   |   hot >= 26.5
|   |   |   |   |   |   |   src_bytes < 1344.5 : warezclient (139/0) [78/0]
|   |   |   |   |   |   |   src_bytes >= 1344.5 : normal (128/0) [69/0]
|   |   |   |   dst_host_srv_count >= 142.5
|   |   |   |   |   src_bytes < 2598 : normal (22493/0) [11206/0]
|   |   |   |   |   src_bytes >= 2598
|   |   |   |   |   |   src_bytes < 2602 : mailbomb (80/0) [45/0]
|   |   |   |   |   |   src_bytes >= 2602 : normal (236/1) [120/0]
|   |   |   src_bytes >= 52220.5
|   |   |   |   src_bytes < 54704 : back (628/0) [306/1]
|   |   |   |   src_bytes >= 54704
|   |   |   |   |   dst_host_count < 14.5
|   |   |   |   |   |   src_bytes < 385159
|   |   |   |   |   |   |   src_bytes < 267160 : normal (4/1) [3/1]
|   |   |   |   |   |   |   src_bytes >= 267160 : warezmaster (102/0) [50/0]
|   |   |   |   |   |   src_bytes >= 385159
|   |   |   |   |   |   |   hot < 0.5 : normal (14/3) [13/2]
|   |   |   |   |   |   |   hot >= 0.5 : warezclient (26/0) [13/0]
|   |   |   |   |   dst_host_count >= 14.5
|   |   |   |   |   |   hot < 0.5
|   |   |   |   |   |   |   src_bytes < 289215
|   |   |   |   |   |   |   |   src_bytes < 253380 : normal (74/1) [40/0]
|   |   |   |   |   |   |   |   src_bytes >= 253380 : warezmaster (15/1) [20/0]
|   |   |   |   |   |   |   src_bytes >= 289215 : normal (180/1) [83/2]
|   |   |   |   |   |   hot >= 0.5 : warezclient (6/1) [1/1]
|   protocol_type = udp
|   |   src_bytes < 28.5
|   |   |   wrong_fragment < 0.5
|   |   |   |   src_bytes < 11
|   |   |   |   |   dst_host_diff_srv_rate < 0.45
|   |   |   |   |   |   dst_host_count < 67.5 : normal (3/2) [3/0]
|   |   |   |   |   |   dst_host_count >= 67.5 : satan (507/14) [281/7]
|   |   |   |   |   dst_host_diff_srv_rate >= 0.45
|   |   |   |   |   |   srv_count < 1.5 : satan (228/2) [85/2]
|   |   |   |   |   |   srv_count >= 1.5
|   |   |   |   |   |   |   count < 43.5 : satan (214/26) [119/8]
|   |   |   |   |   |   |   count >= 43.5
|   |   |   |   |   |   |   |   dst_host_srv_count < 16.5 : normal (37/1) [19/2]
|   |   |   |   |   |   |   |   dst_host_srv_count >= 16.5
|   |   |   |   |   |   |   |   |   dst_host_srv_count < 23
|   |   |   |   |   |   |   |   |   |   count < 58.5 : satan (2/0) [1/0]
|   |   |   |   |   |   |   |   |   |   count >= 58.5 : normal (2/1) [3/0]
|   |   |   |   |   |   |   |   |   dst_host_srv_count >= 23 : normal (7/0) [3/0]
|   |   |   |   src_bytes >= 11 : normal (40/3) [20/1]
|   |   |   wrong_fragment >= 0.5 : teardrop (502/20) [250/9]
|   |   src_bytes >= 28.5
|   |   |   srv_count < 6.5
|   |   |   |   dst_host_srv_count < 252.5
|   |   |   |   |   src_bytes < 177
|   |   |   |   |   |   src_bytes < 104.5
|   |   |   |   |   |   |   src_bytes < 99.5 : normal (837/3) [421/2]
|   |   |   |   |   |   |   src_bytes >= 99.5
|   |   |   |   |   |   |   |   src_bytes < 101
|   |   |   |   |   |   |   |   |   srv_diff_host_rate < 0.5 : nmap (19/0) [15/1]
|   |   |   |   |   |   |   |   |   srv_diff_host_rate >= 0.5 : normal (2/0) [2/0]
|   |   |   |   |   |   |   |   src_bytes >= 101 : normal (11/0) [8/0]
|   |   |   |   |   |   src_bytes >= 104.5 : normal (1617/60) [801/29]
|   |   |   |   |   src_bytes >= 177 : nmap (113/3) [59/3]
|   |   |   |   dst_host_srv_count >= 252.5
|   |   |   |   |   src_bytes < 60.5
|   |   |   |   |   |   srv_diff_host_rate < 0.17
|   |   |   |   |   |   |   src_bytes < 38 : normal (7/0) [3/0]
|   |   |   |   |   |   |   src_bytes >= 38
|   |   |   |   |   |   |   |   count < 1.5 : snmpguess (13/4) [6/1]
|   |   |   |   |   |   |   |   count >= 1.5
|   |   |   |   |   |   |   |   |   src_bytes < 46.5
|   |   |   |   |   |   |   |   |   |   count < 5.5 : snmpguess (94/6) [53/4]
|   |   |   |   |   |   |   |   |   |   count >= 5.5
|   |   |   |   |   |   |   |   |   |   |   src_bytes < 43.5 : snmpguess (2/0) [0/0]
|   |   |   |   |   |   |   |   |   |   |   src_bytes >= 43.5 : normal (5/2) [1/0]
|   |   |   |   |   |   |   |   |   src_bytes >= 46.5 : snmpguess (70/0) [32/0]
|   |   |   |   |   |   srv_diff_host_rate >= 0.17 : normal (34/0) [13/0]
|   |   |   |   |   src_bytes >= 60.5 : normal (111/34) [60/19]
|   |   |   srv_count >= 6.5 : normal (4937/3) [2420/1]
|   protocol_type = icmp
|   |   src_bytes < 19
|   |   |   dst_host_count < 2.5
|   |   |   |   src_bytes < 13
|   |   |   |   |   dst_host_srv_count < 129.5
|   |   |   |   |   |   dst_host_srv_count < 40.5 : ipsweep (413/31) [183/15]
|   |   |   |   |   |   dst_host_srv_count >= 40.5
|   |   |   |   |   |   |   dst_host_srv_count < 42.5
|   |   |   |   |   |   |   |   srv_count < 32 : ipsweep (12/2) [9/1]
|   |   |   |   |   |   |   |   srv_count >= 32 : nmap (17/7) [5/0]
|   |   |   |   |   |   |   dst_host_srv_count >= 42.5
|   |   |   |   |   |   |   |   dst_host_srv_count < 126.5
|   |   |   |   |   |   |   |   |   dst_host_srv_count < 108.5
|   |   |   |   |   |   |   |   |   |   dst_host_srv_count < 45.5 : ipsweep (35/0) [21/1]
|   |   |   |   |   |   |   |   |   |   dst_host_srv_count >= 45.5
|   |   |   |   |   |   |   |   |   |   |   srv_count < 18.5
|   |   |   |   |   |   |   |   |   |   |   |   dst_host_srv_count < 81.5
|   |   |   |   |   |   |   |   |   |   |   |   |   dst_host_srv_count < 79.5 : ipsweep (107/19) [43/6]
|   |   |   |   |   |   |   |   |   |   |   |   |   dst_host_srv_count >= 79.5
|   |   |   |   |   |   |   |   |   |   |   |   |   |   dst_host_srv_count < 80.5 : nmap (7/1) [3/1]
|   |   |   |   |   |   |   |   |   |   |   |   |   |   dst_host_srv_count >= 80.5 : ipsweep (8/3) [2/0]
|   |   |   |   |   |   |   |   |   |   |   |   dst_host_srv_count >= 81.5 : ipsweep (86/11) [36/3]
|   |   |   |   |   |   |   |   |   |   |   srv_count >= 18.5
|   |   |   |   |   |   |   |   |   |   |   |   srv_count < 41.5
|   |   |   |   |   |   |   |   |   |   |   |   |   dst_host_srv_count < 100.5
|   |   |   |   |   |   |   |   |   |   |   |   |   |   dst_host_count < 1.5 : ipsweep (152/4) [66/3]
|   |   |   |   |   |   |   |   |   |   |   |   |   |   dst_host_count >= 1.5
|   |   |   |   |   |   |   |   |   |   |   |   |   |   |   srv_count < 37.5
|   |   |   |   |   |   |   |   |   |   |   |   |   |   |   |   dst_host_srv_count < 60.5 : ipsweep (40/1) [11/0]
|   |   |   |   |   |   |   |   |   |   |   |   |   |   |   |   dst_host_srv_count >= 60.5
|   |   |   |   |   |   |   |   |   |   |   |   |   |   |   |   |   dst_host_srv_count < 61.5 : nmap (5/1) [2/0]
|   |   |   |   |   |   |   |   |   |   |   |   |   |   |   |   |   dst_host_srv_count >= 61.5 : ipsweep (101/12) [62/6]
|   |   |   |   |   |   |   |   |   |   |   |   |   |   |   srv_count >= 37.5 : ipsweep (35/0) [13/2]
|   |   |   |   |   |   |   |   |   |   |   |   |   dst_host_srv_count >= 100.5 : ipsweep (25/7) [13/2]
|   |   |   |   |   |   |   |   |   |   |   |   srv_count >= 41.5
|   |   |   |   |   |   |   |   |   |   |   |   |   dst_host_srv_count < 90.5
|   |   |   |   |   |   |   |   |   |   |   |   |   |   dst_host_srv_count < 60 : ipsweep (23/3) [13/2]
|   |   |   |   |   |   |   |   |   |   |   |   |   |   dst_host_srv_count >= 60
|   |   |   |   |   |   |   |   |   |   |   |   |   |   |   dst_host_srv_count < 61.5 : nmap (8/3) [4/1]
|   |   |   |   |   |   |   |   |   |   |   |   |   |   |   dst_host_srv_count >= 61.5 : ipsweep (70/13) [39/5]
|   |   |   |   |   |   |   |   |   |   |   |   |   dst_host_srv_count >= 90.5 : ipsweep (21/0) [18/1]
|   |   |   |   |   |   |   |   |   dst_host_srv_count >= 108.5 : ipsweep (88/24) [36/6]
|   |   |   |   |   |   |   |   dst_host_srv_count >= 126.5 : ipsweep (59/1) [30/1]
|   |   |   |   |   dst_host_srv_count >= 129.5
|   |   |   |   |   |   srv_count < 44.5
|   |   |   |   |   |   |   srv_count < 9.5
|   |   |   |   |   |   |   |   dst_host_srv_count < 163 : ipsweep (20/1) [12/3]
|   |   |   |   |   |   |   |   dst_host_srv_count >= 163
|   |   |   |   |   |   |   |   |   dst_host_srv_count < 213 : nmap (6/1) [6/1]
|   |   |   |   |   |   |   |   |   dst_host_srv_count >= 213 : ipsweep (18/1) [17/3]
|   |   |   |   |   |   |   srv_count >= 9.5
|   |   |   |   |   |   |   |   srv_count < 27.5
|   |   |   |   |   |   |   |   |   dst_host_srv_count < 215.5
|   |   |   |   |   |   |   |   |   |   dst_host_srv_count < 186.5
